nep4 5 C N H Pb I 
cutoff 8 4 115 19
n_max 8 6
basis_size 12 12
l_max 8 2 1
ANN 50 0
 -1.4607857e-01
 -3.2834208e-01
 -7.5020127e-02
 -2.3592026e-03
 -2.7792838e-01
 -4.9359526e-02
 -2.6810476e-01
 -3.8849419e-01
  7.9973854e-02
 -8.4441870e-02
 -1.1100463e-02
 -6.0608280e-01
  2.3076916e-02
  2.4332513e-01
 -2.1788485e-02
 -1.1625321e-01
 -5.7324100e-01
  5.6942689e-01
  1.7146681e-01
  1.4793145e-02
  1.2848576e+00
  4.0390510e-03
 -3.0734888e-01
 -8.7669007e-02
  7.9877689e-02
  7.7246621e-02
  3.7928966e-01
  5.8218691e-02
 -4.3361154e-01
  1.4725676e-01
 -1.3550520e-01
  8.5374750e-02
 -1.6737334e-01
  3.5579643e-01
 -2.3815896e-02
 -1.1269532e-01
 -1.0117497e-01
  5.7360601e-01
  8.3349496e-02
 -9.6369639e-02
 -5.4897726e-02
 -1.6630304e-01
  4.7524664e-01
  1.1774969e-01
  9.8531879e-02
  2.1303688e-01
 -1.9248584e-01
  1.8717881e-01
 -3.8629493e-01
 -4.0949259e-02
  1.1292467e-01
  5.0158918e-02
 -8.0056578e-02
 -5.8854818e-01
  1.0133234e-01
  1.9066174e-01
 -1.4768735e-01
 -5.4121530e-01
 -1.6528243e-01
  1.5774804e-01
  1.6335005e-01
 -2.7333841e-01
  3.1636965e-02
  1.9902770e-01
 -1.7382596e-01
 -2.6047042e-01
  1.9484252e-01
  4.9747303e-02
  7.1692429e-02
  5.1181722e-01
  8.3050236e-02
 -6.3882671e-02
  2.5345009e-02
  1.6330218e-01
  1.8874921e-01
  8.6664551e-01
  3.4572598e-01
  7.9422295e-02
 -1.1360507e-01
 -5.2197002e-02
  9.4178669e-02
 -2.2066525e-01
 -5.4644614e-01
  8.2955457e-02
  2.3878761e-01
 -2.6393659e-02
  1.0525261e-01
  3.1783439e-02
  6.0517287e-01
  3.3288696e-01
  1.6219117e-01
  2.7769008e-01
 -2.4443781e-01
  3.6781508e-01
  8.3495490e-02
  4.2492758e-02
 -2.9400250e-01
 -2.0457320e-01
  1.3113083e-01
  9.4035901e-02
 -4.3684054e-02
  2.4027155e-01
 -3.2388322e-02
 -3.3486053e-01
  1.1850911e-01
  1.1561023e-01
  1.5935464e-02
 -1.5783590e-01
  3.2636419e-01
  3.3747974e-01
 -1.1184714e-02
  2.5387719e-01
 -3.3384663e-01
 -8.1481747e-02
 -7.8354955e-02
  1.4211036e-01
  1.3546838e-01
 -1.8329974e-01
 -4.3100908e-01
 -2.2009337e-01
 -4.8173904e-02
  4.6265297e-02
 -1.7164654e-01
 -2.5587636e-01
 -3.3854759e-01
  2.5005028e-01
 -3.7796104e-01
  1.6312051e-01
 -8.5825878e-01
 -2.3789261e-02
 -2.0352186e-01
 -2.5464720e-03
  7.8107111e-02
  1.5680367e-01
  3.9181286e-03
 -5.9258593e-03
 -9.8604515e-02
  2.1425064e-01
  9.7420692e-02
  1.4124592e-01
  4.3590557e-02
 -1.6136125e-01
 -3.4906544e-02
  2.8264770e-01
  4.0853921e-01
 -1.2133398e-02
 -1.3844949e-01
 -4.8246822e-01
  1.6086183e-01
 -1.7052580e-01
 -3.3425674e-01
 -2.3708183e-01
 -7.7452141e-01
  2.0416453e-01
 -8.4986126e-01
 -2.6263112e-01
 -1.1868543e-01
  3.5626864e-01
  4.1949142e-02
 -3.4601402e-01
  4.2037788e-01
  4.7748649e-01
  7.3816963e-02
 -1.0012706e-02
  1.4669691e-01
 -3.5863993e-01
 -8.7050654e-02
  2.4975030e-01
 -5.0571477e-01
  1.9299552e-01
  1.6508322e-02
  6.9897152e-02
 -6.1744329e-02
 -1.7173655e-01
 -4.8519596e-01
  1.3245167e-01
 -7.7176839e-02
 -8.3433136e-02
  8.8803209e-02
  1.2136944e-01
 -1.7873110e-01
  8.1084147e-02
 -4.9628709e-02
  9.6555039e-02
 -1.3390824e-01
  7.7331953e-02
  2.0013085e-01
  1.8894550e-03
  4.0987751e-01
 -4.1726109e-02
  9.4956592e-02
 -4.1988060e-02
  1.9544715e+00
  6.1360002e-02
 -1.9767787e-01
  4.8742172e-01
 -2.2835159e-01
 -1.0239357e-01
 -4.1656384e-01
  1.3545412e-01
  6.1468642e-02
  3.1893390e-01
 -5.5782247e-02
 -6.7926311e-01
 -3.3062008e-01
  5.2036911e-01
  7.5063676e-01
 -6.1989844e-02
 -1.0373201e-02
 -6.3615307e-02
  9.1531128e-02
  1.2341189e-02
  3.7810303e-02
  1.5209439e-01
  8.2254417e-02
  4.6326423e-01
 -9.2499471e-01
 -2.1914394e-01
  8.0960825e-02
  3.8036812e-02
 -2.1590048e-01
  5.6824274e-02
  5.1059783e-01
  1.5427229e-01
  1.4248779e-01
  2.1177970e-01
  1.8187455e+00
 -2.5988641e-01
  5.2084249e-01
  4.8486879e-01
  3.8388172e-01
  2.4755095e-01
 -1.8945941e-01
  7.0832059e-02
  8.2553171e-02
 -2.7981475e-01
  1.1613147e-01
  3.9540547e-01
  1.2973684e-01
  2.4425992e-01
 -1.6756606e-01
  2.1415660e-01
 -4.0688714e-01
 -1.3272135e-02
  5.9092832e-01
 -2.7182943e-01
 -1.4617865e-01
  9.4022177e-02
  2.3858089e-02
 -5.3362006e-01
 -2.7677241e-01
 -7.8079186e-02
  1.0478611e-01
  3.4799777e-02
 -7.7625096e-01
 -1.0054860e+00
 -4.2065698e-01
 -5.6149715e-01
  4.3683205e-02
  9.8818075e-03
 -4.2513350e-01
 -7.2679013e-02
 -2.2045872e-03
 -1.3913393e-01
  1.8525498e-02
  1.1309864e-01
 -3.2028329e-01
  2.1295454e-01
  6.1510343e-02
 -1.1848222e-01
 -1.1999280e-02
  3.3218274e-01
  2.7816093e-02
 -2.7248740e-01
 -9.2187390e-02
  1.3253002e-01
 -3.0166113e-01
  3.4807108e-02
 -3.5606027e-01
 -5.9569055e-01
  4.1725692e-01
 -4.3565160e-01
  5.3419102e-02
  3.9161792e-01
 -5.9694029e-02
 -2.3786031e-01
  9.3390629e-02
  1.8149355e-01
 -7.3352717e-02
 -3.5922459e-01
 -1.2979224e-02
 -3.1471741e-01
  2.6680824e-01
  6.4064406e-02
  3.1827133e-02
  1.2285126e-01
  5.5344447e-02
 -1.6896081e-01
 -6.4958835e-01
 -5.3060144e-02
  1.0159123e-02
  1.3114150e-01
 -2.5947908e-01
 -1.5808789e-01
 -7.1395314e-01
 -3.6057034e-01
  3.3941191e-02
 -2.1754000e-02
 -1.4164186e-01
  1.3953225e-01
 -1.5251538e-01
 -3.6840286e-02
 -1.3015896e-01
 -2.5431761e-01
 -2.1055527e-01
 -1.4893134e-01
 -1.4032033e-01
 -2.0478874e-01
 -7.9044931e-02
  2.0614801e-01
  2.5570974e-01
  5.4597348e-01
  3.0979517e-01
 -6.8785733e-01
  1.4369433e-01
 -2.3631504e-01
 -8.1796825e-02
 -7.4034691e-02
  2.2646455e-01
  3.9118060e-01
 -4.3676594e-01
  2.7450204e-01
 -3.8683087e-02
 -5.6630705e-02
  1.9240921e-02
 -1.1505864e+00
 -3.8917381e-02
 -4.4452035e-01
 -1.0136300e-01
  1.5198028e-01
 -7.8230821e-02
  2.5507921e-01
  3.9981097e-01
  2.1255089e-01
 -9.5278896e-02
  5.7418561e-01
  2.2235764e-02
  2.5289634e-01
  9.0008266e-02
  2.0660117e-01
 -1.6755849e-01
  3.3417784e-02
  6.4005367e-02
 -3.1165150e-01
 -8.2482469e-01
  1.1632146e-01
 -3.6932075e-01
 -1.5782000e-01
  8.5985726e-01
  7.5505562e-02
  4.3530980e-01
 -4.8597258e-02
 -1.0640749e-01
 -1.0046411e-01
  4.3924138e-02
  4.2669901e-01
  6.3999258e-02
 -7.1976422e-03
 -5.5748317e-02
 -4.1114397e-02
 -8.7400638e-03
 -1.1694397e-01
 -5.0307733e-01
 -1.6759236e-01
 -1.0721927e-01
  3.8673934e-02
 -5.8971938e-02
 -3.1228675e-02
  2.6916477e-01
 -3.1386983e-01
  2.0844303e-01
 -2.5137722e-01
 -1.3363001e-01
  1.5077895e-01
  5.6990683e-03
  1.4205246e-01
 -1.4501011e-01
  1.3522361e-01
  2.3329636e-01
 -7.1524180e-02
  2.6934874e-01
 -5.0623149e-02
  1.3355954e-01
 -2.2275236e-01
 -7.6618874e-03
  6.0746706e-01
 -3.0683566e-02
 -1.0147442e+00
 -3.0716187e-01
  3.5973974e-02
 -1.2966135e-01
  1.7648947e+00
  3.6446077e-03
 -1.1386680e-02
  3.1863075e-01
  1.8732502e-01
 -5.0589460e-01
 -6.0696151e-02
  2.5441277e-01
  4.0995127e-01
  2.9194251e-01
 -2.0207189e-01
 -2.3890689e-01
  1.3135336e-01
  3.1814560e-01
 -7.2944544e-02
  1.8827514e-01
  1.5752375e-01
  2.2181341e-01
 -1.2851755e-01
  3.0075324e-01
 -4.3938565e-03
 -4.5422003e-01
  1.3510305e-02
 -5.1858878e-01
 -6.3937181e-01
 -3.8057235e-01
  3.3033624e-01
  1.6981868e-01
  2.7618310e-01
 -4.5897517e-01
 -6.2109721e-01
  9.4673060e-02
  1.0094872e-01
 -1.9148929e-01
 -3.6086746e-02
  4.4267412e-02
  4.3675411e-01
  6.8612181e-02
 -6.0736424e-01
  1.0002016e-01
 -1.6420192e-01
 -2.4589010e-01
  2.3217967e-01
  4.3077978e-01
  8.0653179e-01
 -2.6853158e+00
  3.4724738e-04
 -3.7210295e-01
 -2.1459073e-01
 -5.0169036e-02
 -9.4979770e-02
  2.0102102e-02
  1.4153980e-01
 -1.6104771e-01
  5.9526223e-01
 -3.8911211e-01
 -3.8307402e-01
  3.5763271e-02
  2.1402476e-02
 -8.9630455e-02
 -1.4141716e-02
 -2.4907278e-01
 -6.6122249e-02
  3.8095266e-02
  4.0532495e-03
  4.2442989e-02
  6.3113026e-02
  2.6404958e-02
  1.1994844e-01
  1.8812510e-01
  4.8519757e-01
 -8.8439333e-01
  1.8456683e-01
  3.7175700e-01
 -2.7757996e-01
 -1.2305546e-01
 -2.6404986e-01
  3.3019575e-01
  6.1896491e-01
  2.0113274e-02
 -1.9962509e-01
 -1.9507980e+00
  7.8948833e-02
 -1.6723356e-01
 -2.4991775e-01
 -2.8660294e-01
 -3.1793967e-01
 -6.4389366e-01
 -8.1649318e-02
 -4.1122609e-01
  1.5200239e-03
 -2.1189177e-01
 -1.7811121e-01
  2.1085700e-01
 -1.7937502e+00
  1.7415448e-01
 -8.7617971e-02
  7.0985623e-02
  7.6523319e-02
 -7.2859526e-02
 -8.0535956e-02
  3.7038609e-02
  2.9009398e-02
 -2.2694328e-01
 -2.7979757e-03
 -1.0971080e+00
 -1.0734051e-01
 -6.0464624e-02
  1.7874913e-01
  9.7203501e-02
 -1.6258082e-01
  1.4731772e-01
 -4.9517140e-01
 -2.9199243e-01
  4.6056131e-01
  8.4273182e-02
  4.1101816e-01
 -6.5442607e-02
 -2.9018465e-01
  5.4995042e-01
  1.5195869e-01
  2.5163658e-02
 -9.0495393e-02
 -2.3051909e-01
  1.3684076e-01
 -3.1574616e-01
  3.9629966e-02
  6.3887566e-01
  1.9438028e-01
 -1.0408150e+00
  2.0869771e-01
 -1.6171335e-01
 -1.0700125e-01
 -2.0531651e-01
 -9.2041166e-03
 -7.5182283e-01
  6.3002877e-02
  9.1237783e-01
  5.3581321e-01
  1.2647758e-01
 -2.9747680e-01
  1.2300696e-01
 -3.1140977e-01
 -1.1163045e+00
  1.1755082e-01
  1.4560483e-01
  1.0864061e-01
  2.8768176e-01
 -5.4332727e-01
  4.2242470e-01
  2.9698360e-01
 -1.7663978e-01
  1.7750910e-01
 -4.2797878e-02
  7.5673148e-02
  4.2415625e-01
 -1.2664741e-01
  8.4696248e-02
  2.6628888e-01
 -9.1861472e-02
 -3.2041815e-01
  3.0484846e-01
  3.6689675e-01
  6.1603580e-02
 -1.5646794e-01
 -1.5354736e-02
  1.9568276e-01
  8.6973697e-02
 -1.4505437e-01
 -1.1447626e-01
  6.7717361e-01
 -1.7971125e-01
 -5.1183563e-01
 -1.5375909e-01
  2.1556988e-02
 -3.4897971e-01
  4.2054892e-01
 -1.0371116e-01
 -2.5872988e-01
  1.3806559e-01
  9.0720303e-02
  1.8034293e-01
 -1.7385550e-01
  3.3719802e-01
  2.8672293e-01
 -5.5484003e-01
 -4.0134287e-01
  1.0018088e-01
 -4.2389813e-01
 -1.2455384e-01
 -2.2397913e-01
  3.0717281e-01
 -3.0493298e-01
 -6.9817729e-02
  7.3453538e-02
 -4.7214022e-01
 -3.8107600e-02
  1.7073265e-01
  3.2348195e-01
  7.6237908e-03
  1.2103940e-01
  2.5481892e-01
 -2.0457877e-02
  1.9988656e-02
  5.0975686e-01
  4.8576227e-01
 -2.8578976e-01
  5.3114426e-01
 -5.3147131e-01
 -7.6436497e-02
  2.0123379e-02
  2.1266276e-01
  1.3977116e-01
 -6.2874037e-01
  4.0210548e-01
  3.2791483e-01
  3.0089372e-01
 -1.8352194e-01
  4.3567002e-01
 -6.7210537e-01
  6.3959426e-01
  1.8646367e-02
  5.5019330e-02
 -4.1690260e-01
 -2.6153985e-01
  1.0107937e+00
  8.5710597e-01
 -3.3115676e-01
 -2.9764023e-01
  3.1037828e-02
 -2.7537167e-01
 -4.9404487e-01
 -7.8941077e-02
 -7.2587776e-01
 -2.2410221e+00
 -1.9396566e-01
 -3.0496174e-02
 -2.3007490e-02
 -1.5189299e-01
  5.9528762e-01
 -2.4050662e-01
  4.2251498e-01
 -1.1668992e-01
 -1.4753377e-01
  2.6393721e-03
 -1.0498726e-01
  1.7891042e-02
  4.9917406e-01
  4.6409330e-01
 -4.2014830e-02
  8.7849557e-02
  2.2617453e-01
  1.0408690e-02
  2.3048025e-02
  1.7120875e-02
  7.8512125e-02
 -1.4810979e+00
 -1.7850856e-01
  6.4978980e-02
  1.0106184e-01
 -3.7600532e-01
  2.4794515e-02
  5.3726430e-03
  1.4262682e-01
 -1.8119913e-01
 -2.7474210e-01
 -5.1221769e-02
  6.7905515e-02
  1.1709065e-01
  2.2576301e-01
 -3.7575573e-01
  2.0995865e-02
  8.5443832e-02
 -2.3008268e-01
 -1.3026985e+00
  8.0731876e-02
 -5.7022047e-01
  2.4733169e-01
 -6.9161065e-02
 -3.0559188e-01
  9.2202261e-02
  3.9879289e-01
  3.3069890e-02
 -1.1212628e-01
  1.6283418e-01
  6.0109783e-02
  7.3425561e-01
  1.8753414e-01
  2.7450225e-01
  5.0720759e-03
  1.4540896e-02
 -3.4845474e-03
  1.2694509e-01
 -5.0394940e-01
  7.1736552e-02
  5.6435460e-01
  3.3684332e-02
 -4.3528840e-02
  8.3690506e-01
 -3.6847985e-01
  2.2782482e-01
 -2.5011763e-01
  7.3094636e-01
 -1.4619450e-02
 -2.1548472e-01
  1.2810575e-02
 -7.8546457e-02
 -2.6623866e-02
  1.7726250e-01
  1.3467962e-01
  6.2551904e-01
  4.3583412e-02
 -2.8048617e-01
 -2.3189037e-01
  7.5254971e-01
  2.3642942e-01
 -1.2954864e-02
  2.1849482e-01
  8.3975995e-01
 -6.1151266e-01
 -2.8627303e-01
 -1.5456879e+00
 -2.6370820e-01
  4.8380268e-01
  3.7330359e-01
 -1.0178176e-01
 -2.7980900e-01
  1.5064115e-02
  1.2999065e-02
  4.8085284e-01
 -3.6255222e-02
  1.5063381e-01
  4.5269617e-01
  3.7679162e-02
 -1.8585913e-01
  1.1540971e-03
 -1.1662741e-02
 -3.9007464e-01
  6.7471616e-02
 -8.4223248e-02
  2.5963649e-01
 -7.9148956e-02
  5.8798850e-01
  2.4248503e-01
 -6.0365267e-02
 -4.8861232e-01
 -1.7066684e-01
 -3.2610264e-02
  4.5982022e-02
  7.2089740e-04
 -8.1366099e-02
 -1.0514939e+00
  2.1234567e-01
 -1.8972832e-01
 -2.4975719e-01
  4.4836283e-01
  1.4879355e-01
  5.3577196e-02
 -6.4923249e-02
  3.1548557e-01
  1.7150914e-02
 -2.9991913e-01
 -5.3275403e-02
  1.9919652e-01
 -2.0093620e-02
 -2.5658786e-01
  4.2081183e-01
 -3.2252502e-02
 -5.4273251e-02
  1.2809630e-01
  1.1966150e-01
  3.5178682e-01
 -1.7976858e-01
 -9.7320765e-02
  1.5259716e-01
 -3.4603280e-01
  2.5523755e-01
 -3.5208797e-01
 -1.5693336e+00
 -3.8972721e-01
  4.5733285e-01
  3.0111397e-02
 -3.8438472e-01
 -1.1843700e-01
  1.5471712e-01
  7.5422429e-02
  2.4589332e-02
 -1.6845386e-01
 -3.2683575e-01
  1.9623648e-01
  3.6542922e-01
 -5.2946246e-01
 -1.0847755e-01
 -7.5716889e-01
  7.8643896e-03
 -6.2629753e-01
  1.1251466e+00
  9.2255205e-01
 -8.6187050e-02
 -3.0354500e-01
  3.0746269e+00
 -1.8891978e+00
 -2.9726739e+00
 -2.2316005e+00
  5.5403537e-01
  7.8411162e-01
  7.0609605e-01
  2.0769634e+00
 -2.6969638e+00
  1.4243993e+00
 -1.2119147e+00
 -2.5713549e+00
 -1.8982694e-01
  5.0126318e-02
 -3.5727602e-01
  1.1377310e+00
  1.6126309e-01
  1.9771706e+00
 -1.9358192e-01
 -1.1605319e+00
 -8.4313549e-02
  3.3828443e-01
 -1.0901518e-01
  6.6892320e-01
  1.0535079e+00
 -6.0118568e-01
  1.5993783e-01
  7.4027336e-01
 -1.6366176e-01
 -1.0384031e-01
 -1.0354924e-01
  1.3498310e+00
 -6.6857755e-01
  8.2399122e-02
  4.1780186e-01
  2.7099931e-01
 -3.2822546e-02
 -4.4572520e-01
  5.9349459e-01
 -1.9206679e+00
  2.0119841e-01
  2.0771691e-01
 -2.1756350e-01
 -3.5859871e-01
 -1.6941736e-02
  6.5581393e-01
 -1.4311091e+00
 -9.5878416e-01
  2.3394841e-01
  6.6004837e-01
 -1.0568270e-01
  1.1304989e-01
 -5.5697169e-02
 -1.1007274e+00
  2.5591436e-01
  6.8798089e-01
  2.4166545e-01
  1.6253722e-01
  3.4004881e+00
 -9.0772107e-02
 -1.0162353e-01
 -1.0079811e+00
 -1.3049722e-01
  1.1598867e+00
 -1.8094310e+00
  2.2523572e+00
 -8.8785782e-02
  1.5234408e-01
  7.3168650e-02
  4.6784919e-02
 -1.2314396e-01
  1.2153912e-01
  8.4677763e-02
 -6.5726185e-01
 -5.6162938e-02
 -6.0508281e-01
  6.5284622e-01
 -3.2809451e-01
  5.2012807e-01
 -1.0470556e-01
  8.8336366e-01
  6.6548526e-02
 -2.9071826e-01
 -2.4106495e-01
 -1.4955047e-01
  2.5705653e-01
 -1.8349936e-02
  2.8658980e-01
  4.4153980e-04
  1.9024965e-01
  2.7145773e-01
 -1.5877680e-01
 -1.5178885e-01
 -1.7538399e-01
 -7.3153295e-02
 -2.5291336e-03
  1.7223594e-01
  4.0914983e-01
 -7.6979525e-02
  1.0902350e-01
  1.9518113e-01
 -1.2202013e-01
 -4.4501328e-01
 -1.2265034e-01
  1.4801743e-02
  5.1455814e-01
  4.2501006e-01
 -2.2598486e-01
  3.1539448e-02
  1.2896109e-02
  1.3592257e-01
  4.6790165e-01
  1.0835951e-01
  5.5104679e-01
 -4.6073607e-01
  5.2168123e-02
 -1.1709429e-01
  2.6019365e-01
  2.5403768e-01
  6.7044944e-03
  3.6459282e-02
 -1.3142627e+00
  1.2427276e-01
  1.6426270e-01
 -9.8912925e-02
  4.2071749e-02
 -1.6850470e-01
  5.7712561e-01
  3.4517381e-01
  5.6027002e-03
  3.4576900e-02
  3.2327616e-01
 -4.8994638e-02
 -2.2722329e-01
 -2.6333061e-01
 -3.2834488e-01
  2.7051383e-01
  2.3332758e-01
 -6.0565495e-01
 -4.4112820e-02
  4.3129928e-02
 -4.7064164e-01
 -3.7610018e-01
  1.1471209e-01
  6.7601018e-02
  3.6464512e-02
 -2.2443084e-01
 -3.5526282e-01
  5.2643871e-01
 -4.4574580e-01
 -2.4148290e-01
 -4.7897235e-02
 -9.0290777e-02
  5.9201945e-02
 -6.1339408e-01
 -1.2148620e-01
  1.3249908e-01
 -3.5942936e-01
  5.0507117e-02
  6.2981613e-02
 -2.0598222e-01
  2.0907247e-01
  1.6756895e-01
 -4.8350450e-02
 -5.8728760e-01
 -6.4454734e-02
 -4.2901900e-01
  2.7743661e-01
 -7.2909230e-01
  5.0275624e-02
 -1.0110278e-01
 -1.7688453e-01
 -3.6892229e-01
  3.4470269e-01
  9.1568857e-02
 -1.8775097e-01
  2.9947251e-02
  3.9432738e-02
 -5.1641786e-01
  2.6815122e-01
  2.5718918e-01
 -6.9673158e-02
 -5.0659716e-01
  2.1986324e-01
  1.3078533e+00
 -2.2322232e-01
  1.2751380e-01
  1.4445369e-01
 -3.8162956e-01
 -9.5725077e-01
  4.4556409e-01
 -2.3591627e-01
 -1.7649899e-01
  1.3514388e-03
  3.4354904e-01
 -4.8705772e-01
 -3.9884881e-03
  1.9903647e-02
  1.9637682e+00
 -2.3205259e-01
  1.9510859e-01
 -1.2814873e-01
 -2.8955212e-01
 -1.7280087e-02
 -2.6882726e-01
  2.3693356e-01
  6.8424083e-02
 -1.3563158e-01
  4.5211646e-01
  7.3420502e-02
 -2.7135697e-01
 -7.1223244e-02
 -2.3349483e-01
  1.2212298e-01
  1.1704458e-01
  2.4340270e-01
 -3.1181691e-02
 -3.3394861e-01
  5.5781398e-02
  2.6061937e-01
 -3.0328544e-02
 -3.5763618e-01
 -5.9006286e-01
 -6.4313275e-01
 -7.5338110e-02
 -2.9098484e-01
 -1.1987844e+00
 -4.8729685e-01
 -6.1263913e-01
  3.6987594e-01
 -2.3056093e-01
  3.2068959e-01
  6.6639161e-01
 -4.6787396e-01
  3.6189839e-01
 -1.2064811e-01
  1.0533830e-01
 -2.2823261e-01
 -3.2743832e-01
  1.3333183e-02
 -1.1778962e-01
  2.6718212e-02
  2.8947923e-01
  5.2026685e-02
  1.2412596e-02
  8.4334396e-02
 -4.3910362e-02
  4.4234779e-01
  3.9058264e-02
  1.9873148e-01
 -6.6801839e-02
 -4.8614597e-01
 -3.7925532e-01
 -2.0396790e-01
 -2.4685482e-03
 -3.7538896e-03
  2.4214890e-02
  1.6447009e-01
  3.1330201e-01
  1.6340211e-02
  1.2157726e-01
  1.3317955e-01
 -5.6398922e-01
  2.9357657e-01
  3.9661437e-01
 -1.4486994e-01
 -3.0254456e-01
  5.2059408e-02
  1.0806417e-01
 -7.3070727e-02
 -3.1043690e-01
 -1.4830496e+00
 -1.2484179e-01
 -4.4319388e-01
 -3.3516264e-01
  1.0596252e-02
  6.4554088e-02
 -6.7925423e-01
  1.3293932e-01
 -1.3056886e+00
 -3.5164005e-01
 -6.0436326e-01
  3.7458542e-01
 -4.3116075e-01
 -4.0665144e-01
  1.5399446e-01
 -4.8237488e-02
  4.6990833e-01
 -3.8824875e-02
  1.1746456e-01
 -1.3736412e-01
  1.5964626e-01
  3.4726210e-02
  3.0731139e-01
  1.9924445e-01
  4.8176813e-01
 -1.0771198e-02
  2.5853533e-01
 -2.5027898e-01
  3.4537044e-01
  2.2219092e-02
 -3.3550149e-01
  3.9147362e-01
 -4.2897578e-02
 -7.5039095e-01
  6.2673329e-03
  9.5824087e-01
 -7.1859741e-01
 -7.7854812e-01
 -2.1325231e-01
 -1.1727121e+00
  6.4318764e-01
  2.5268579e-01
 -2.7905548e-01
 -4.4789061e-02
  2.6649785e-01
 -1.3743472e-01
 -8.2711205e-02
  1.6295639e-01
 -6.5441191e-01
 -4.1642821e-01
  2.3522707e-02
  3.8995686e-01
  4.2565148e-02
 -7.1129602e-01
  2.1656187e-01
 -9.5208824e-02
 -4.0768210e-02
  2.4470240e-01
 -9.6738398e-01
  4.0994253e-02
  8.8167258e-02
 -7.7277011e-01
 -2.2555763e-01
 -8.2009941e-02
  1.3224532e-01
 -2.0008627e-01
  3.0595374e-01
 -2.5725985e-01
 -3.4845194e-01
 -3.7224546e-01
  1.0491385e-01
  6.6268794e-02
  1.3411202e-01
  1.6122167e-01
 -2.9534243e-02
 -2.3550504e-01
 -1.7521755e-01
 -2.9826753e-02
 -3.7172401e-01
 -4.3495119e-01
  1.4159958e-01
 -1.1796410e-01
  1.3423149e-01
 -2.0796497e+00
 -5.1820859e-02
  3.0534559e-01
  3.3542973e-01
  9.0746008e-02
 -1.3554452e-01
 -4.6232518e-02
  4.5727348e-01
  4.8394743e-01
 -2.6803702e-01
  4.4665098e-02
  1.0216859e-01
 -4.4591811e-01
 -2.4553610e-01
 -1.2140057e-01
  4.5469284e-01
  1.1789601e-01
  4.0766228e-02
  3.6769447e-01
  2.8516421e-01
  5.9162998e-03
 -6.7484681e-03
 -1.1542076e-01
  3.6282983e-02
 -1.6810921e-01
 -2.2389267e-01
  2.0309578e-01
  2.6889098e-01
  3.9031398e-01
  2.1803497e-01
 -4.4714248e-01
  3.7573710e-02
  2.5558469e-01
  4.9966928e-02
  1.0569362e-01
 -3.5167149e-01
 -3.1794706e-01
  2.4794640e-01
  2.9481005e-02
  8.4221691e-02
 -5.3269207e-01
  1.7236518e-02
 -1.5359530e-01
 -7.2201066e-02
 -2.9178053e-01
 -1.4673920e-01
 -4.2106908e-02
  6.8724774e-02
  9.0252243e-02
  1.9287135e-01
 -1.4860245e-02
  6.2654883e-01
 -1.9430763e-01
  2.5369389e-02
  4.1582412e-01
  2.4162889e-01
  8.7240267e-01
  1.4115520e-01
  3.5271728e-01
 -4.5880895e-02
  6.4681804e-01
 -8.7739348e-02
  3.7930522e-02
  1.1417876e-01
 -4.4338962e-01
  8.3240479e-02
  2.4326459e-01
 -1.9408062e-01
  3.0204758e-02
  1.5451634e-04
  3.2225928e-01
 -9.6490264e-02
  2.9058728e-01
  2.1973346e-01
 -3.5267182e-02
 -9.9329256e-02
 -2.3809926e-01
  5.1065260e-01
  3.4327081e-01
 -9.8163523e-02
  6.3448481e-02
  1.1660949e-01
 -4.6400186e-02
 -1.2270823e-01
 -1.3168921e-01
  9.5170990e-02
  1.9062670e-02
 -1.1487506e-01
 -3.5519972e-02
  1.7702916e-01
  6.2521124e-01
 -1.9520712e-01
 -6.9464505e-01
  2.7078757e-01
 -1.7795549e-03
 -3.7879605e-02
  1.9436948e-01
 -2.4282011e-01
  6.1645750e-02
  1.7247337e-01
  7.8920290e-02
 -7.9768382e-02
 -5.0597355e-02
 -3.9934099e-01
  2.6695624e-01
 -6.1482944e-02
 -1.4551456e-01
 -1.4548010e+00
 -1.5726392e-01
 -1.8971001e-01
 -7.4670948e-02
  1.2768213e-01
  8.5977949e-02
 -1.1899465e-01
 -6.8622060e-02
  5.0385417e-03
  1.3110729e-01
 -3.8238030e-02
  1.0813465e-01
  8.0209695e-02
 -1.7731567e-01
  7.0832157e-01
 -1.8272613e+00
  6.6725031e-02
 -3.8186405e-02
 -2.9922346e-02
  1.2697157e+00
  3.2763234e-01
 -3.8840167e-02
 -1.5884314e-01
 -2.8370768e-01
  2.4028175e-01
  7.4413247e-02
  3.3760619e-01
  4.5350444e-01
 -1.6186063e+00
 -8.0834009e-02
  3.1580782e-01
  6.1385256e-01
  4.6831936e-01
 -9.4603881e-02
 -8.0506206e-02
  1.3967813e+00
 -2.6792431e-01
 -3.5385031e-01
  5.6262273e-01
 -1.0293619e-01
  3.7901220e-01
 -2.1315551e-01
 -2.4003656e-01
  8.2587975e-01
  1.0596807e+00
  5.5322927e-01
 -6.9461539e-02
  1.2227066e+00
  1.1033995e-01
  3.1777894e-01
  6.3855514e-02
 -1.0425961e+00
  1.7770438e-02
 -2.2836262e-02
 -4.1284904e-01
 -2.3119109e-02
 -3.6474328e-02
  2.9369614e-01
 -1.7603356e-01
  1.1730717e+00
  8.9835666e-02
 -4.6473888e-01
 -5.2714878e-01
 -2.1018326e-01
  1.0461323e-01
 -2.2350717e-01
 -1.1722783e-01
 -8.1309237e-02
 -3.5040396e-01
  1.1757595e-01
 -1.1324955e-02
  3.0003420e-01
 -6.1257732e-01
 -2.6170042e-01
 -1.4171472e+00
  6.3997483e-01
 -7.8185767e-02
 -6.6220358e-02
 -7.4429852e-01
 -9.3099788e-02
  2.2784710e-01
  6.6988610e-02
  1.8943287e+00
 -3.0245134e-01
  4.2787567e-02
 -3.1327048e-01
 -2.0658781e-01
 -2.4267900e-01
 -6.8061012e-01
  3.4517449e-01
 -2.6009027e-03
  4.8547056e-01
 -9.8546177e-02
  3.1892228e-01
 -1.9638813e-03
  3.1972531e-02
 -1.7335339e-01
  3.3471847e-01
  6.2157888e-02
 -2.9745686e-01
 -1.2459414e-01
  1.5661804e-02
  5.3779889e-02
  5.2158374e-01
  6.9551482e-03
  9.7662449e-02
  1.5219861e-01
 -1.1726067e-01
  7.4973273e-01
 -1.2584639e-01
  5.5108476e-01
 -1.3312384e+00
 -1.0215534e-01
 -2.6646798e-02
  1.4643599e-01
  2.7675068e-01
  7.4952751e-02
 -1.4814395e-01
  4.1013157e-01
 -6.9947638e-02
 -4.6900401e-01
 -2.9411775e-01
  6.1489373e-01
 -6.6115373e-01
 -6.3364156e-02
  7.5199366e-01
 -3.2691114e-02
 -8.5250594e-02
  1.5065522e-01
  2.7328429e-01
 -6.9815254e-01
  1.4858374e-01
 -1.0883990e-01
  1.5538678e-02
 -2.8586298e-01
 -2.9544044e-01
 -1.0176846e-01
  4.3645650e-01
  1.9825131e-02
  1.2614959e-01
  7.4910837e-01
 -4.0631801e-02
  1.1411046e-01
  1.3035528e-02
  5.9173197e-01
  3.9815143e-01
  2.9823720e-01
 -1.0231263e-01
 -1.1334452e-01
  8.6792208e-02
  2.4959756e-02
 -2.5145248e-01
  2.1034670e+00
  1.6984843e-01
 -1.7270608e-01
  3.8035041e-01
  4.1653901e-01
 -1.0154446e-02
 -5.9736498e-02
  4.0607837e-01
 -1.7983700e-01
  5.8749445e-02
  8.4397756e-02
 -9.2389800e-02
 -1.5134718e-01
 -1.7900783e-01
  1.9860617e+00
 -4.0937170e-01
 -3.3822712e-01
 -2.3479319e-01
 -2.5651328e-02
 -1.4547180e-01
 -1.2127327e-01
  2.3079136e-01
 -2.8232316e-02
 -3.4598744e-01
  9.1770881e-01
 -2.4255233e+00
  5.6470716e-01
 -2.5170511e-01
  1.8181088e+00
  1.3607837e-01
  1.7707632e-01
 -1.7028940e-01
  1.3568158e-01
  9.3250409e-02
 -2.9429357e-02
  3.2445276e-01
 -1.2228951e-01
 -5.7159342e-02
  4.6683785e-01
  2.1264687e-01
  1.8524922e-01
 -4.4238698e-02
 -1.4349422e-01
  1.9789331e-01
  7.6949686e-02
 -7.5810254e-03
 -1.6009595e-01
  2.1129335e-01
  2.7522740e-01
 -5.5702561e-01
  6.4109252e-03
  1.7929159e-01
  9.0907715e-02
  1.7812291e-01
 -2.7612960e-01
  2.3643793e-01
  4.4761911e-01
  2.5579450e-01
  5.9007633e-02
  1.7728951e+00
 -1.6078753e+00
 -3.3929798e-01
  2.6337457e-01
 -1.1578669e-01
  1.6865411e-01
  1.0335390e-01
  3.0156198e-01
  8.1897005e-02
 -2.0371111e-01
  1.7727979e-01
 -1.9208878e-01
 -9.0472093e-03
  6.4227641e-02
  7.3798746e-02
  1.9148409e-01
  2.1575084e-01
  3.3349723e-01
 -2.7039114e-01
 -2.6812059e-01
 -9.2062183e-02
 -6.2474184e-02
  1.2884533e-01
 -1.4901085e-01
 -4.7515638e-02
 -1.4414816e-01
  1.8226063e-01
 -8.1854202e-02
 -2.0354201e-01
 -2.8902817e-01
  7.1208757e-01
 -4.5350555e-01
  1.5913495e-01
 -8.6490178e-01
  4.7440577e-01
 -9.5716029e-02
 -1.1212744e+00
  1.1759102e-01
  3.0283883e-01
  4.2844167e-01
  1.0039927e-01
 -1.8006024e+00
  5.0855124e-01
 -7.9125881e-02
 -1.1915743e+00
 -1.0167457e+00
  1.7350125e+00
 -6.1490649e-04
 -4.4792109e+00
  7.3672935e-02
  1.6174567e+00
  3.2430068e-02
  9.7794223e-01
  1.5315704e+00
 -4.9406849e-02
  8.2687669e-02
  9.4577748e-01
  1.7169012e+00
  7.4536473e-02
 -4.7336306e-02
  2.4369523e-01
  1.4107713e+00
  7.3858902e-02
 -2.9262705e-02
  1.8649304e+00
  1.1226529e-01
  9.4128722e-01
 -9.5320803e-01
  8.4621087e-02
  4.6964294e-01
 -3.8862064e-01
  2.2173514e+00
 -1.1274254e+00
 -9.1355711e-02
 -6.3993692e-01
 -1.7207526e-01
  2.1051526e-01
 -4.4699311e-01
  1.3883989e+00
 -1.4807381e-01
 -9.0383583e-01
 -9.7637326e-01
  2.2255944e-02
 -2.3791154e-01
  2.1050674e-01
  1.0907032e+00
 -1.2294270e+00
  2.5663027e-01
  3.4522754e-01
 -2.6536725e-02
  7.9251282e-02
  1.7531163e-01
  3.0769148e-01
 -1.3931532e+00
 -1.8364519e-01
  7.3280764e-01
 -4.6905503e-02
 -2.8428085e+00
  7.0085847e-03
  3.8611865e-01
 -9.7574286e-02
  1.2608166e-01
  1.1091833e+00
 -1.3406503e-01
  1.2971846e+00
 -8.4707305e-02
 -5.8416498e-01
 -3.0374676e-01
  2.4295935e-01
  3.3664179e-01
  1.2970734e+00
 -1.6364102e-01
  1.1584163e-01
  7.2782665e-01
 -4.7000831e-01
 -4.6089366e-01
  4.3775189e-01
  6.6765988e-01
  2.5742757e-01
 -3.8290936e-01
 -1.2627693e-01
  2.7169111e-01
 -6.5272212e-02
 -4.9343359e-01
 -1.6578226e-01
  2.0895372e-01
 -1.8766952e-01
  1.3734922e+00
  4.0609115e-01
 -1.5802301e-02
 -3.8893625e-01
  1.0832528e-01
 -6.8603873e-01
 -1.5515585e-01
 -1.7233148e-01
 -1.7220454e-01
  6.4705336e-01
  2.2615644e-01
  5.2205026e-01
  1.1071921e-01
 -4.0603915e-01
  1.1962312e+00
 -7.5084522e-02
 -1.6811387e-01
  5.6297332e-01
 -5.9302531e-02
  7.8381819e-01
  3.6624637e-01
 -3.2905210e-02
  7.6447867e-02
  1.5288091e-01
 -9.3016654e-01
 -1.5453640e-01
 -1.5286314e-01
  6.1402780e-01
  3.1620318e-01
  9.5886074e-02
  1.5762073e-01
 -7.4303806e-02
 -1.1637136e-01
 -1.9632111e-01
  3.2867956e-01
 -1.6369960e-01
 -4.6768376e-01
 -4.3865192e-01
 -5.7013229e-02
  5.3566498e-01
  6.5863055e-01
 -1.2556650e-01
 -4.8711818e-01
  1.2352163e-01
 -8.3071224e-02
 -6.6138178e-02
  2.4528218e-02
 -3.7113810e-01
 -2.4824437e-02
 -4.2364532e-01
  1.8518691e-01
  1.6529788e-01
  1.7516096e-01
  2.7073637e-02
  1.6588241e-01
  3.9487913e-01
  5.1259305e-02
 -1.1606133e+00
 -2.0688574e-01
  1.4242307e-02
  1.1228283e-01
  3.7590366e-02
  3.4089968e-02
  2.0012708e-01
  5.1418799e-01
  2.3794921e-01
  1.2884392e-01
 -2.2687455e-01
  1.3333187e-01
 -8.1193280e-01
 -1.3961442e-01
  9.2142038e-02
  3.3409783e-01
  7.5570025e-02
 -3.2546446e-02
  6.5345562e-01
  1.9835633e-01
 -7.9185568e-02
  2.5663641e-01
 -2.5524138e-02
  1.5124913e-01
 -3.9032802e-02
 -5.7350910e-01
  6.2037539e-02
 -3.5147154e-01
  3.0211894e-02
 -1.1963218e-01
 -1.7017224e-01
  2.4107552e-01
  2.1055751e-02
  8.0043182e-02
  4.9701917e-01
 -6.5277018e-02
  5.9749037e-01
 -2.7870001e-02
 -1.1305019e-01
  5.2743368e-02
  2.6805699e-01
 -2.8908363e-01
  4.2962573e-02
  2.9478306e-01
  2.4191182e-02
 -2.4304456e-01
  4.5872596e-03
  5.0204499e-03
  1.4923191e-01
  1.9558446e-01
 -4.0129548e-01
 -2.3323555e-01
  1.2071348e-01
  3.1785641e-02
  1.2606639e-02
  5.5672158e-02
  1.6986626e-01
 -1.4602102e-01
 -5.4747635e-01
 -3.3439678e-01
  2.6030087e-01
  3.4560855e-03
 -2.5265101e-01
  1.3389221e-01
  1.5869299e-01
 -3.9925784e-01
 -2.0591272e-01
  1.3277076e+00
 -6.6657282e-02
 -4.0392026e-01
 -5.2678473e-02
  4.3278255e-02
 -5.7830878e-02
 -2.0471162e-01
  1.8068117e-01
 -6.1769098e-01
 -1.0278137e-01
  2.4414112e-01
 -5.2336019e-01
 -2.8958255e-01
 -7.8720383e-02
 -4.2569882e-01
 -1.0052941e-01
 -6.0525560e-01
 -2.7766025e-01
  2.6309022e-01
 -4.8885337e-01
  3.2969224e-01
  6.5850389e-01
  2.1469705e-02
 -4.6697337e-02
  1.8023171e-01
 -3.4442800e-01
 -2.3655748e-01
 -1.6187297e-02
  3.5852659e-01
 -4.3345815e-01
 -6.9202274e-02
  1.1016811e-01
 -6.5215319e-01
 -1.1731970e-01
 -1.1528001e-01
 -1.8639202e-01
 -2.3362406e-01
  1.9383419e-01
 -9.3551405e-02
 -1.6239335e-01
 -1.5318675e-01
  1.5185489e-01
 -3.4477064e-01
  4.5597490e-02
 -1.0800142e-01
 -3.9747007e-02
  2.1818534e-02
 -5.3695381e-02
  6.1928384e-02
  2.0802423e-02
 -1.6755538e-02
  8.0485448e-02
 -3.0662763e-01
  5.6981093e-01
  3.9660585e-01
 -4.5830417e-01
 -1.0797168e-01
 -3.5578012e-02
  1.2278731e-04
  2.2593692e-02
 -1.5470355e-02
  2.4066092e-01
  3.5265725e-02
  1.5611714e-01
  1.0113297e-01
 -4.2756423e-03
  4.4741895e-02
 -1.3584842e-01
  3.0855972e-01
  4.0209112e-01
 -9.3237627e-01
 -7.0078802e-01
 -1.8286842e+00
 -2.1047942e-02
  2.5012700e-02
  4.0463343e-02
  5.6033567e-02
 -2.6115426e-01
 -3.4231499e-01
  1.2900281e-01
 -2.3590386e-01
  3.6505726e-01
  6.6967234e-02
  3.3420938e-01
 -1.2572093e-01
 -3.8720831e-01
  2.0964362e-01
 -3.3853814e-01
 -2.3859785e-01
  8.0076195e-02
  1.8568009e-03
  1.5096720e-01
 -2.2179112e-01
  4.5228381e-02
  1.3182189e-01
 -3.9979845e-01
 -3.0419321e-03
  1.2841856e-01
  1.7633395e-01
  9.8616756e-02
  6.3728690e-01
  2.5587875e-01
 -6.5759964e-02
  3.8422370e-01
  6.7116646e-03
 -3.0925763e-01
  4.8269200e-01
 -4.6769375e-01
 -5.9958959e-01
  3.7579510e-02
 -3.3529454e-01
 -5.0423783e-01
 -8.5272133e-02
 -1.6221348e-02
 -1.0032501e-01
 -3.0766955e-01
  1.1724114e+00
  7.0614344e-01
  2.9264659e-01
 -9.4447426e-02
 -6.1591196e-01
 -1.5149768e-01
 -1.1422061e-01
  5.7738131e-01
  7.6506613e-03
 -3.8458326e-01
  1.1336144e-01
 -6.7253001e-02
 -1.4565441e-02
 -1.8031716e-01
 -1.6520078e-01
 -1.1905982e-01
  1.0614387e-01
 -3.3696073e-01
  2.5767267e-02
 -1.7540014e-01
 -2.3828641e-01
 -4.6525425e-01
  6.4514971e-01
 -6.6467747e-02
  1.4468905e-01
 -1.8855903e-01
  3.4939673e-02
  1.3895568e-01
  2.7176854e-01
  2.0337039e-01
  2.5176471e-01
  4.1453701e-01
  2.0855595e-01
  1.8337598e-02
 -1.5270443e-01
  2.0024918e-01
 -2.4329625e-01
  2.8899783e-01
  1.6665037e-01
 -4.0381625e-01
 -9.8499827e-02
 -8.7989904e-03
 -2.1976499e-01
 -3.6126382e-03
  1.9987473e-01
  3.3096667e-02
  1.6748200e-01
  1.8412978e-03
  8.3581895e-01
 -4.2574942e-02
  2.3742571e-01
 -1.1083039e-02
 -1.9105217e-01
  7.6167107e-02
 -5.1546514e-01
 -2.2475556e-01
 -5.0394133e-02
  8.5463390e-02
 -1.0778751e-02
  8.1407738e-01
 -5.3831249e-01
 -4.4099236e-01
  6.1711282e-01
 -2.0839131e-01
  9.7094852e-01
 -1.7169090e-04
 -8.0804926e-01
 -5.4751801e-01
 -1.4599224e-02
  3.5292178e-01
 -4.3483865e-02
 -1.0276604e-01
 -2.0288399e-01
 -3.9659971e-01
  5.1081277e-02
 -1.6458109e-02
 -3.5014221e-01
  1.9795271e-03
 -6.9962126e-01
  3.6385603e-02
 -8.5775353e-02
 -2.2541757e-01
  1.2554432e-01
 -3.9678693e-01
 -2.7679307e-02
 -1.2264105e+00
  5.2257698e-02
 -4.2788020e-01
  3.8969591e-01
 -7.7260463e-03
 -2.8261241e-01
  2.3186491e-01
  3.0326778e-01
 -4.1033801e-01
 -1.7230131e-01
 -2.3096725e-01
 -3.9160240e-01
  2.1938439e-01
  2.6671436e-02
  1.1366854e-03
  1.4387038e-01
 -2.3262103e-01
 -4.7345053e-02
 -7.3003918e-02
  7.3568791e-01
 -6.1475340e-02
 -8.3277151e-02
 -2.9675281e-01
  3.6483380e-01
 -4.2035770e-02
  5.1750821e-01
  9.3829662e-02
  7.9249404e-02
  7.6647341e-02
  7.9171136e-02
 -3.2106367e-01
  8.1112576e-01
 -5.1689923e-01
  1.6582656e-01
 -1.0108835e-01
 -2.1997046e+00
 -1.9051982e-01
  2.2943549e-01
  1.3881381e-01
 -8.9526195e-03
  1.4065868e+00
  4.9088231e-01
 -9.4642892e-02
 -1.1198238e-01
 -1.8874437e-01
  4.1567631e-02
  1.1611700e-01
  7.0948638e-03
 -1.1841981e+00
 -4.9550198e-02
 -3.3752251e-01
 -1.2780828e-02
  9.5509022e-02
  7.4953116e-02
 -2.2402425e+00
 -4.6981415e-01
 -1.5419218e-01
 -7.8505445e-01
 -3.8581085e-01
  2.3919809e-01
 -3.1344224e-02
 -2.1784940e-01
 -2.9709861e-01
 -4.2964265e-02
 -3.1496432e-01
  3.7101001e-01
  1.2038402e-01
 -2.9427195e-01
 -6.6696680e-01
 -1.2867840e-01
  6.7771679e-01
  4.5691493e-07
  3.3523422e-02
 -1.1659934e-01
 -2.0448187e-01
 -1.4437422e-01
  5.5232990e-01
 -1.1090531e+00
 -9.1389880e-02
 -3.2904811e-02
  8.7543875e-02
  5.2456778e-01
 -8.4362723e-02
 -3.8467342e-01
 -9.1695242e-02
 -4.0174723e-01
  6.8389885e-02
 -2.1776722e-01
 -7.7970147e-01
 -3.9028418e-01
 -1.5724605e+00
 -3.1751713e-01
  2.0312767e-01
 -1.0093288e-01
 -1.2195330e-01
  2.0937873e-01
 -1.1846324e-01
 -6.8181926e-01
 -4.6778515e-01
  1.2784158e-02
  2.1988934e-01
 -4.7477299e-01
 -1.5458749e-01
 -5.2718192e-02
  8.9958858e-01
  2.4904232e-02
 -2.8900594e-01
 -9.0060681e-01
  7.1095169e-01
  7.9796545e-02
 -2.3891731e-01
  1.3420905e-01
  1.8207964e-01
  5.6991559e-02
  3.4562999e-03
 -1.0895490e-01
  1.3492285e-02
  1.8808168e-01
 -1.2288806e-01
 -6.0925108e-01
 -4.0033033e-01
  7.1798906e-02
  2.2111338e-02
 -2.3804222e-01
 -1.7720842e-01
  2.3076427e-01
 -2.9832572e-02
  4.5270449e-01
  3.7404466e-01
 -2.1337004e-01
 -1.4356157e-01
  1.1921803e-01
 -3.6556885e-01
 -7.1243323e-02
  6.2477326e-01
  4.2746171e-01
  4.1798943e-01
  1.1600976e-01
  1.2535307e-01
 -2.2205392e-02
  3.2230660e-01
 -1.0785484e-01
  1.7188800e-02
  3.0657312e-01
 -1.2144615e-01
 -1.5847968e-01
 -1.2500127e-01
  2.9715535e-01
 -8.4735759e-02
  6.5673374e-02
  2.5205910e-01
  4.7627547e-01
 -1.2226750e-01
  6.1811566e-02
  5.8033752e-01
 -2.6661375e-01
 -3.1073102e-01
  1.1689620e-01
  2.4875458e-02
 -4.4020526e-02
  1.9757574e-02
  2.8936073e-02
  2.3039426e-01
 -1.0727624e-01
  1.3837597e-02
 -4.6145794e-01
  2.9338244e-01
 -2.7787456e-01
 -2.0934185e-02
 -9.6933078e-03
  4.5124167e-01
  2.0819259e-01
  5.5754680e-02
  5.6948173e-01
 -8.1980266e-02
  2.2452348e-01
 -1.7383631e-01
  1.5440869e-01
 -5.4712421e-01
 -2.2184189e-01
  4.6609288e-01
 -2.0910883e-01
  9.2192411e-02
  2.8228724e-01
  6.0582314e-02
  7.8966148e-02
  1.9528888e-01
  4.1103536e-01
 -2.2938126e-01
 -5.0046146e-01
 -3.3560711e-01
  1.6362216e-01
 -2.8801468e-01
 -1.4721207e-01
  4.8742216e-02
 -1.0290877e-01
  2.1935262e-01
  8.9650899e-02
  1.6070525e-01
  1.1045574e-01
 -3.5364425e-01
 -2.7827762e-02
  2.6945803e-02
  1.0021514e-01
  2.6353848e-01
  3.9013468e-02
 -9.7817555e-02
  7.2691686e-02
  1.6873507e-01
  3.6963735e-02
  1.6771652e-02
  4.2271289e-01
  3.0946001e-01
  2.3797716e-01
  6.0624409e-01
 -6.9452095e-01
  1.2093795e-01
  6.1285510e-03
  1.1589219e-01
 -1.5055755e-01
  7.4133508e-02
 -5.2348989e-01
 -2.0150961e-01
 -9.5594311e-03
 -2.0940951e-01
 -2.0452912e-01
  2.8249478e-01
 -4.6096500e-02
 -1.5047485e+00
  5.1477569e-01
  8.0648917e-01
  3.0549778e-02
 -2.2634016e-01
 -8.6169288e-02
 -1.8380478e-01
  3.0709803e-02
 -1.3536689e-01
  4.0149264e+00
 -1.5951967e-01
  2.9026988e-01
  8.8987744e-01
 -5.3972382e-02
  1.0895193e+00
 -2.3115589e-01
 -3.3881772e-01
  1.0587339e-01
 -3.3475517e-03
 -3.3342290e-01
  2.7929735e-01
 -4.5756066e-01
 -1.7985241e-01
 -2.4757764e-01
 -2.2262162e-01
  1.7803340e-01
  4.1411704e-01
 -4.2900658e-01
 -2.3459964e-01
 -1.8470091e-01
  8.6163014e-02
 -5.3996873e-01
  1.0578484e-01
  1.2211969e-01
 -1.3839829e-01
 -2.3405775e-01
  1.7824227e-01
  1.2721433e-01
 -1.6851942e-01
 -1.1747929e-01
 -2.2866292e-02
 -1.4969817e-02
 -2.4992342e-01
 -1.6707505e-01
 -1.0488354e-01
 -7.2782531e-02
 -1.9778652e-01
 -3.4823659e-01
  1.3131946e-01
 -3.2531077e-01
 -1.1855481e-01
 -5.5346817e-02
 -3.7205309e-02
  4.6750285e-02
 -2.7431387e-01
 -3.9573810e-03
  7.5014997e-01
 -3.8483970e-02
  1.0954735e+00
 -2.5861543e-02
 -1.1515290e+00
  3.8928583e-02
 -9.3400925e-01
  3.1508580e-01
 -2.6216900e-01
  3.3055332e-01
  2.5387242e+00
  1.2584221e-01
 -9.9153399e-02
  7.5006358e-02
  2.0838524e-01
  1.1552221e-01
 -9.7402968e-02
 -5.1659101e-01
  1.0760795e-01
  9.9571116e-02
  5.6546561e-02
  4.5722020e-01
 -3.2188782e-01
 -2.0328508e-01
  2.6173365e-01
 -5.7773378e-02
  2.7105623e-01
  8.9528346e-03
 -1.6739127e-01
 -4.4309083e-01
 -1.2605441e-01
  1.3939421e-02
 -7.6866424e-01
 -6.8606301e-03
 -1.5084192e-01
 -3.5395098e-01
  3.5346183e-01
 -2.7717271e-01
  3.1740722e-01
 -2.5582595e-02
  1.7832702e-01
 -8.9557201e-02
 -2.8454241e-01
  7.1939451e-01
  3.3683595e-01
  4.0884619e-03
  4.0281333e-02
 -6.8424600e-01
 -2.6216695e-01
  4.6665981e-02
  7.9054959e-02
  3.5944813e-01
 -4.8465557e-02
  4.1735206e-02
  4.5317194e-01
  9.6614367e-01
  1.2897791e+00
 -1.4638945e-01
  8.8200748e-02
 -1.3245849e-01
 -3.3316937e-01
  5.8144536e-02
 -8.3079875e-02
  8.6671906e-03
 -4.7997499e-01
  1.6636415e-01
  4.6703500e-01
 -5.5495512e-02
 -4.1786471e-01
  4.6623889e-02
  6.2686157e-01
 -4.2526286e-02
 -1.4890130e-01
 -1.7298421e-01
  4.8308694e-01
  2.4761455e-01
 -6.1179519e-01
 -3.8302302e-01
  3.1991550e-01
  8.5782856e-02
 -2.4325751e-01
 -5.9448534e-01
  7.3679492e-02
  1.7707968e-02
 -1.2382986e-01
 -3.2821834e-01
 -4.9979171e-01
 -3.7240230e-03
 -4.6462896e-01
 -7.9615815e-03
  1.1100322e-01
 -5.6186650e-02
  2.0145795e-01
 -9.3990907e-02
  7.0702828e-02
 -5.4217427e-04
  5.7133520e-01
 -1.9214006e-01
 -2.7914226e-01
  2.5134754e-01
  3.4850097e-01
 -2.7987796e-01
  1.5696152e-01
 -5.5990005e-03
  9.0419538e-02
 -3.7338069e-01
  1.8755224e-01
  2.7326038e-02
 -9.4904877e-02
 -1.0151136e+00
  5.5674795e-02
  1.8096805e-01
 -2.6263344e-01
  1.4957787e-02
  9.0827480e-02
 -1.4126435e-01
  6.0861290e-02
 -1.0251470e+00
 -4.6876296e-01
  3.6366988e-02
 -3.5311740e-02
 -3.8352740e-01
  2.7379912e-01
 -2.1340965e-01
 -3.4286413e-01
 -8.7996408e-02
 -9.6274614e-02
 -8.6221844e-02
  1.9840811e-01
 -2.1294102e-01
 -3.4233298e-02
 -7.1241878e-02
  1.7715825e-01
  1.7024037e-01
 -1.9642994e-01
  3.0425210e-03
 -4.9340412e-01
  8.7311260e-02
  1.0904371e-01
 -8.0161065e-02
  1.9094163e-01
  5.1873124e-01
  1.1867645e-01
 -4.9023852e-01
  3.0512926e-01
  2.8959435e-01
 -5.7138276e-01
  3.6910888e-02
  1.4932506e-02
  1.4295868e-02
 -1.2736145e-01
 -2.8965378e-02
 -2.8095372e-02
  1.8449368e-01
 -8.1763856e-02
  3.0671513e-02
 -1.9930468e-01
 -3.6116818e-01
 -5.9876305e-01
  1.2502877e-01
 -1.5526637e-02
  1.0487838e-01
 -5.7798904e-01
  8.8572407e-01
 -9.6400619e-01
 -3.8280982e-01
 -1.8755442e+00
 -2.7060995e-01
 -2.6016474e-01
  1.2742643e-01
 -2.2311823e-02
  4.9930522e-03
  2.8277135e-01
  5.9129547e-02
  2.6634735e-01
 -2.1095087e-01
  3.5701168e-01
 -2.3786548e-01
 -6.5793686e-02
 -2.4953693e-01
  1.9131806e-02
  1.5843292e-01
  1.5210776e-01
  1.1397449e+00
 -1.2110626e+00
  2.3399792e-03
 -4.9597907e-01
 -2.7730301e-01
 -2.4435255e-01
  3.0292070e-01
 -6.2090699e-02
  1.4311539e-02
 -1.9357492e-01
 -2.0583005e-01
 -3.3044365e-01
 -1.0128745e-02
 -4.4318449e-01
  5.3458780e-01
 -6.6883288e-02
 -2.6730499e-01
 -9.6348993e-02
 -1.7490578e-01
  6.4432453e-03
 -2.2762068e-01
 -2.6562533e-01
  8.2318082e-02
  3.4534839e-01
 -2.2872826e-01
 -1.5121920e-01
 -2.1510828e-01
  1.0634270e-01
 -9.9927776e-02
  2.9309177e-01
  2.8772131e-01
  6.4385891e-01
  1.1007421e-01
 -6.0333776e-01
 -3.9621684e-01
  2.9062724e-01
  4.8711378e-02
 -5.2514326e-02
 -7.6719210e-02
  3.1467968e-01
 -3.2294559e-01
  7.7671525e-03
 -4.6848219e-02
 -3.5430126e-02
 -5.5548571e-02
  1.2395858e-01
  2.1242478e-01
 -3.3901986e-01
 -1.8584411e-01
 -2.7319640e-01
  7.5735068e-01
 -3.5418651e-01
  2.0216860e-01
 -6.1807904e-02
 -3.4974581e-01
 -2.8798583e-01
  1.3821378e-01
 -3.1291306e-02
 -2.6571867e-01
  6.6383553e-01
  1.3884415e-01
  1.1230934e-01
  1.3749009e-01
  1.8809666e-01
 -4.2108750e-01
 -1.5257719e-01
 -1.0011707e-01
 -3.5143933e-01
  5.6284928e-01
 -7.9941410e-01
 -4.1359565e-01
 -1.1375687e-01
 -7.4387401e-02
  1.6887191e-01
 -8.6881918e-01
  2.7067693e-02
  7.6052204e-02
  3.7459871e-01
  4.8440151e-02
  2.4931514e-01
 -4.2995974e-02
  3.2927930e-01
 -2.1874100e-02
  5.4332012e-01
 -6.5574557e-01
 -3.5971594e-01
 -1.2503758e-01
 -6.6416152e-02
  4.7854908e-02
  3.1351555e-02
 -5.9716005e-02
  2.0695284e-02
  1.7977385e-01
 -1.1531000e-02
  1.8792678e-02
 -5.9152897e-02
 -5.0764197e-01
 -2.4304201e-01
  3.5054031e-01
  9.7625010e-02
 -4.6519842e-02
  8.0509996e-03
 -6.5090132e-01
 -3.3657212e-02
  6.6600829e-02
  2.4358638e-01
  3.5326985e-01
  1.6986585e-01
  1.5649635e-01
  3.0803436e-01
 -6.7049377e-02
 -2.2647917e-01
 -1.2522923e-02
  5.3966868e-01
  1.8768867e-02
  2.4838495e-01
  3.8966820e-01
 -6.1300105e-01
  1.0607284e-01
  9.4906338e-02
  9.4062343e-02
  9.4875157e-02
 -2.2697657e-01
  5.8066539e-02
  6.1390206e-02
  1.2421574e-01
 -6.1796302e-01
  4.5843902e-03
  1.5647215e-01
  1.6159336e-01
 -1.0302524e-01
 -3.6446688e-01
  6.3913983e-01
 -4.0022796e-01
 -4.9991089e-01
  5.6187773e-01
  1.6617554e-01
 -3.3138856e-01
  6.0123090e-02
 -9.5638558e-03
 -6.4914301e-02
 -2.8571033e-01
  3.0416463e-02
 -2.1262404e-01
 -8.3559051e-02
  1.2312971e-01
  1.1069519e-01
  1.6426904e-01
  7.9708137e-03
 -2.0511600e-01
 -1.6393428e-01
 -4.5902722e-02
  3.8351592e-02
  6.0112607e-02
 -1.2669827e-01
 -2.0254366e-01
  6.0670990e-01
 -2.2366844e-01
  6.7807227e-02
 -7.4957862e-02
 -1.0739663e-01
 -1.3311402e-01
 -6.5785152e-01
 -2.3789255e-02
 -1.5562491e-02
 -2.6622673e-02
 -7.5007547e-03
 -8.8692442e-02
 -1.2928834e-03
 -4.7281083e-01
 -4.6980810e-01
 -5.4362256e-02
  3.5332656e-01
  1.5289597e-01
  3.0025661e-01
  1.3066398e-01
  3.8267355e-02
 -1.2537625e-01
 -2.5980797e-01
  4.3639278e-01
  3.4520787e-01
 -2.1804178e-02
 -3.0206743e-01
  2.1969918e-02
 -2.0611200e-01
  4.0220875e-01
  2.2358134e-01
  4.7778764e-01
 -4.4544995e-02
  2.2159001e-01
  2.8788778e-01
  1.0256658e-01
  1.2622643e-01
  4.3887246e-01
  4.9696490e-01
  2.3036230e-01
  8.3898455e-02
 -1.3071054e-01
  3.7293524e-02
  1.0367521e-01
 -8.0520493e-01
  1.9512208e-01
 -2.4376404e-01
 -1.3683620e-01
  4.8372149e-01
 -3.4783566e-01
  1.1954124e-01
  1.9771360e-01
  3.4945196e-01
  5.1301783e-01
 -3.0051690e-01
 -1.6385251e-01
 -3.3444464e-01
  9.1201492e-02
 -4.7981051e-01
  1.7965952e-01
 -6.0105252e-01
 -7.9603516e-02
  2.3898805e-02
  6.9270410e-02
  5.6692767e-01
 -6.7893043e-02
  6.1448056e-02
  1.6960150e-01
  2.6506916e-01
  1.8499374e-01
  9.6300371e-02
 -6.5721989e-02
 -1.5414484e-01
  1.3983160e-02
  1.0965275e-01
  1.1276653e+00
  1.6969295e-01
 -2.9921541e-01
 -2.8468588e-02
  1.6249160e-01
 -2.5581720e-01
  1.8249503e-01
 -2.6404747e-01
 -6.5092756e-03
 -1.5876381e-01
 -2.3977602e-01
 -4.2011207e-01
  3.6855718e-01
 -3.5471645e-01
 -4.9760732e-01
 -1.3132106e-02
 -3.8737088e-01
 -1.0073449e-02
 -8.6595766e-02
 -2.5234663e-01
 -1.2826577e+00
 -4.3744175e-03
  1.8857591e-02
 -7.3520401e-03
  3.1621225e-02
 -2.7947521e-01
  7.8955352e-02
  4.0160584e-01
  2.8264040e-02
 -2.9651204e-01
  3.8623735e-02
 -1.6200779e-01
 -1.9516475e-01
 -1.6603293e-01
 -1.1756223e-01
 -7.1311228e-02
 -5.0911993e-01
  9.9461719e-02
  3.4878105e-01
 -5.2835010e-02
 -2.3825210e-01
 -5.4173213e-01
 -4.4599887e-02
 -4.4271028e-01
 -2.6686020e+00
  1.4842722e-02
 -4.2807002e-02
  2.0114148e-02
 -1.1889921e-01
 -7.5185299e-02
 -3.2116966e-03
  1.6782286e-02
  2.6670335e-02
  1.0386711e-01
  4.0862679e-01
 -3.3618774e-02
 -7.3909953e-02
 -1.8055147e-02
  7.7957220e-02
  1.5918773e-01
  1.1792203e-01
 -3.3284932e-01
 -6.0071486e-01
  1.9044474e-02
 -4.0271959e-01
  4.6523198e-02
 -1.3048589e+00
  4.7650552e-01
 -1.4399020e-01
  4.2013593e-02
  4.9745467e-01
  3.3216077e-01
 -2.9185149e-01
 -5.3240377e-01
 -1.3219711e-01
  2.8211695e-01
 -3.3926353e-01
  2.9539585e-01
 -5.4060962e-02
 -1.4484651e+00
  5.0183054e-02
  1.6697007e-01
 -3.2140201e-01
 -1.1821345e-01
 -4.2420796e-01
  1.4457712e-01
 -2.4422890e-01
  1.6281901e-01
  2.1486304e+00
  1.6372421e-01
 -1.0266764e-01
 -5.5121744e-01
  4.7684852e-03
  4.4179714e-01
 -3.0662034e-02
  2.0752722e-01
  2.1144623e-01
 -1.4301311e-02
 -3.3083773e-01
 -4.1202074e-01
 -2.0599101e-01
 -3.0592072e-03
  1.3057676e-01
 -6.7031197e-02
  3.9801609e-02
  2.1930629e-01
  7.1102567e-02
  6.7841575e-02
 -3.8237604e-01
 -2.7846619e-02
  6.7265093e-01
 -8.6220279e-02
  7.2902995e-01
  4.3301278e-01
  1.3972198e-02
 -3.2240281e-01
 -3.3067089e-01
  2.5312442e-02
  1.2597716e-01
 -4.1750073e-02
 -3.2077596e-01
 -9.9026851e-02
 -2.7652556e-01
 -4.4792306e-01
 -2.0972583e-01
 -1.4229600e-01
 -4.7018856e-02
  1.9621441e-01
 -7.1883827e-01
 -5.7950890e-01
 -1.5059989e-02
 -1.1088394e-01
 -5.4220319e-01
  2.1740948e-01
 -4.4296712e-02
  2.7010247e-02
 -2.0345282e-02
 -1.7930518e-01
  2.7126778e-04
  1.0364386e-01
  6.6928841e-02
 -1.9264208e-01
  1.7160173e-01
  1.0147633e-01
  4.4109321e-01
 -2.2804154e-02
 -3.3788776e-03
 -2.1103138e-01
  3.6852747e-01
  5.4061866e-01
 -2.7908936e-01
 -3.4842688e-01
  2.3418953e-01
 -1.2182794e-01
  4.7542602e-02
 -1.5079872e-01
 -3.1627193e-01
 -1.4115782e-01
  2.1713705e-01
  1.0539853e-01
  1.0101085e-01
  2.4616590e-01
  1.6828041e-01
  2.5323308e-01
 -2.1719795e-01
  7.3723778e-02
  1.2151092e-01
  3.8007522e-01
  2.4776015e-01
  7.1498588e-02
 -4.9524888e-01
 -4.2847961e-01
 -1.9893885e-02
 -1.3680904e-01
  2.9592910e-01
 -6.7401901e-02
  5.2575248e-01
  1.1957805e+00
 -1.2413049e-02
 -1.6974393e-01
  1.6337515e-01
 -5.5137253e-01
  8.3211653e-02
  1.1849672e-01
  1.5765937e-01
  4.3084121e-01
  2.7549899e-01
  8.6219120e-01
  2.3221736e-01
  1.3902286e-01
  2.1298335e-01
 -1.9631304e-01
  4.7913305e-02
 -8.0364048e-02
  3.4517415e-02
 -4.2633557e-01
  1.1258403e-01
  2.6351839e-02
 -5.2695121e-03
  4.0181935e-01
  3.0885128e-02
 -4.1577011e-01
  1.1817686e-01
 -4.9940553e-01
  3.3495367e-01
  2.1218494e-01
 -2.0638549e-01
  1.7945600e-01
  1.6426432e-01
 -2.3623662e-01
 -2.0448139e-02
  3.4389523e-01
  1.7677195e-01
  3.5299608e-01
 -4.6877277e-01
  1.5671197e-01
 -3.2371116e-01
  1.8811202e-01
  1.9510873e-02
 -1.3128008e-02
  1.0328730e-02
  1.6325738e+00
  1.1483201e-01
 -4.7187690e-02
 -1.5739719e+00
  3.7214592e-01
  1.4306930e-01
 -5.9433901e-01
 -1.3517593e-01
  5.8905464e-01
 -3.1592395e-02
 -2.5830492e-01
  1.3720917e+00
 -1.8192731e-01
  3.8756785e-01
 -1.0888045e-01
 -4.8000798e-02
 -2.9440446e-02
  1.7729773e-01
  5.8913499e-01
 -4.1218603e-01
  1.3831435e-01
 -8.4069431e-02
 -7.6433027e-01
  2.0795842e-03
 -2.1916723e-01
 -1.5881452e-01
  3.0657671e-02
 -8.5624802e-01
 -2.0735422e-01
 -1.1605253e+00
  3.1501889e-02
 -1.3667825e-01
 -2.7757204e-01
  2.5808740e-02
 -9.6476799e-01
 -1.1488140e-01
 -2.7140955e-02
  1.0405879e-01
 -1.3480783e-01
 -1.2240274e-01
 -1.1221352e+00
 -5.9642743e-02
  3.2000461e-01
 -3.3674456e-02
 -1.1264796e-01
  1.0285921e+00
  2.2675303e-01
  2.5433177e-01
  1.5279036e+00
  5.1707500e-01
  2.3033883e-01
 -2.9415256e-01
 -2.1552287e-01
  2.0740470e-01
  1.3169849e+00
 -5.2118665e-01
  2.1319306e-02
 -1.4537481e-02
  3.7952937e-02
  2.5090948e-01
  8.8443285e-01
  1.9813237e+00
  4.1572225e-01
  2.7599758e-01
 -1.0291430e-02
  1.3998413e-01
 -3.9816089e-02
  3.4490946e-01
 -1.3232129e-02
 -1.3727796e+00
 -8.7547588e-01
  8.6298066e-01
 -1.5531459e-01
  3.0047861e-01
  1.1710026e-01
 -8.7468177e-02
 -9.9810679e-03
  1.6532411e-01
  1.2885590e-01
  7.5413078e-02
  1.3523595e-01
 -4.7500423e-01
 -6.3673556e-01
 -3.5728280e-02
 -4.7937533e-01
  4.4488057e-01
 -1.5411053e-02
  1.1161835e-01
 -3.7706739e-01
  2.0932375e-01
  4.5790812e-01
 -1.1469536e-01
 -2.3915437e-01
 -3.8342458e-01
 -2.3914483e-01
 -1.8571626e-02
 -5.4621118e-01
  1.8732981e-01
  7.4183494e-01
 -1.7650552e-02
 -8.8267311e-02
 -4.0465364e-01
 -4.3176681e-02
 -1.1191999e-01
  3.0375570e-01
 -1.1939098e-01
 -4.3489248e-02
  8.3008021e-01
  3.6911014e-02
 -4.9663049e-01
 -4.0019872e-03
  5.8959937e-01
  3.7767309e-01
 -2.9389375e-01
  1.0101039e-01
  4.2650267e-01
  2.2461544e-01
 -6.1929632e-02
  5.8819349e-03
 -3.1130901e-01
  2.1983944e-01
  6.9497012e-02
 -1.6194178e-02
 -2.4489805e-02
 -1.3668835e-01
 -2.8764582e-01
  8.0682456e-02
  4.7440823e-02
 -2.1630996e-01
 -1.1409651e-01
  1.6090482e-01
  5.4916340e-01
 -4.0816280e-01
  9.7620592e-02
  1.1869205e+00
 -2.5404656e-01
 -2.4854411e-01
 -2.7580819e-01
  5.5604372e-02
 -3.9761703e-02
  7.1915481e-03
  4.5983616e-01
  2.7666155e-01
 -2.0954524e-01
  7.8582877e-01
  4.2243753e-02
 -2.5186366e-01
  6.1926369e-02
  3.3330074e-01
  1.2801594e-02
  8.5207063e-01
  6.7745648e-02
  1.7925492e-01
  1.9381233e-01
  1.1008491e-02
 -2.2456370e-02
  9.5748417e-02
 -3.0345941e-01
  1.1322107e+00
  1.0069883e+00
  1.8041022e-01
 -3.6107460e-01
  1.2738369e-01
  1.2734218e-02
 -6.5271795e-01
 -4.4448459e-01
 -2.0983377e-01
  3.5653081e-02
  2.5098369e-02
  2.6603225e-01
  6.9492191e-01
 -8.6340988e-01
  1.0477717e-01
 -4.5041297e-02
 -8.7462530e-02
 -2.0244798e-01
  2.5174758e-01
 -2.4428117e-01
 -1.1378917e+00
 -2.0392314e-01
  1.9300537e-02
 -5.0499696e-01
  7.5146563e-02
  3.2068644e-02
  1.3432414e-02
 -2.0294428e+00
  7.5853425e-01
  1.9575626e-01
  1.4170167e-01
  3.0725330e-01
  1.7774437e-01
  1.1460678e-01
  1.0368903e+00
 -4.0905827e-01
  1.2209625e-01
  2.4605250e-01
  1.9600046e-01
 -4.2105924e-02
  3.1343631e-03
  1.3415931e-02
  4.8285671e-02
  3.9648882e-01
 -3.1391397e-01
  2.7671537e-01
  3.1021786e-01
  4.5693971e-02
  7.2785921e-02
  3.2968488e-01
  5.1108271e-02
  4.2320821e-01
  1.1557633e-01
 -2.7969396e-01
 -1.2538525e-01
  7.8926906e-02
  1.5283462e-02
 -3.8543913e-01
 -3.7091130e-01
 -1.9272518e-01
  1.2956710e-01
  3.0765412e-02
  6.0417652e-01
  2.9498792e-01
 -1.0727327e-01
 -1.9326809e-01
  7.1801551e-02
 -6.0144197e-02
 -4.0216824e-01
  4.7882393e-02
  3.7485845e-02
  1.3985121e-01
  6.4927064e-02
  3.1915378e-02
  2.5303012e-01
  3.0438611e-01
 -1.0910369e-01
 -3.1826186e-01
  6.1975371e-02
 -6.3098001e-01
  5.2940458e-01
 -1.2349615e-01
 -5.4339147e-01
  4.9291661e-01
 -4.5992064e-01
 -2.8900766e-01
 -9.0743132e-02
  6.7473983e-04
 -3.3477870e-01
  2.3894307e-01
  3.8308966e-01
 -2.1141151e-02
 -3.6154628e-01
  2.9899201e-01
  1.4451562e-01
 -2.4239910e-01
  4.0325616e-02
  1.6334547e+00
  2.8396842e-01
  1.9553156e+00
  1.6692372e-01
  2.9119147e-02
 -1.9674873e-01
 -3.0424099e-02
  2.7952957e-01
 -6.5405458e-02
 -2.9044751e-02
 -6.5132213e-01
  1.4225286e-01
 -2.1366945e-01
  1.3224231e-01
  5.3184353e-02
  1.2835193e-01
  3.3974856e-01
 -9.0311013e-02
  3.9558634e-02
  1.4423047e-01
  1.0243308e-01
  3.8569772e-01
  7.5977629e-01
 -1.1201280e+00
 -1.2797830e-01
 -5.1842369e-02
  6.4103827e-02
  1.6079385e+00
  2.1673416e-01
 -2.6633132e-01
 -6.5368479e-01
 -3.5327461e-01
  5.5156922e-01
  1.2807734e-01
 -8.2833432e-02
  1.9141969e-01
  5.9950568e-02
  4.4104168e-01
 -6.2754966e-02
 -1.5909865e-02
 -9.2398398e-02
 -6.8304397e-02
 -5.6876160e-02
 -7.3746288e-01
 -2.7525976e-01
  4.0920687e-01
  1.4850567e-01
 -2.0195626e-01
  3.5020314e-02
  2.1044227e-01
  1.6226102e-01
 -4.7861543e-01
  5.2100974e-01
 -3.1624523e-01
  5.2250403e-01
  5.8871239e-02
  7.4067599e-01
 -3.2766238e-02
  8.1039578e-02
  3.2541342e-02
  4.4926706e-01
  1.5860443e-01
  2.7508944e-01
 -6.3496041e-01
  2.2745155e-01
 -3.3856106e-01
 -1.4888194e-01
  3.1292069e-01
  9.3003619e-01
  2.2014362e-01
 -2.9387753e-02
 -7.7249333e-02
 -1.0063980e-01
  6.4670438e-01
  2.5033626e-01
  2.5904122e-01
  7.3514402e-02
 -5.3049091e-02
  2.8750783e-02
 -2.3971055e-01
  2.5403917e-01
 -9.1394889e-01
 -2.0727283e-01
  2.7981874e-01
 -5.0779269e-03
 -3.3112291e-01
  4.6384659e-01
  2.2299880e-02
 -4.1594505e-02
  4.7763936e-02
  1.7904252e-02
 -1.2082194e+00
 -3.7920007e-01
 -4.2203004e-03
  1.7031428e-01
 -3.4157857e-01
 -1.1169539e-01
 -3.1934533e-01
  5.9835281e-02
 -2.7896646e-01
  4.6635690e-01
  1.5836509e-01
  2.0912181e-01
 -1.5133139e-02
  5.1570827e-01
  3.9189106e-01
  2.1890836e-02
  1.1264694e-01
  2.7186405e-02
 -6.4295000e-01
  9.0363063e-02
 -2.6100951e-01
 -2.5466782e-01
  8.9604832e-02
  1.4203741e-02
  1.9034569e-01
  3.9495531e-01
  5.2124697e-01
 -1.3164012e-01
  4.2407624e-03
  5.3769439e-01
 -4.4611076e-01
 -6.6769809e-01
 -7.0257121e-01
 -4.2234826e-01
 -9.6577302e-02
 -5.4467118e-01
 -3.8769400e-01
  8.0659553e-02
  2.9838309e-01
  9.9299890e-01
  2.2482546e-01
 -1.4158463e-01
  3.9771634e-01
  2.3013934e-01
  9.8401499e-01
 -7.1974032e-02
  2.1299249e-01
 -1.3752866e-01
 -1.1185645e-02
  1.9791843e-02
  4.4254467e-01
 -1.8241400e-01
  1.6838998e-01
 -2.1981375e-01
  4.1032046e-02
  2.4615037e-01
  4.1989519e-04
 -7.1112764e-01
 -6.0539083e-03
  5.6371742e-01
 -1.9348222e-01
  1.5194017e-02
 -3.7008664e-01
 -4.8576117e-02
 -4.7415873e-01
  2.9736847e-02
  2.1678267e-01
  1.2602127e-01
  1.8597113e-02
  1.9565396e-01
 -2.8324685e-01
 -7.5057095e-01
 -9.6872844e-02
 -3.7151968e-01
 -5.5343914e-01
 -9.9147469e-02
 -3.2568213e-01
  2.4450966e-03
  7.6014787e-02
 -1.8002532e-01
  5.0316584e-01
 -2.1932997e-02
 -5.3503707e-02
  9.9034999e-03
  3.7897196e-02
  1.3875529e-01
  5.5740084e-02
  3.7497726e-01
  7.1404502e-02
 -1.0792506e-01
  6.2454157e-02
  2.2709273e-02
 -5.4429930e-01
  3.1613350e-01
 -5.3007543e-01
 -1.7086218e-01
  1.3889472e-01
 -1.1262494e-01
 -1.3778411e-01
  2.1836796e-01
 -2.9609117e-01
  1.3125756e-01
 -3.6594042e-01
 -1.2034998e-01
 -1.0163741e-01
 -5.6485027e-01
 -1.9413531e-02
  3.6258864e-01
  8.6634919e-02
 -4.9465233e-01
 -5.9369907e-02
  3.6279765e-01
 -2.4845934e-01
 -6.4965561e-02
  5.0640285e-02
 -1.3920793e-02
 -6.2183106e-01
 -4.1029957e-01
  3.1238118e-01
  5.0073832e-01
 -5.1558003e-02
  4.9544516e-01
 -8.3533138e-02
 -3.7932402e-01
  2.0636441e-01
 -7.9248033e-02
 -2.9310438e-01
  2.2390278e-01
 -2.8050688e-01
  1.3465077e-01
 -1.6886503e-02
 -5.2013099e-01
 -9.8853506e-02
 -5.4653835e-01
  2.8724903e-01
 -3.8563627e-01
  1.4986573e-01
  1.8339203e-01
 -7.6521687e-02
 -1.5872616e+00
 -1.9473970e-02
  5.3428388e-01
 -1.0716606e-01
  4.4113332e-01
 -9.6494012e-02
  1.9916302e-01
 -2.7616918e-01
  1.8694212e-01
 -3.6700942e-02
  8.8682041e-02
 -7.1141839e-02
 -4.0386373e-01
 -8.5647523e-02
 -7.0585555e-01
  2.1110190e-02
  4.4057161e-02
 -4.4306132e-01
  1.3132338e-01
  2.3286855e-01
 -7.9215586e-01
 -1.1945769e-01
 -1.7289636e-01
  4.4650102e-01
 -2.8717183e-02
 -4.9860556e-02
 -2.4123716e-01
  1.6478860e-01
 -2.9554629e-01
  1.3924778e-01
  6.1965673e-03
  7.7565350e-02
 -6.6438597e-01
  1.0842010e+00
 -4.4976991e-02
  2.4276746e-02
 -6.2588729e-02
 -5.5511326e-01
  1.1411636e-01
  1.3645656e-01
 -9.1031171e-02
  2.4795651e-01
  2.8363124e-01
 -1.7726907e-01
  2.1892428e-01
  2.9801789e-01
 -3.7174246e-01
 -1.2120766e-01
 -2.8416836e-01
 -5.8994503e-03
  1.6675007e-01
  2.8317362e-01
  6.2022799e-01
  4.6111599e-02
  1.2320257e-01
 -2.6210605e-03
  7.3934360e-03
 -2.0178713e-02
  3.7288970e-01
 -1.2694924e-01
  6.2906361e-01
  1.5341571e-01
  9.3653303e-01
  6.7652231e-01
  4.2953888e-01
  8.9254200e-02
 -2.2773993e-01
 -6.5526915e-01
 -5.2926153e-01
 -2.7976173e-01
 -1.8235749e-01
 -1.3347839e-01
 -3.6499362e-02
  5.3610485e-02
 -3.5884917e-01
  1.6274345e-01
  5.6168145e-01
  8.4858470e-02
  4.0256947e-01
 -1.0201937e-01
 -1.4946130e-01
 -1.8123616e-01
  1.2490300e-01
 -2.5248420e-01
  5.8571666e-01
 -9.9085391e-02
 -5.7417345e-01
 -2.5252333e-01
 -2.1850432e-01
  1.6792086e+00
 -6.2197074e-02
 -4.7901208e-03
  2.6506316e-02
 -1.5984733e-01
  1.5720947e-01
  2.0347658e-01
 -2.4869701e-01
 -2.4354219e-02
  4.5185879e-02
 -7.1101166e-02
  9.3874864e-02
  1.0511310e-01
  7.7871629e-03
 -1.7466299e-01
  3.5395595e-01
  3.2971814e-01
 -1.4672801e-02
 -3.6651868e-01
 -5.1243234e-01
  1.1763089e-01
  2.0319688e-01
  1.2050540e-02
 -2.5441545e-01
  7.0636749e-01
  5.7808822e-01
 -3.0934745e-01
  2.1021780e-01
  3.0793816e-01
  1.7261648e-01
  3.3738937e-02
 -1.7883350e-01
  3.5608190e-01
 -2.7215442e-01
 -4.7750971e-01
 -1.2035592e-01
 -2.4341714e-01
 -2.1952297e-01
 -1.0276920e-01
  2.1617825e-01
 -2.7623257e-02
 -1.1842534e-01
  8.4354453e-02
 -5.1722530e-02
  2.0764103e-02
  1.0893688e-01
 -9.7935172e-03
 -5.9758031e-01
  8.9209890e-01
 -2.1033570e-01
 -3.3334941e-02
 -1.7769459e-01
 -1.1780405e-01
  2.1834549e-02
 -9.4376244e-02
 -2.8006053e-01
 -4.8966009e-02
  1.3539608e-01
 -3.0522203e-02
 -2.9835794e-02
  4.3622751e-02
  1.3455978e-01
  9.4576292e-02
  3.4898445e-01
 -6.7824391e-03
 -5.0016850e-01
 -4.7553986e-01
  2.5033966e-01
 -1.0276501e-01
 -9.8076558e-01
 -6.2216081e-02
  4.1494593e-01
  4.2284927e-03
  1.4367759e-01
  3.8512817e-01
  1.2807706e-01
  4.8451665e-01
 -7.6368399e-02
  2.3668231e-02
  8.9397095e-02
  7.5056598e-02
  2.4482135e-01
  9.2016116e-02
  6.1906135e-01
  2.1027287e-02
 -4.5525765e-01
 -7.6937467e-02
  2.8501285e-02
  1.5357563e-01
  1.5833991e-02
  6.8261050e-02
  3.4978738e-01
  3.8436413e-02
 -4.1101900e-01
  8.4571636e-01
  2.2096332e-02
  5.2482665e-01
 -9.1502988e-01
 -2.0196130e-02
 -5.7491142e-01
 -2.1358208e-01
 -6.3423507e-02
 -4.7059086e-01
 -1.0083985e-01
  6.8766333e-02
  5.3058829e-02
 -2.5516951e-01
  3.9994485e+00
 -6.1566734e-01
 -2.9123238e-01
 -2.1214503e-01
 -5.4958802e-01
  1.7098652e-02
  4.1067052e-01
 -3.3719648e-02
 -2.9120192e-01
 -2.0150356e-02
  5.2715307e-01
  1.6894153e-01
 -6.6651143e-02
  1.4125699e-02
  1.0068425e-01
 -1.6544716e-01
  1.8165253e-01
 -2.0012568e-01
 -4.1172600e-01
  3.3074576e-01
 -3.0503741e-02
 -9.1508508e-01
  4.2062941e-01
 -2.0963741e-02
  8.2339562e-02
 -2.4334686e-01
  1.8139552e-01
 -4.6396664e-01
  2.1989267e-01
 -2.1195914e-01
 -1.0120524e-01
 -1.2800790e-01
  1.2222232e-01
 -3.7391976e-01
  6.8597561e-01
 -6.3385367e-01
  1.7052546e-01
 -5.8778249e-02
  1.6588132e-01
  7.6991759e-02
 -3.2280752e-01
 -3.1141466e-01
  1.7011391e-01
  5.6697011e-01
  8.2883906e-01
  1.4741752e-01
 -1.3609752e-02
 -3.0532178e-02
 -1.4910668e-01
 -1.3380253e-01
 -1.1362750e-01
 -1.1785968e-01
 -1.1671166e-02
  1.0804361e-01
 -2.0039746e-01
  2.7488661e-01
 -4.5341510e-01
 -1.6811167e+00
 -2.4802827e-03
  3.7117654e-01
 -1.4190128e-01
  8.3772498e-01
  2.0899464e-01
 -2.5728240e-04
  6.8394607e-03
 -9.4073631e-02
  1.4450058e-02
 -1.3038933e+00
  7.4226576e-01
  1.1281257e-01
  3.7649477e-01
 -6.6368476e-02
 -5.6429002e-02
  5.2914236e-02
 -4.3849003e-01
 -4.1856174e-03
  1.2381798e-01
  4.4563893e-02
 -1.6983792e-01
  8.0072932e-02
  1.3573591e-01
 -7.6621324e-02
 -4.8206929e-02
  2.9553384e-01
 -3.2615677e-01
  3.7111898e-03
 -4.5620471e-02
  7.9947084e-02
 -2.5056061e-01
 -9.6862532e-02
  2.3824432e-01
 -2.9614693e-01
 -6.4504683e-02
 -4.2517450e-01
  2.1759538e-02
 -9.7806357e-02
 -1.1263964e-02
  3.3750576e-01
  3.2005649e-02
  1.4438227e-01
  2.2693434e-01
  8.0752268e-02
 -1.8490472e-01
 -3.3327302e-01
 -4.5360166e-01
 -6.4487964e-02
 -1.0505387e-02
  1.4412929e-01
  1.5851429e-01
 -2.7454245e-01
 -3.3540380e-01
  2.0931345e-01
  2.4193311e-02
  5.3714201e-02
 -2.3128624e-01
 -1.7887740e-01
  9.9181801e-02
  9.1396339e-02
 -8.1200264e-02
  3.0497992e-01
 -3.1384951e-01
 -5.6905486e-02
  9.1002308e-02
 -2.0134883e-01
 -1.2137976e-03
  2.1679640e-01
 -1.6960292e-01
 -3.3215246e-01
  1.2102785e-01
  2.9527735e-02
  6.2828846e-02
 -4.7460694e-02
  1.1420876e-01
 -4.2379528e-01
 -1.0110804e-01
  2.3282635e-01
  3.4455959e-02
  3.8226250e-01
 -5.8049339e-01
 -1.0399888e-01
 -4.8940793e-02
 -1.9313478e-01
  1.7237587e-01
  2.1497479e-01
  1.1446605e-01
  1.2882321e-01
  7.6798350e-02
  7.1294032e-02
  8.5737497e-02
 -2.1380568e-01
  8.8239199e-01
 -1.0095064e-01
  3.0003879e-02
 -6.5676630e-02
  8.4208742e-02
 -2.1390729e-02
  1.3047415e-01
 -6.9125906e-02
 -2.2180371e-01
 -5.3088850e-01
 -3.1338692e-02
  1.3958658e-01
 -2.2083217e-01
  1.7339319e-01
 -2.6386657e-01
  3.1038338e-01
 -2.0497501e-02
  5.3163778e-02
  1.0431965e-01
  2.8476119e-01
  5.8995757e-02
  3.5222137e-01
 -6.9537684e-02
 -4.0928173e-01
 -1.2290198e-01
  1.1700188e-01
 -1.0431052e-01
  2.2849557e-01
  6.5915927e-02
  3.2513965e-02
  1.3645220e-01
 -1.6036940e-01
 -5.3247813e-02
 -2.6416960e-01
  3.9275479e-01
  1.3479775e+00
  5.0012994e-01
 -4.2307141e-01
  7.7225173e-01
 -9.8049206e-01
  3.8534275e-01
 -1.0332598e-01
 -3.3879122e-01
 -5.4842436e-01
 -2.9703245e-01
  9.1332883e-01
  6.0107905e-01
 -2.3663917e-01
  8.0941901e-02
  1.3209744e-01
 -7.8768110e-01
 -8.7185852e-02
  4.2943439e-01
  7.9763241e-02
 -1.6130744e-01
  7.4606866e-02
  5.9885092e-02
 -3.6071092e-01
 -2.6360983e-01
 -8.5718399e-01
  3.3945617e-01
 -5.1211917e-01
  3.6903349e-01
 -2.8827450e-01
  6.3639659e-01
 -9.2108808e-02
  1.3224053e-01
 -8.6753970e-01
 -1.4555408e-02
  1.0963997e+00
  4.4865701e-01
  6.0992319e-02
  9.6130317e-01
 -1.9815433e-01
  7.2305456e-02
  2.0824069e-02
 -4.1462487e-01
 -1.5654765e-01
  4.9699441e-01
 -5.2972924e-02
  5.1463473e-01
 -3.5257075e-02
  1.1194270e-01
 -2.0526291e-01
  2.0740741e-01
 -3.9286011e-01
 -6.5790427e-01
  3.5153165e-01
  8.3388096e-01
 -2.2629815e-01
 -6.0464218e-02
 -1.3879341e-01
 -8.3740741e-01
 -1.1390071e-01
  5.8748670e-02
 -1.2385244e-01
 -3.4513706e-01
 -1.1787962e-01
  2.9956180e-01
  1.4692803e-01
 -8.1799781e-01
  3.5291749e-01
  3.4936628e-01
  2.9229823e-01
  4.0119413e-01
  1.2116802e-01
  4.5787081e-01
  3.4811497e-01
 -5.3931445e-01
 -2.5463610e+00
 -2.9277861e-01
  3.1837296e-01
 -4.1911092e-01
 -1.3450754e-01
 -1.4298861e-02
  1.4178197e-01
  3.9402552e-02
 -3.9827740e-01
 -6.8819031e-02
  8.8375658e-02
  1.6162819e-01
  1.8045060e-01
  5.2970842e-02
  1.3399515e+00
 -4.1944001e-02
 -2.7919555e-01
 -9.2906743e-02
  7.1226233e-01
  4.6720706e-02
  4.2554018e-01
  1.9737197e-01
  1.4259811e-01
 -6.7653382e-01
  1.9350237e-01
 -7.2261363e-02
  2.1322277e+00
  7.7664894e-03
  7.6751113e-03
 -1.1532664e-01
 -1.4978553e-01
 -3.0292697e-02
 -2.8522882e-01
  8.8705212e-02
 -4.5739052e-01
 -5.0057048e-01
  3.1284910e-01
  5.8711052e-01
  7.1405268e-01
 -1.4013298e-01
  5.4771784e-03
 -1.3242495e-01
  3.3493396e-02
 -3.6775300e-03
  3.4375340e-01
  9.6941367e-02
 -8.0224615e-01
 -2.2583175e-02
  5.3853148e-01
 -8.5608411e-01
  1.0475766e-01
 -2.7919230e-01
  3.8421771e-01
 -2.7076295e-01
  1.7862764e-01
  1.8755232e-01
 -2.4355058e-01
  6.7023879e-01
 -1.5502417e-01
 -1.1248599e+00
  6.5027565e-02
  1.5910034e-01
  1.7030208e-01
 -8.3085731e-02
 -2.6874983e-01
  1.6909795e-01
  5.7701159e-01
  9.5064543e-02
  6.8865860e-01
 -2.8738072e-02
  6.9528103e-02
  3.3832002e-02
 -2.5099269e-01
  1.9202325e-01
  3.1748176e-01
  7.9908359e-01
 -3.3597323e-01
 -3.8760281e-01
  6.9032140e-02
 -8.3103463e-02
  8.5662715e-02
  4.8801675e-04
  6.7583382e-01
  1.2391495e-01
  4.7819951e-01
  9.5430687e-02
 -4.5322472e-01
  2.7731961e-01
  2.3878027e-02
  2.5250016e-02
 -5.1455736e-01
 -8.2002985e-01
  1.2694341e-01
 -1.5399469e-03
 -1.7874138e-01
 -1.1804806e-03
 -1.6093107e-01
  1.5923698e-01
  2.8108099e-01
 -6.0523689e-02
 -9.9489793e-02
  3.9273482e-02
  6.3849933e-02
  8.8139683e-02
  1.5173808e-01
 -1.7560683e-02
 -7.9449672e-01
  3.5713723e-01
  3.9045185e-01
 -2.4379256e-01
  7.3376156e-02
 -1.1621843e-01
 -5.4866776e-02
 -8.8836923e-02
  2.5145882e-01
  1.2929454e-01
  6.1131585e-01
 -7.7489382e-01
 -7.5460419e-02
  1.2274169e+00
 -1.3077009e-01
 -1.3264658e-01
 -1.6419294e-04
 -1.2907168e-01
 -1.2097701e-01
  9.5316060e-02
 -2.9734600e-01
 -3.7718984e-01
  3.3773872e-01
 -4.9511933e-01
  3.3637294e-01
  9.0490133e-02
 -3.0854061e-01
 -4.9662364e-01
  1.3229110e-02
 -2.2143491e-01
  4.1017121e-01
  5.0733682e-02
 -5.4242581e-01
 -4.1542482e-01
  1.0398208e-01
 -3.5663477e-01
 -4.3005797e-01
 -2.7978586e-02
 -2.1315390e-02
  3.4661978e-01
  1.9353598e-01
  2.3655668e-01
  3.2790220e-01
 -3.4632230e-01
 -9.0216838e-02
 -7.1588285e-02
  2.2059141e-01
  3.4389909e-02
 -1.9870497e-01
 -1.3460352e-01
 -2.0042802e-01
 -2.2235067e-01
  7.7844383e-03
 -9.2163140e-01
 -2.3675427e+00
  1.8486398e-01
 -4.4569036e-01
 -1.6131519e-01
 -2.6047304e-01
  1.5914732e-01
  4.5847020e-01
 -3.9431337e-01
 -3.0463899e-02
 -1.8697469e-01
 -8.2431743e-03
 -1.4794397e-01
 -2.9058838e-01
 -6.9984072e-03
  5.0420463e-01
 -7.4562222e-01
  2.0095462e-01
 -9.7433664e-02
  3.9464733e-01
  7.9176590e-02
  1.4974900e-01
 -1.5601985e+00
  8.9208603e-01
 -3.1814642e-02
 -2.0531978e-04
  3.6105546e-01
 -3.6541265e-01
 -9.2344135e-03
 -5.3173476e-01
 -2.1162127e-01
 -9.1369599e-01
 -1.3754822e-01
 -1.0332813e+00
 -1.2820876e+00
  5.1858410e-02
 -6.2211737e-02
  8.6680435e-02
  1.8279596e-01
  7.8594595e-02
 -5.3657396e-03
 -8.6970305e-01
 -5.5155302e-03
 -4.4874388e-01
 -1.0832849e-01
 -4.5392430e-01
  9.1487235e-01
  9.3912251e-02
  7.1979892e-01
 -7.4916035e-02
 -1.7505549e-01
  2.1516828e-01
  1.0285472e-03
 -5.7734501e-01
 -6.9347629e-03
 -8.1239939e-01
 -2.7244279e-02
 -9.0391636e-02
  1.5976278e-01
 -8.0648556e-02
  2.2144716e-02
  2.1634981e-02
 -7.3304653e-01
 -1.0075339e+00
  1.2797911e-01
  9.9191375e-02
  2.5194740e-01
 -3.2584765e+00
  2.0133544e-02
  4.4947840e-02
  6.5765649e-01
 -3.7627736e-01
 -1.5579797e-02
  8.2943064e-01
 -1.3132626e-01
  8.3281316e-02
  1.1830411e+00
  2.5464529e-01
 -1.0166811e-01
  4.3214223e-01
 -5.9793886e-02
 -4.0064040e-01
  1.7327189e-02
  7.6221311e-01
  3.5455567e-01
  1.6705954e-01
  1.8623078e-01
  8.8953122e-02
 -6.8750155e-01
  1.5917845e-01
 -1.7538409e-01
 -2.3710999e-01
 -3.5417822e-01
 -2.9110861e-01
  3.7045512e-01
  5.9517246e-01
  2.4536933e-01
  3.3506095e-01
 -2.8435627e-01
 -2.7544141e-01
  4.6033930e-02
 -7.1297169e-02
  4.7793734e-01
 -2.6585322e-02
  4.1223302e-01
 -4.9895119e-02
 -8.7693343e-03
  6.2959212e-01
  1.9069494e+00
 -2.6453018e-01
 -2.1687523e-02
 -5.1236480e-01
  7.0702237e-01
 -1.5047307e+00
 -7.3179883e-01
 -1.6016188e-01
  3.7008667e-01
  3.0763397e+00
 -1.4008349e-01
 -9.5443174e-02
  1.8707208e-01
  1.0790172e-01
 -2.3584692e-02
  3.0962801e-01
 -1.7454590e+00
 -8.9497089e-01
 -3.0558911e-01
 -2.8516963e-01
  1.6625682e-01
  6.4765729e-02
  6.7619950e-02
  8.3670151e-01
  8.3489060e-02
  7.2750054e-02
 -2.5064871e-01
 -7.0329875e-01
  1.1220466e-01
 -1.2302062e-01
  7.0446217e-01
 -2.0700720e-01
 -3.0811867e-01
  7.5797045e-01
  1.2702019e+00
  3.5790227e-02
  2.1975030e-01
 -4.1559082e-01
 -4.5840847e-01
 -3.7013795e-02
  3.4152755e-01
  2.7629572e-01
 -6.7377740e-01
 -9.0897217e-02
 -3.4039623e-01
 -2.9388469e-01
 -2.3126028e+00
  2.5110015e-01
  8.7186831e-01
  2.9083757e+00
  9.5222175e-02
  3.5792398e-01
 -7.8670961e-01
  4.9384215e-01
 -4.0251691e-02
  1.4167780e-01
 -7.9211079e-02
  1.0388135e-01
  2.6986149e-01
  4.6763977e-01
  4.2007026e-01
  3.7326083e-01
  2.1469843e-02
  8.5965440e-02
  2.0316312e-01
 -5.5533670e-02
 -3.5338309e-01
  1.4200382e-01
 -9.8585808e-01
  1.4613495e+00
  4.6256950e-01
 -6.0468931e-02
  2.8416714e-01
 -3.4232490e-02
  3.8074401e-01
 -1.6213158e-01
 -1.2359745e-01
 -2.9239994e-01
 -2.1950414e+00
 -8.9047916e-02
 -3.1724062e+00
  1.4145726e-01
  1.7647249e-01
 -7.8801531e-03
  1.0087229e-01
 -4.5758972e-01
  2.4464421e-01
 -1.7833909e-01
 -2.4124056e-01
  5.9542447e-02
  1.8803915e-01
 -1.0908418e-01
 -8.0780394e-02
  1.0233383e-01
 -2.6461846e-01
  4.7494411e-01
  1.3200443e+00
 -1.5373904e-02
  1.6071515e-01
 -7.2218990e-01
 -3.5959142e-01
 -1.2365369e+00
  2.0647827e-01
  1.3640395e-01
  1.6341777e+00
  6.0509205e-01
  2.4334404e-01
 -1.6737442e+00
  1.7834301e-01
  2.6786143e-01
 -1.6759329e-01
  3.7651360e-01
  5.6531157e-02
  8.1858352e-02
  5.8936216e-02
  5.2688932e-01
  8.4856123e-01
  5.6274552e-02
 -1.2285404e-02
 -5.2706838e-01
  5.9569794e-01
  4.2232819e-02
 -1.7008513e-01
  1.1457186e+00
 -1.3161634e-01
 -2.4720895e-01
 -1.6626757e-01
  1.3651504e-01
 -2.3042902e-01
  2.2701975e-02
 -5.7806015e-02
  2.5329554e-01
 -2.8069624e-01
 -3.4550047e-01
  6.1569344e-02
  1.3227150e+00
  1.1771819e-01
 -1.6453096e-01
  1.1640497e-01
 -1.3283695e-01
 -1.3354674e-01
 -7.6040000e-02
  4.5714584e-01
  7.0931041e-01
  1.3152608e-01
 -2.3492622e-01
 -5.7555601e-02
  3.0793026e-01
 -1.6007741e-01
  4.4264257e-02
  5.8550388e-01
  3.4341320e-01
  8.5559547e-01
 -2.8709635e-02
 -2.3764773e-01
 -2.6622450e-01
 -2.7838456e-02
  5.8113384e-01
  2.1032572e-01
  4.7213282e-02
  9.3531199e-02
  6.0511595e-01
 -2.4637024e-04
  8.2765564e-02
 -7.4550694e-01
  7.9622351e-02
 -1.6964604e-01
 -4.0896297e-02
  3.2409340e-01
 -4.7191259e-02
  7.8842342e-02
 -1.0597956e-01
 -2.3229681e-02
  7.1172123e-03
 -5.1267099e-01
 -5.4316435e-02
 -1.0373016e-01
 -5.1781848e-02
  1.4812462e-01
 -8.6148093e-03
 -1.2052707e-01
 -1.2222107e-01
 -9.3342640e-02
  1.4917627e-01
 -1.0481443e-01
  1.0309327e-01
  9.4858088e-02
 -3.0715778e-01
 -1.3250407e+00
  6.0857013e-02
  1.5697539e-01
 -1.1518239e-01
 -3.3978102e-01
  2.4040261e-01
 -3.0201229e-01
  1.6228150e-01
  7.5081152e-01
 -6.0507085e-02
  1.1682026e-02
 -3.4916723e-01
 -8.1627309e-02
  2.3806401e-02
 -9.3542710e-02
 -9.6768923e-02
 -2.1219258e-01
  2.6002935e-01
 -5.1315531e-02
 -4.3764494e-02
 -9.6749738e-02
  2.9356128e-01
  8.7584771e-02
 -5.4675758e-02
 -4.8432861e-02
  3.3499798e-01
 -1.3911004e-01
 -1.7266077e-01
  5.4254081e-02
  9.0401512e-01
 -1.4806618e-02
 -4.1444477e-01
 -2.2138946e-01
  6.6736370e-02
 -3.4147215e-01
  3.6462271e-01
  1.2226859e-01
  1.2298977e-01
 -2.6198438e-01
  2.3219552e-02
 -3.2880044e-01
  2.2739261e-01
  4.6526357e-03
  1.1938686e-01
 -4.8715878e-02
 -2.6997328e-01
 -3.3637413e-01
 -6.1092847e-03
  6.9029808e-01
 -2.0560901e-01
 -7.4635349e-02
  1.6524577e-01
  2.6775545e-02
 -2.4508404e-02
  6.4281636e-01
  9.8112565e-01
  2.3661216e-01
 -5.5924729e-03
  4.2301442e-02
 -3.7241524e-01
 -3.5574314e-01
  2.3767487e-03
  2.1809112e-01
  2.8706002e-01
 -3.9200160e-01
  1.5523852e-01
 -5.4270029e-01
 -2.4904942e-02
  2.0636608e-01
  1.7789090e+00
 -3.3186048e-02
  1.4763805e+00
  9.5084555e-02
  2.1043391e+00
  6.0514525e-02
 -1.3745002e-01
  3.6618624e-02
  3.3178106e-01
  6.3643175e-01
 -9.4266154e-02
  1.8127191e-01
  2.6111948e-01
 -8.6481966e-02
  1.8852468e-01
 -3.2730645e-01
  1.1752515e-01
 -2.1309085e-01
  1.4241439e+00
 -4.1094776e-03
 -1.2004004e+00
 -2.6025385e-01
 -6.8138912e-02
  6.8554737e-02
 -7.9186395e-02
  2.7426970e-01
 -4.6109238e-01
 -4.9896425e-01
  4.6024993e-02
 -4.6648178e-02
  1.8489486e-01
  5.4645926e-01
  1.5499875e-01
 -3.6744109e-01
 -1.7578365e-01
  4.6066174e-01
 -1.9607343e-01
 -1.7556651e-01
  6.1925137e-01
 -5.1287615e-01
 -6.8075186e-01
 -8.5841244e-01
 -2.9154676e-01
 -2.4625102e-01
  9.0857677e-02
 -4.5088446e-01
  3.6890563e-01
  3.2016894e-01
  1.3525368e-01
  1.9969328e-03
 -2.7673185e-01
 -4.6335933e-01
  1.1756494e-04
  3.4907737e-01
 -4.4888575e-02
 -5.7431221e-02
  1.2126960e+00
  4.0962434e-01
  2.3580584e-01
  4.3133097e-03
  8.1085306e-01
  3.1264567e-01
 -1.9913226e-01
 -6.3616383e-01
  6.9622630e-01
 -7.1418476e-01
  4.3680185e-01
  1.6993736e-01
 -1.0114177e-01
 -8.7249748e-02
  4.1430870e-01
 -3.5928339e-01
  5.0890172e-01
 -2.4852327e-01
  1.3628279e-01
 -1.0953919e+00
  1.8564790e-01
  1.3493948e-01
  1.5863895e-01
  1.6553629e-02
 -1.1286333e-01
  4.2145509e-01
 -3.3469924e-01
  3.5461792e-01
 -5.1139629e-01
  6.1357148e-02
  1.7544669e-01
  2.4025019e-01
 -3.0587009e-01
  1.7732884e-01
 -3.2971346e-01
 -7.4803106e-02
  3.6427006e-01
 -1.6567925e-01
 -5.1285487e-01
 -9.0155147e-02
 -3.4325874e-01
  1.2910320e-01
  3.4317207e-01
 -1.2858441e-01
 -9.2152685e-02
 -4.5961431e-01
 -2.4151808e-01
 -6.2095225e-01
 -5.4393607e-01
 -2.3539113e-02
  2.2065039e-01
 -3.8976383e-01
 -3.1691486e-01
  7.2985001e-02
 -1.0546147e-01
 -3.7413540e-01
  4.8622897e-01
  3.9767095e-01
  7.9326940e-01
  2.8489923e-01
 -4.6036938e-01
 -2.1799237e-01
  6.7800388e-02
  2.6912984e-01
 -1.5751041e-01
 -3.2449034e-01
 -6.5593064e-01
  2.2696695e-01
 -8.7763734e-02
 -1.3622001e-01
  3.2545187e-02
 -2.0532019e-01
  3.0065220e-02
  1.9454893e-01
 -7.4689522e-02
 -5.3790468e-01
 -2.1641313e-01
 -3.7729550e-02
  1.7238975e-01
 -9.7153878e-01
  2.9197286e-03
  8.6683691e-02
  2.0282608e-01
  9.6052364e-02
  6.6543899e-02
 -7.3933293e-04
 -7.7028918e-01
 -1.2091406e-01
 -3.9365917e-01
 -1.8372825e-01
  2.6113819e-02
 -5.0255615e-01
 -4.5450732e-02
  2.1197990e-01
 -2.5466123e-01
 -1.7175779e-01
  2.4397194e-01
  3.8185725e-01
  1.2961733e-01
  1.7685634e-01
  9.5396206e-02
  8.1639302e-01
 -2.1118118e-01
 -8.6418055e-02
 -3.6157677e-01
  3.3817989e-01
  1.6323881e-01
 -5.8105761e-01
 -5.9825844e-01
  3.4304488e-02
  2.3158969e-01
 -3.9672494e-01
 -1.5576656e-01
  6.0986358e-01
  1.1189059e-01
 -5.2040532e-02
 -3.1209845e-02
 -1.0135034e-01
 -6.9089487e-02
  9.6580297e-02
  1.1720669e-02
  3.9630088e-01
 -8.8449210e-02
  1.8067174e-01
 -5.3719372e-01
 -3.9874598e-01
  6.5350525e-02
  7.6568151e-01
 -3.5599607e-01
 -1.4971782e-01
  5.4766995e-01
 -3.7178244e-02
 -8.7173164e-02
 -5.7455111e-02
  5.4794413e-01
 -6.0871363e-01
 -2.6222795e-01
 -3.0495157e-02
 -8.0854565e-02
 -3.6914814e-01
 -4.3644649e-01
  1.2830527e-02
  3.6301237e-01
 -8.4862456e-02
 -5.9261703e-01
 -2.5596547e-01
  2.1853969e-01
 -8.8739201e-02
  1.5225036e-02
 -2.3225912e-01
  1.2274511e-01
 -3.6691174e-02
  1.5948325e-01
  5.3525978e-01
 -9.2369407e-02
 -3.8899660e-02
 -6.1989325e-01
 -8.4764741e-02
  4.8374251e-02
 -2.2870194e-02
  1.5345801e-02
  7.4542117e-01
  4.8451757e-01
  2.0232721e-01
 -5.1915143e-03
  2.6382056e-01
 -1.6755285e-02
  4.9754452e-02
  3.1616667e-01
  1.4576724e-01
  1.9820741e-01
  1.7967321e-01
  1.3569690e-01
 -9.8573536e-02
 -4.6836048e-01
  3.0348977e-01
  3.1025282e-01
  3.0009463e-01
 -3.9691515e-02
  2.6046836e-01
 -1.9016752e-01
 -5.3662110e-02
  8.7919116e-02
  7.3711060e-02
 -2.4647510e-01
 -6.1428167e-02
  4.9394080e-01
  8.6569154e-01
  1.5111074e-01
 -9.6463755e-02
 -3.1706471e-02
 -7.3427849e-02
 -3.9964441e-02
  2.9705930e-01
 -1.4231160e-01
 -5.7995800e-02
 -3.7551925e-02
 -8.7219226e-01
 -3.4316432e-01
 -3.9428226e-03
 -1.2964408e-01
 -4.0803918e-01
  1.8761601e+00
 -1.8147217e-01
 -5.6447184e-01
  3.2066859e-04
  1.6571796e-01
 -9.8469011e-02
 -2.8708291e-01
 -2.4939552e-03
 -6.2903941e-02
 -2.9848933e-01
  6.5845037e-01
 -5.6029278e-01
  1.5508941e-01
 -5.7693806e-02
 -1.4176686e+00
 -3.0790297e-02
 -3.3264384e-01
  1.5644760e-01
  1.1058213e+00
 -7.2985433e-02
  9.1580048e-02
 -2.2490969e-01
  1.9370998e-01
  3.7980709e-02
  4.9233265e-02
  2.1830118e-01
  4.3568069e-01
  1.5042607e-01
  1.9514152e-01
  3.3831000e-01
  2.0126930e-02
  6.3855964e-01
  2.6841745e-01
 -1.9403668e-01
  3.4000799e-01
  6.4814699e-01
 -3.3394364e-01
  5.9944805e-02
  9.9651188e-02
 -7.0531857e-01
  3.8247317e-01
 -1.4988703e-01
 -2.6680040e-01
 -2.5956234e-01
 -4.9236752e-02
 -2.8069016e-01
 -1.1525587e+00
 -1.0323082e+00
  4.8404507e-02
  2.6277769e-01
 -1.4532191e-01
 -4.4344723e-01
 -6.9010711e-01
 -8.6495787e-02
 -5.4382956e-01
 -1.2221369e-01
  2.1197534e-01
 -3.3510408e-01
 -6.2909096e-01
 -8.4154628e-02
  1.8466237e-01
  1.5699096e-02
 -3.8174286e-02
 -1.3922644e+00
 -1.0535850e-03
 -4.6658927e-01
 -1.0874190e+00
  2.4403638e-01
  1.0844071e+00
  5.7031137e-01
  6.9724816e-01
 -9.9641085e-01
 -5.1393926e-01
 -1.6794181e+00
  1.1480514e-01
  6.7282581e-01
  1.3777241e+00
  2.9673785e-01
 -1.6015254e+00
 -1.2117425e-01
 -2.4837430e+00
 -9.3555585e-02
  8.4152389e-01
  8.8492143e-01
 -1.7941560e-01
 -1.4229783e+00
  2.3747380e-01
 -2.1183157e+00
  3.9085680e-01
 -5.1037572e-02
  3.2841671e-01
  2.9119471e-01
 -1.2274251e+00
 -2.6414480e-02
 -8.0061179e-01
 -3.0703058e-02
 -1.2589577e-01
  5.4233772e-01
  9.0043850e-02
  7.7542323e-01
 -3.3317752e-02
 -3.5024244e-01
  2.3163739e-01
 -2.5758964e-01
 -1.5163949e-01
 -1.8903697e-01
 -9.9220134e-02
 -6.4614934e-01
 -3.9936343e-01
  2.6619893e-01
  2.0140448e-01
  7.5921303e-01
 -3.8777571e-02
 -2.1822852e-01
  1.3832876e-01
 -3.7298241e-01
  5.5788350e-01
 -2.0008487e-01
 -6.9069728e-02
 -3.7339640e-01
 -1.0623039e-01
 -8.1641279e-02
 -3.9217848e-01
  3.8524427e-02
 -4.1716579e-01
 -2.9643825e-01
 -2.8785959e-01
 -3.6553267e-01
 -1.3331288e-02
 -2.8959554e-02
  3.1986019e-01
 -2.4746318e-01
 -5.8004355e-01
  2.4259904e-01
 -1.4287959e-01
  1.0929238e-01
  2.9042572e-02
  5.3460604e-01
  1.9759613e-01
 -1.0578394e-01
  1.6954078e-01
 -2.5139272e-01
  2.2283694e-02
  3.9909837e-01
  1.9914139e-02
 -2.1254036e-01
  3.7449852e-01
  2.1942563e-01
 -3.1538725e-01
 -2.9941764e-01
 -8.7647028e-03
 -6.3650632e-01
 -5.9194893e-01
  3.2028645e-02
  1.2960388e-01
 -4.8006195e-01
 -3.8418368e-01
 -5.6121446e-02
 -1.6945301e-01
 -9.5899016e-02
 -5.0431285e-03
  5.6112606e-02
 -7.1621917e-02
 -1.9063964e-01
  1.4550605e-01
 -3.0838745e-02
 -8.5733207e-03
  4.1374657e-01
  9.3148768e-02
  2.2400476e-01
 -2.2109613e+00
  7.6516670e-01
 -1.0571637e+00
  6.1031591e-02
 -3.4850621e-01
 -7.5792807e-01
 -6.1161530e-01
  1.7420529e-01
  3.7964728e-01
 -7.2003347e-01
  3.9593212e-02
  6.1255342e-01
  3.7967987e-02
  2.5796888e-02
 -2.9747317e-02
  1.1992487e-01
  7.8355193e-02
  3.6457501e-02
 -1.5977055e-01
  1.1702094e-01
  2.9862237e-01
 -9.8656388e-03
 -4.1641504e-01
 -7.6620705e-02
 -1.5289292e-01
  2.8424233e-01
  7.7272199e-02
 -4.3084988e-01
  3.8793293e-01
  5.9658002e-02
 -3.3337134e-01
  7.6632732e-01
  3.8652342e-02
 -1.3544899e-01
 -8.2272425e-02
 -1.9321091e+00
  7.2737709e-03
 -4.6900797e-01
  6.6938007e-01
  4.0232259e-01
 -1.6822094e-01
  9.6698888e-02
  1.0541062e+00
 -1.1223898e-01
  1.2731639e-01
  2.2721255e-02
 -1.3756731e-01
  9.4523095e-02
 -4.1637042e-01
  8.6488821e-02
  3.9122230e-01
  1.8478703e-01
 -3.1401601e-01
 -2.5155345e-01
  1.4734919e-01
  5.6677917e-03
  3.6178482e-01
  4.3077741e-02
  2.9271871e-01
  2.2019155e-01
 -1.3661277e-01
  7.3821820e-02
 -3.2951809e-02
 -2.1213488e-01
 -8.5058324e-02
 -5.6976253e-01
 -4.7151494e-01
 -2.9986365e-02
  3.9353617e-02
  1.7900071e-01
  3.0384797e-01
  5.8341742e-01
  1.0848632e-02
 -1.9514211e-01
  1.7496644e-01
  1.1920285e-01
  8.8258781e-02
  4.0705505e-01
 -5.3867471e-01
  2.4722703e-01
  6.4839286e-01
 -3.8051808e-01
  1.8498760e-01
  5.7429099e-01
 -4.0477550e-01
 -1.0306299e-01
 -1.0980843e-01
 -1.0940754e-01
 -7.9943866e-02
  1.5070190e-02
 -1.6088076e-01
 -4.0142500e-01
  4.9918684e-01
  5.4722767e-02
 -4.1830525e-02
  2.3706973e-02
  2.5557318e-01
 -3.5155037e-01
  1.2423635e-02
  2.7755600e-01
  2.3945987e-01
  3.8190138e-02
 -1.5444513e-01
  3.7207577e-02
  4.9881846e-01
  2.2937326e-02
  9.4636917e-02
  3.8181338e-01
  5.0452125e-01
 -1.3694860e-01
  9.8784137e-01
 -4.1277850e-01
  2.4890995e-01
  7.6427990e-01
  3.0522933e+00
  3.1012556e-01
  5.6821007e-01
 -2.1909812e-02
  1.1022524e+00
  8.4199578e-01
 -8.7352246e-02
  8.7275308e-01
 -1.0670912e+00
 -1.4382765e-02
  8.8210446e-01
  2.8555071e-01
  1.0667715e+00
  1.5758252e-01
 -4.0311713e+00
 -3.3053735e-01
  2.3492167e+00
  1.3986441e-01
 -7.8747958e-02
  3.9493848e-02
 -2.4956143e-01
 -6.4785010e-01
 -2.8477445e-01
  2.0088547e-01
  1.2436782e+00
 -2.2674212e+00
 -1.4876469e+00
 -2.0829406e-01
 -1.2569669e+00
  1.8712226e-02
  1.0450609e-01
 -2.6860943e-01
 -2.7083507e-01
 -3.0123588e-01
  1.3680668e-03
 -7.2882485e-01
 -5.2403742e-01
 -4.1736424e-01
 -2.7691385e-01
  8.7549740e-01
  2.2346799e-01
  3.0250534e-01
 -2.1249455e-01
 -2.1505599e-01
  5.6924182e-01
 -6.9266543e-02
  5.5424988e-02
 -4.6871638e-01
  1.1413058e-02
 -2.4534467e-01
 -5.0310075e-02
  4.0038148e-01
  1.1080731e+00
 -1.0768912e-02
  5.1553786e-02
 -3.0779299e-01
  2.4687490e+00
  1.4380440e-02
 -2.5020069e-01
  3.1907447e-02
  1.1749245e+00
  1.8558846e-01
  3.5220973e-02
 -4.7436994e-02
 -3.0716953e-01
 -3.3131510e-01
  5.0158247e-02
  2.8297340e-02
 -2.0377271e-01
 -1.3132943e+00
 -5.4412022e-02
  1.6558933e-01
 -9.2299962e-01
  8.7891705e-02
 -4.1299742e-01
 -6.6142380e-02
  7.7260244e-01
 -3.2313410e-02
  1.1721941e+00
  1.6161389e+00
  9.5874317e-02
  4.7063071e-01
  5.7903010e-01
  2.1419489e+00
 -1.3719242e+00
  2.2814705e+00
  1.2030555e+00
 -6.3860022e-02
 -8.8222653e-02
  3.8016045e-01
 -6.2815785e-02
  2.5668533e+00
  7.3648912e-01
 -3.4770951e+00
 -6.1535221e-01
  3.1324224e+00
  9.5108919e-02
 -1.9808531e+00
  2.6564357e+00
  1.8843565e+00
 -1.7284464e+00
  1.4220314e-01
 -4.8361814e-01
  1.1828010e+00
  6.9205385e-01
  1.3059220e+00
  8.3477074e-01
  1.9219728e-01
 -3.8847182e-02
 -9.1940600e-01
 -1.0752349e-02
  5.7734197e-01
 -2.9344910e-01
 -3.0844003e-01
  1.0230465e+00
  5.6054050e-01
 -1.1143771e-01
  8.2419425e-02
  7.6717585e-03
 -3.6521193e-02
  1.2272630e+00
  2.1326244e-01
 -1.1189092e-01
 -5.7259393e-01
  4.1808527e-02
  1.3204847e-02
  4.4344926e-01
  1.4760343e+00
 -5.3131437e-01
  2.0212933e-01
 -5.2886224e-01
 -3.4527406e-01
 -1.0197217e-01
  1.0156068e+00
 -4.1478001e-02
  6.6929168e-01
 -2.7676082e-01
 -1.3734586e+00
  1.7580445e-01
  1.9987012e-01
  1.6377215e+00
  1.5068035e-02
  6.5582806e-01
 -2.5915766e-01
  7.7123567e-02
  5.2295249e-02
  2.0568487e-01
 -1.7493312e-01
 -1.1583105e+00
 -8.2530385e-01
 -6.3279206e-01
  1.6228995e-01
  7.0093483e-02
 -4.9373791e-01
  1.1539750e+00
  7.7840948e-01
  8.2904112e-01
  2.5956631e-01
 -2.0375857e+00
  3.6828142e-02
  1.3428599e+00
 -1.5858144e-01
 -1.7011528e+00
 -5.7655913e-01
  3.3703011e-01
  1.4268726e+00
 -2.0213938e-01
 -6.6444093e-01
  6.7481726e-01
  7.7312484e-02
  5.4209948e-01
  1.9386743e-01
 -4.0675435e-02
  1.0425846e-01
  8.0919310e-02
  2.8083807e-01
  1.8807793e+00
  3.2786149e-01
  3.7428626e-01
 -7.5189686e-01
  5.4425567e-01
  3.2887090e-02
  5.9450645e-02
 -8.1004250e-01
 -9.1435325e-01
  4.1079023e-01
 -6.5476847e-01
 -1.1813094e-01
 -2.4738015e-01
  1.0764706e-01
 -2.4702258e-01
  1.6355813e-02
 -5.8700256e-02
 -5.0904602e-02
  8.4528625e-01
 -1.5371768e-02
  2.3734321e-01
  2.0005257e-01
 -4.5363611e-01
  1.3511433e-01
  5.6268018e-01
  1.1259569e-01
  5.0099391e-01
  3.5541353e-01
  4.7339606e-01
  1.5246680e-02
  5.8083445e-01
  4.8749387e-01
  5.0784810e-03
  4.8750989e-02
 -2.1715216e-01
  9.1868114e-01
 -9.0647943e-02
  7.4277855e-03
  8.2969463e-01
  6.1144960e-01
  7.7893168e-01
 -3.4862235e-02
  5.6638185e-02
  4.8755658e-01
 -4.8395038e-01
 -5.7386392e-01
  1.7021236e-01
  3.2849020e-01
  1.0920180e-01
 -1.6777754e-01
 -1.3793381e-03
 -2.9467949e-01
 -1.8087586e+00
 -4.1994742e-01
  4.6880442e-01
  1.1436305e-01
 -5.9137136e-01
  2.3407923e-01
  8.6288142e-01
 -3.9789698e-01
 -1.3742819e-01
  2.5343189e-01
  1.0500540e-01
 -4.2021546e-01
 -2.0896001e-01
  1.8423656e-01
  1.3877779e-01
  8.1655264e-02
  9.1732472e-02
  1.2372701e-01
 -8.9115664e-02
 -5.7936150e-01
 -9.6844397e-02
 -1.1478243e+00
 -4.5004782e-01
 -2.3846890e-01
 -1.3644896e-02
  3.5250527e-01
 -1.0751637e-01
  1.0135326e-01
  1.5436390e-01
 -7.9711825e-02
  2.7598470e-01
  2.5135785e-01
 -5.7842058e-01
  4.8135051e-01
  1.3575613e-01
 -7.4421249e-02
  2.4542676e-01
  2.4811412e-01
  1.8560018e-01
 -4.4247755e-01
 -2.7828689e-03
 -1.5756989e-01
 -2.3557213e-01
 -5.0722305e-03
 -5.0740492e-01
  4.5817509e-01
 -4.0079290e-01
 -4.4481304e-02
  1.0147350e-01
  8.9572512e-02
  4.0396181e-01
  3.3173379e-01
 -8.1565179e-02
  4.1377798e-01
  1.3310795e-01
  3.1060225e-01
 -1.2400724e-01
  1.1897350e-01
 -2.5960734e-01
  3.3318380e-01
  1.5527500e-01
 -2.4544762e-01
  1.1847089e-01
 -2.9255033e-01
  1.3482821e-01
  2.1137733e-02
 -5.9864122e-02
 -7.2909719e-03
  2.2179432e-02
  4.1824582e-01
  1.3577305e-02
  1.9278224e-01
  8.9833746e-03
 -2.3612817e-01
  1.2152698e-01
 -2.7669784e-01
 -2.1711549e-02
 -5.3011459e-01
 -5.2648280e-02
 -1.5596402e+00
  8.9538252e-01
  1.6255027e+00
 -1.4327225e-01
 -2.0733578e+00
 -1.9345957e-01
  1.3569651e+00
 -8.0960803e-03
  3.1492579e-01
  2.3208258e-01
  2.8361073e-01
  2.0385067e-01
 -7.8702025e-02
 -2.0943452e-02
  1.8069540e-01
  8.4520973e-02
 -5.2042681e-01
  1.8738452e-01
 -1.2351407e-01
  1.0548866e-01
  3.3995420e-01
  1.9537937e-02
 -1.6098486e+00
  5.8472669e-01
 -4.8607230e-02
  2.1102189e-01
  1.4854877e-01
  1.4341636e-01
  2.0068048e-01
  5.4343011e-02
  1.5721745e+00
 -1.5730911e-01
 -9.1966218e-01
  6.7914218e-02
  4.1135171e-01
  5.5376649e-01
  2.0183787e-01
  1.2633321e+00
 -3.3250731e-01
  3.1734079e-01
  7.2264653e-01
 -2.6130445e-02
 -2.5189123e-01
 -1.7413662e-01
 -2.8412229e-01
 -4.3544677e-04
  2.9215166e-02
 -1.4331011e-01
  3.7135997e-01
  5.3345758e-01
 -5.9471823e-02
  5.4689527e-01
  3.2653672e-01
  3.1211928e-01
  7.6092340e-02
  6.8230510e-02
  4.6845952e-01
  1.0865374e-01
 -4.1476509e-01
 -7.5014901e-01
 -8.1993473e-01
  1.1384008e+00
  8.8388972e-02
 -3.4413144e-01
 -6.6169582e-02
 -2.6538619e-01
  7.4034262e-01
 -6.3345395e-02
 -2.0211856e-01
  3.2881722e-02
 -5.5959810e-02
  1.9096832e-01
 -3.9010239e-01
 -2.8821379e-01
 -7.2456747e-02
  1.3134244e-01
 -2.7876613e-01
  5.2089506e-01
  2.0217912e-01
 -1.0538374e+00
 -1.2358152e-01
  6.1276726e-02
  2.1423221e-01
 -2.4024409e-01
 -1.2287070e-01
  8.9386326e-01
 -3.9193368e-01
 -5.2367860e-01
 -3.6436271e-02
 -6.9694287e-01
  1.2888119e-01
  3.3286657e-02
 -2.7184856e-01
  3.6856139e-01
 -9.1080830e-02
  1.0415566e-01
  1.9348456e-01
 -6.9920287e-02
  7.9062872e-02
 -1.1102041e+00
 -3.0101070e-01
  1.8016577e-01
  1.4568590e-01
  2.9574189e-02
 -1.0025999e-01
  6.5795649e-03
  6.6239244e-01
  2.9609933e-02
 -4.9468955e-01
 -6.2448132e-01
  1.7714646e-01
  1.0522106e-02
  8.2979403e-02
  2.1317093e-01
 -7.5723022e-02
 -5.2713029e-02
 -2.9208368e-01
 -1.5783508e+00
 -1.3098787e+00
  1.5879696e-02
  1.2002234e-01
  4.7916457e-01
  2.7162838e-01
  2.3971751e-01
  1.1537749e-01
 -1.2076198e-01
 -1.4568563e-01
  8.6581297e-02
  8.3195865e-03
 -2.6904619e-01
 -6.4017750e-02
 -1.6593449e-01
 -1.4686446e-01
  4.3379188e-02
 -2.2759837e-01
  1.0794281e-01
 -5.1648919e-02
  1.7857701e-01
  7.2836950e-02
 -3.7149289e-01
 -3.1018814e-01
 -2.0712124e-02
 -4.7367686e-01
 -5.7369944e-02
 -2.5436211e-01
  3.6205643e-01
 -3.1650954e-01
 -3.1718928e-01
  1.8288333e-03
 -4.5858628e-01
 -6.9877096e-02
 -3.0775093e-02
  3.9588425e-02
  5.7138648e-02
 -5.9717100e-02
 -3.8754168e-01
  1.8109579e-02
 -3.3734632e-01
  1.6035825e-02
 -5.5360612e-02
  2.0552021e-02
 -4.9774444e-01
 -3.9367205e-01
 -3.4194374e-01
 -8.3850756e-02
 -1.0895858e-02
  1.3447259e-01
 -8.6302117e-02
 -5.4413686e-03
 -5.1215047e-01
 -1.4162780e-01
  2.1871535e-01
 -1.3690121e-01
 -3.4011129e-01
 -1.0072924e-01
 -3.9152823e-02
  1.2784742e-01
 -3.2204288e-01
 -6.6176814e-01
 -3.9362240e-01
  3.4863973e-01
 -1.5595540e-01
 -2.2045843e-01
 -5.0052002e-02
 -1.8296206e-01
 -1.5562190e-01
  5.9606612e-01
  4.7425699e-01
  3.8115829e-01
  9.0890512e-02
  2.3319787e-01
 -6.7280549e-01
  3.8334034e-02
  1.3397685e-01
  2.9886654e-01
 -4.3240439e-02
 -1.9591492e-02
 -7.4253976e-02
  9.5843047e-02
  5.1657550e-02
  6.0817897e-02
  6.6173381e-01
 -6.0008091e-01
 -1.0172132e-01
 -1.0807123e+00
  1.4672378e-01
  2.0301233e-01
 -8.3866216e-02
  3.3539882e-01
 -2.5705478e-01
  7.2552991e-01
 -1.7641968e-01
 -1.9146990e-02
 -3.6177754e-02
 -2.7177191e-01
  1.2109521e-01
  4.7949100e-01
  2.0362370e-01
 -5.2969139e-02
  9.7049423e-02
  2.6209560e-01
 -3.6217546e-01
  1.0678707e-02
 -1.5398465e-01
 -1.0774943e-01
 -7.3960796e-02
 -5.4336911e-01
  8.0184999e-04
  4.0465724e-02
 -5.3438503e-02
  4.6777133e-02
 -3.1751716e-01
 -9.3159162e-02
 -1.1302756e-01
  1.3979347e-01
  4.6034772e-02
  6.4243579e-01
 -9.4372369e-02
  2.0340706e-01
  1.5585607e-02
  5.0091907e-02
  7.2768402e-01
 -3.2696765e-02
 -8.7460411e-01
  3.7599909e-01
 -4.0585837e-01
 -2.1764776e-01
  9.3662357e-01
  1.5025902e-02
  5.9426829e-02
  2.1514601e-01
 -5.0258011e-01
  8.1521116e-02
 -1.5651120e-01
 -1.9577484e-01
 -1.1948336e-01
 -3.8219678e-01
  3.3543217e-01
  1.3974603e-01
  2.1912862e-01
 -3.2731238e-01
 -8.7235123e-03
  7.4529335e-02
  7.1059838e-02
 -5.4632628e-01
  9.3332432e-02
 -2.2341979e+00
  2.0540358e-01
 -1.1410758e-01
 -2.3793910e-01
  6.6724554e-02
 -9.0377424e-03
  1.2361739e-01
  8.8750735e-02
  2.7854890e-01
 -2.6417640e-01
  2.4023227e-02
 -1.8101916e-01
  3.2243442e-02
 -2.8972927e-01
  4.7042340e-01
  8.5195769e-03
 -4.8825499e-01
  4.9647670e-03
 -1.1311910e-02
  1.7964779e-01
  1.8924132e-01
  1.1858761e-01
  9.2079662e-02
 -3.9219534e-01
 -2.2813921e-01
 -1.1124452e-01
  3.2205138e-02
  4.0178634e-02
  5.5007368e-01
 -5.4421997e-01
  4.4934358e-02
  9.8105049e-01
 -5.8502946e-02
 -4.4983965e-01
  1.6588133e-02
 -7.6374871e-01
  3.3393291e-01
  5.1609820e-01
 -6.1584890e-02
  1.4485642e-01
 -3.2942069e-01
  3.0887440e-01
 -4.2669824e-01
 -6.1339621e-02
  2.9506397e-01
  1.0614766e+00
 -1.9746045e-02
 -2.6896539e-01
  4.0520626e-01
  1.2022128e+00
 -6.8584502e-02
 -7.8276120e-02
 -6.5618746e-02
 -3.4250030e-01
 -1.3186396e-02
 -3.0453956e-01
 -2.7785188e-01
 -2.1312989e-01
  2.8577864e-01
 -5.3637199e-02
  1.6208857e-02
  9.2030592e-02
  1.6558407e-01
  2.5763318e-01
  7.0518024e-02
 -1.7850520e-01
 -1.7407393e-02
  2.9854250e-01
  3.5742569e-01
  5.4641422e-02
  1.2849495e-01
 -6.0157072e-02
  1.4559682e-01
 -3.6955047e-01
  1.3920684e-01
  6.4027995e-01
  6.1969575e-02
 -1.3328232e-01
  3.1427673e-01
 -8.8820517e-02
 -1.1110830e-01
 -5.7446891e-01
 -1.3823373e+00
  1.1306078e-01
 -9.2466902e-03
 -1.3474272e+00
 -8.4948681e-02
  4.5905861e-01
 -6.0238227e-02
 -4.0689617e-01
  3.4916911e-01
  5.8021277e-01
  5.1510561e-01
 -2.3715161e-01
  1.8719894e-01
 -2.4264963e-01
  5.5014163e-01
  6.3764304e-02
  1.6866337e-01
  9.1700947e-01
 -2.5965750e-01
  4.0602583e-01
 -6.8820804e-01
  3.1956464e-02
 -2.7080062e-01
  2.8158763e-02
  8.7499082e-02
  2.5771570e-01
 -2.4537723e+00
  1.4568283e-02
 -2.7150673e-01
 -1.2685583e-02
  1.2070499e-01
  8.8845485e-01
 -1.4479250e-01
  1.0584670e-01
  1.8949838e+00
 -5.1225979e-02
  8.4075682e-02
 -9.2307188e-02
  5.9986096e-02
 -3.2490420e-01
 -1.9170530e-01
 -2.7920933e-02
 -3.4856316e-02
 -9.8627694e-02
  6.2864202e-01
 -4.7362399e-01
 -7.9990721e-01
 -1.6158567e-01
 -3.1307963e-01
  8.7995254e-02
 -6.8338263e-01
 -2.4548541e-01
 -3.8979471e-01
  1.9086872e-01
  3.8351142e-01
 -2.7807137e-01
 -1.7209538e+00
  1.0895350e+00
  1.6782241e-01
  2.4590738e-01
  1.5387973e+00
 -1.6076167e-01
 -4.3562400e-01
 -5.9526163e-01
  1.0054563e+00
 -3.5921717e-01
 -9.1687763e-01
 -6.4111687e-02
  2.4558803e-01
 -2.6716670e-01
 -4.8752525e-01
  3.2271251e-01
 -1.2961798e+00
  1.3366602e-01
  1.4528535e-02
 -4.9417749e-01
 -4.9932578e-01
 -8.4595162e-01
  7.1350098e-01
  7.9093325e-01
 -2.9224396e-01
 -2.7303728e-01
 -2.5526538e-01
  7.7288628e-02
  3.3063787e-01
 -1.3234496e-02
 -2.9323223e-01
 -1.6182504e+00
 -6.4750969e-01
  9.8432797e-01
 -1.4271836e+00
  2.4762068e+00
  1.0375892e-01
  7.2205879e-02
  2.7995917e-01
  3.3620629e-01
 -2.0818379e+00
 -1.1582023e+00
  1.0040544e+00
 -4.6160820e-01
 -4.1195847e-02
 -2.8759964e-02
  1.6115560e-01
  7.2281474e-01
  5.8112599e-02
  1.1347657e+00
 -1.1317396e-01
  8.6603284e-01
  1.4688978e-01
 -5.2192360e-01
 -1.8299915e+00
 -2.0625034e-01
  1.8177969e+00
 -2.1787399e-01
  2.0007119e-02
 -1.9554283e-01
 -2.7402735e-01
 -1.3236798e+00
  5.0551686e-02
  5.9621853e-01
  1.3860777e-01
 -1.7324188e-01
 -1.9213912e-01
 -3.9795175e-01
 -2.2766914e-02
 -4.7315512e-02
  1.1270973e-02
  1.1206944e-02
 -4.8793426e-01
 -1.4903836e-01
  2.4790631e-01
 -1.0520600e-01
  9.9887633e-01
  2.6226729e-02
  2.5142653e-02
 -1.0911869e-02
 -7.5568652e-01
  9.7417220e-02
  6.2237624e-02
  1.2879062e-01
 -2.2569422e-02
 -5.5101912e-02
 -2.1800874e-01
  1.0744355e-02
 -7.4543498e-02
 -3.0802211e-01
 -4.8540737e-02
  3.9854088e-01
 -9.5596887e-02
  8.3907202e-02
 -3.3198559e-01
  2.8662670e-01
  1.2600136e-01
  7.3818505e-02
  3.4368610e-01
 -1.1447060e-02
 -1.5479991e-01
  1.1670254e+00
  5.7935369e-01
 -1.7934667e-01
  1.6489793e-01
 -1.7503938e-01
  1.5943781e-01
 -2.2433169e-01
 -2.3902841e-01
 -1.5654707e-01
  2.0750120e-01
  2.5276768e-01
  4.1056931e-02
  1.7518148e-01
 -2.3777399e+00
  1.7478799e-02
 -1.7674388e-02
 -5.8143497e-01
 -1.6376844e-01
 -1.8641090e-01
  2.7004254e-01
 -2.2617894e-01
  1.3237000e+00
 -2.6948023e-01
 -5.3453922e-01
 -1.2622480e-01
 -8.3490640e-02
 -2.1179570e-01
 -2.3492356e-01
 -1.6348988e-01
 -2.4673168e-01
 -1.0820250e-02
  4.5303634e-01
 -3.4576753e-01
  1.3275470e-01
 -1.3751181e+00
  5.0385994e-01
  8.1729768e-03
 -1.0647411e+00
  1.2210295e+00
  2.2109641e-01
  3.8231057e-01
 -1.4179137e+00
 -2.3009413e-01
  3.8479835e-01
 -3.5973758e-01
  5.8307827e-01
  4.1300395e-01
  2.1740197e-01
  5.1085597e-01
 -9.4360185e-01
 -1.8483701e-01
 -4.9141562e-01
 -1.1215397e-02
  4.6633479e-01
 -2.5309399e-02
 -4.0453829e-02
 -1.0083430e-01
  4.9205324e-01
 -2.9062673e-01
 -6.4422798e-01
  7.0461500e-01
 -5.7057519e-02
 -4.5521158e-01
 -2.2014637e-02
  4.0656424e-01
 -3.6611870e-01
 -1.1282208e+00
 -9.2205867e-02
  1.1071533e+00
 -4.4746122e-01
 -4.8816077e-02
  1.0633639e-02
  1.2942530e-01
  2.4262441e-03
 -1.1459168e-01
  1.1511481e-01
  5.8871531e-01
  9.0522289e-02
  5.3977311e-01
 -5.6643123e-03
 -1.1856303e-01
  3.4714043e-01
 -4.4885176e-01
 -3.5175323e-01
  7.9155236e-02
 -1.4347453e+00
  1.7520708e-01
 -2.2000133e-01
  4.2628711e-01
  7.3353060e-02
  2.1620916e-01
 -2.8444815e-01
  1.2428917e-01
 -5.2820790e-01
 -7.8271642e-02
 -6.3462836e-01
  3.8260880e-01
 -7.4630335e-02
  4.7715199e-01
 -1.7942585e-02
 -3.5245758e-01
  3.3236399e-01
  4.0235633e-01
  6.5283924e-01
 -3.1166142e-01
  1.0631579e-01
  1.4611985e-01
  1.8587901e-01
  8.9750029e-02
  7.7682036e-01
 -7.5283796e-01
  2.3069991e-01
  8.4690839e-02
 -2.6358199e-01
 -1.4875530e-01
 -1.0973199e-02
 -1.5070944e-01
 -9.2811268e-03
  2.1318108e-01
  3.2712674e-01
 -1.2909128e-01
  1.7512487e-01
 -6.1864406e-02
  7.4582654e-03
 -1.9202194e-01
  3.2464173e-01
 -7.5685829e-01
 -5.5606175e-02
  3.2743800e-01
 -4.6310687e-01
  5.1891911e-01
  7.3253012e-01
  6.4013779e-02
  6.8536319e-02
  3.1583793e-03
 -5.1554650e-01
  1.0262094e-01
 -1.5481533e-01
 -2.6698327e-01
  2.3275744e-02
 -1.4299955e-02
 -6.0217839e-02
 -1.9330512e-01
 -1.2116595e-01
 -1.9948381e-01
  1.5164459e-01
 -1.0523297e-01
  1.9389127e-01
  6.0885858e-02
 -1.2579879e-01
  6.0729694e-02
 -7.8778780e-01
 -3.1787451e-02
  4.5897698e-01
  4.5949590e-01
 -3.7545770e-01
 -1.1197224e+00
 -2.2493280e-01
  1.3341343e-01
 -9.1975766e-01
  2.9669416e-01
  2.4713136e-01
  1.0763073e-01
  5.2638553e-02
 -5.2147263e-01
  1.5735859e-01
 -3.0099648e-01
  7.1840115e-02
  1.1185715e-01
  4.0743374e-03
  8.2580805e-01
  1.8017305e-01
  2.0253362e-01
  2.1963607e-01
 -1.7844807e-01
  3.1406645e-02
  5.1998323e-01
 -1.2168691e-01
  3.6890049e-02
  2.0548409e-01
  2.0014113e-01
  4.5682628e-02
 -1.3087085e-01
  1.4176434e-01
  3.4242678e-01
 -3.6474669e-01
 -1.4127396e-01
  1.1810300e-01
 -1.3186045e-02
  4.9230835e-01
 -3.0657001e-02
  5.8641102e-02
 -5.1213169e-01
  6.9225317e-01
  3.5931769e-01
 -2.7031586e-01
  3.0538103e-01
  3.6540449e-01
 -1.1811624e-01
 -1.0933773e-01
  2.3741600e-01
  1.3116051e-01
 -2.2010423e-01
  2.9821685e-01
 -3.1475741e-01
 -1.6729115e-01
 -1.9303977e-02
 -3.6015090e-01
 -1.8607506e-01
 -2.2224630e-01
 -3.1777263e-02
  1.7646646e+00
  3.7502933e-01
  2.6439459e+00
  2.7435094e-01
  2.8880283e-01
 -3.0225962e-01
 -9.2071950e-02
 -2.6536423e-01
  1.4819928e-01
 -7.9803191e-02
 -1.9073984e-01
  1.5097894e-02
  3.7071699e-01
  2.4368341e-01
 -1.3554281e-01
  2.0911758e-01
  5.0283451e-02
  1.9578610e-02
  6.7407355e-02
 -7.3010229e-02
 -3.0936623e-01
  1.8892601e-01
 -6.9294810e-01
  1.1291088e-01
  2.1308435e-01
  2.6987600e-01
  4.3862328e-02
 -9.8307945e-02
  1.0595310e-01
 -3.9568681e-02
 -4.4063398e-01
  2.5074175e-02
  1.2369909e+00
 -3.5041928e-01
  4.4039497e-01
  1.2186179e-01
 -3.7391216e-02
  5.1435862e-02
 -6.4912945e-02
  2.9959464e-01
 -1.4174441e-01
 -2.5939393e-01
 -2.9439276e-01
  7.7569447e-02
 -1.2996659e-01
 -2.3751123e-01
 -1.6512017e-01
  5.6879169e-01
 -4.9622881e-01
  5.0314492e-01
 -4.3186480e-01
  1.7712253e-01
 -3.4391195e-02
 -2.6554036e-01
 -1.7313448e-01
 -5.6172127e-01
 -9.7152509e-02
  2.6105919e-01
 -8.6468422e-01
 -2.6152117e-02
  4.9937654e-02
  7.0530009e-01
 -5.7757455e-01
  8.0459133e-02
 -3.9351147e-01
  1.2029346e-01
  1.0819214e-01
 -1.5218970e-01
  1.2503488e-01
  4.2721625e-02
 -7.8602731e-01
 -2.2859228e-01
 -4.7110552e-01
 -8.3427072e-02
 -3.2219000e-02
  3.2721901e-01
 -5.2510399e-01
  1.7945728e+00
 -2.4761343e-01
 -2.4865890e-01
  3.3745325e-01
  1.8701879e+00
 -6.7045130e-02
  3.9883863e-02
 -7.7055287e-01
 -3.6117619e-01
  2.2883315e-02
  4.0231410e-01
 -4.4053778e-02
 -3.0007073e-01
 -9.3039237e-02
  5.3542596e-01
  8.6995274e-02
 -7.3323697e-03
 -5.9320737e-02
  4.4130452e-02
  2.3923680e-02
 -2.6963794e-01
 -1.1486482e-02
 -5.4544877e-02
 -3.1687948e-01
 -2.6293007e-01
 -3.4417310e-01
  4.5156080e-01
  1.2113370e-01
  9.3966741e-03
 -6.3527375e-01
  3.2484964e-01
 -5.7324380e-01
  9.9898368e-02
 -3.4532881e-01
 -7.8930932e-01
 -7.1109124e-02
 -2.5127256e+00
 -8.8638656e-02
 -6.5355464e-03
  3.3417165e-01
  1.9791111e-01
  1.6846758e-01
  4.7691952e-02
  1.3362957e+00
 -7.4570760e-02
  2.6552130e-02
 -1.1448638e-01
 -5.5862033e-01
  1.5976994e-01
 -9.4786572e-01
  1.0826190e+00
 -6.6629636e-01
 -9.4642371e-02
  2.4520119e-01
  1.5968782e-01
 -2.8068414e-01
  2.6942907e-02
 -6.2311966e-02
 -7.3783003e-02
 -3.0311644e-01
 -2.5261167e-02
  2.7926978e-01
 -1.7307013e-01
  2.7876002e-01
 -7.5040203e-01
  2.7143481e-01
  1.2580064e-01
 -2.9797235e-01
 -3.6382598e-03
 -2.4241798e-01
 -2.2663178e-01
 -1.0869887e-01
  1.5151321e+00
  3.0437961e-01
  1.6079669e-01
  1.1298682e-01
  1.8453112e-01
  3.8556132e-01
 -1.1785338e-01
 -5.3445357e-01
  2.7245599e-01
 -9.8564714e-02
 -4.7953624e-02
  5.1398035e-02
  1.8576069e-01
  4.1827662e-03
 -6.7022234e-02
  2.2995327e-02
  2.1743497e-03
 -3.9803036e-02
  1.9232203e-01
 -9.6713044e-02
  1.8022081e-01
 -9.5924005e-02
  2.4046275e-01
 -1.9838648e-01
  2.5302613e-01
  1.7213856e-01
 -5.1675296e-01
  2.0972762e-01
  9.2768287e-03
 -3.6145907e-03
  3.0672425e-01
 -1.7410421e-01
  6.9793507e-02
  5.0996356e-02
 -1.5856554e-01
 -6.4792089e-02
 -2.3981375e-01
 -5.2255934e-01
  4.3464991e-01
  1.7889157e-01
  3.3516377e-02
  1.0689171e-01
 -4.0386189e-02
  5.2620947e-02
  1.0133204e+00
  1.0518155e+00
  6.2017504e-02
  1.2022193e-01
 -2.1182108e-01
  1.1100852e-01
  1.9355758e-01
  3.0911246e-01
  4.4560394e-01
 -4.8112407e-01
 -1.4155479e-01
  6.3850276e-02
  2.0959823e-01
  3.8637608e-01
  2.9216689e-01
 -1.3879541e-01
 -1.4621811e-01
  2.0346193e-01
 -1.7775817e-01
  8.4267056e-01
  5.1478988e-01
  1.5179117e-01
 -1.8841531e-02
 -3.0462301e-01
  1.3880298e-01
 -2.3378471e-01
  1.2403928e+00
 -1.5650265e-01
 -2.3890066e-01
  5.1580757e-01
 -2.6207358e-01
 -1.7544709e-02
  7.0334330e-02
  2.1404195e+00
  9.6562160e-03
 -9.1289818e-02
 -1.8164459e-01
  1.9064225e-02
 -2.2886407e-02
 -2.4274291e-01
 -1.1198806e-01
  1.2638272e-01
  1.4137167e-01
 -6.1753046e-02
 -6.4365007e-02
 -8.6979512e-03
  1.3397619e-01
 -2.3185286e-01
 -2.5816613e-01
 -4.8832488e-03
  1.9753061e-01
 -7.1805835e-02
  3.9056607e-02
 -1.2015792e+00
 -4.9985054e-01
 -5.1898390e-01
 -2.6764381e-01
  5.2590249e-03
 -3.4143254e-01
  1.9455269e-01
  6.4605540e-01
 -3.2788277e-01
 -5.2260745e-02
  1.4431459e-01
 -4.2426009e-02
  2.1520855e-02
  2.0718507e-02
 -3.5533279e-01
 -7.6720148e-04
  6.2395984e-01
  1.9935210e-01
 -1.6218534e-01
 -1.7567971e-01
 -1.4873879e-01
  4.1542119e-01
 -3.4096611e-01
 -4.5241553e-01
  3.2895768e-01
  9.7575299e-02
  9.5554471e-02
 -4.1675451e-01
  3.6302146e-01
 -3.0463306e-02
  8.6851829e-01
 -1.8659510e-01
 -1.2309165e-01
 -7.6974481e-02
  3.1352758e-01
  1.3762668e-01
 -2.5366476e-01
 -6.3577041e-02
 -7.0098452e-02
 -7.6893665e-02
 -4.7035804e-01
  1.8472667e-01
  2.7735163e-02
 -2.9411730e-01
  8.6802989e-01
  1.0649240e-01
  3.4020759e-02
  5.0628763e-02
  3.0557325e-01
  1.7772086e-01
  1.4177749e-01
  6.2284902e-02
  1.6449625e-02
 -3.2064316e-01
  7.4813791e-02
 -3.2680633e-03
  1.8409000e-01
 -1.5790781e-01
 -2.7207312e-01
  6.0133433e-01
  2.4872467e-02
  1.5254310e-01
 -1.2554461e-01
 -5.4832929e-01
 -8.0904311e-01
 -2.4015515e+00
  1.0415022e+00
  3.1214973e-02
  7.1508996e-02
 -7.7546336e-02
  1.3857677e-02
  1.4074013e-01
  3.8005283e-01
 -2.5356057e-01
  2.5748262e-01
 -9.6354991e-02
  2.7403888e-01
 -1.9404078e-01
  2.1458561e-02
 -2.7912334e-01
  9.8921001e-02
  2.4436575e-01
 -9.7606622e-02
 -7.7310473e-02
 -2.7498879e-02
 -7.0484501e-01
  1.0734332e-01
  1.0459214e-01
  5.3584629e-01
  9.7840780e-01
 -4.9605519e-03
  2.3347084e-01
 -5.5531043e-01
  1.2875551e-01
  1.9550878e-01
 -1.3134922e-01
 -7.2019681e-02
 -9.1992207e-02
  4.8095104e-03
  8.7567091e-01
  6.6066161e-03
 -6.3093804e-02
 -1.3289198e-01
 -3.4446499e-01
 -9.4523191e-02
 -1.5416898e+00
 -1.1374677e-01
 -5.7275969e-01
  3.2299021e-01
 -9.7214818e-01
 -8.9370891e-02
  2.8950635e-01
  8.2428418e-02
  1.0947064e+00
 -5.0385588e-01
  1.6471393e-01
  2.4637006e-01
 -5.9171982e-02
 -1.3420485e-01
  6.9783616e-01
  2.8872767e-01
  3.2128525e+00
  3.4725261e-01
 -1.0785003e-01
 -9.8432012e-02
