nep4 5 C N H Pb I 
cutoff 8 4 115 19
n_max 6 4
basis_size 12 12
l_max 8 2 1
ANN 50 0
 -1.9471344e-01
 -1.2335488e+00
  5.2219156e-02
  3.5087082e-01
 -3.9446678e-02
  3.5058951e-01
 -1.1137919e-01
 -1.0880074e-01
 -8.4857130e-01
 -3.1410884e-02
 -6.5688133e-02
 -3.2548256e-02
  6.7623079e-02
  3.0829171e-02
  1.1806399e-01
  1.6161783e-02
  2.5054526e-02
 -2.4517275e-02
  1.8595737e-01
 -4.7698636e-02
  2.6072325e-02
 -1.8852656e+00
  7.0272070e-01
  4.8599295e-02
  7.1312582e-01
  2.2882404e-02
  9.1644615e-02
 -4.2743981e-03
 -2.8753772e-02
 -1.2977248e-01
  1.6320899e-02
 -1.1164172e-01
 -1.1558181e-02
  3.5392791e-01
  1.6390654e-01
 -1.9060673e-02
  1.6463051e+00
  1.7680436e-01
  8.3640203e-02
  6.7232214e-02
  1.3447015e-01
  2.1530176e-02
  2.2074049e-02
  7.2393455e-02
  5.6605838e-02
 -1.2826398e-01
  8.9686394e-02
  3.3276219e-02
 -1.9258689e-02
  4.3642987e-02
  1.2355325e-01
 -1.7244054e-02
 -3.4790430e-02
  5.8876749e-02
 -2.3824861e-02
  7.3324554e-03
  6.5509178e-02
  5.4368079e-03
 -1.6588749e-01
 -2.4798639e-02
 -8.9604117e-02
  7.0988834e-02
  2.4484864e-01
  7.0546985e-02
 -9.8504769e-03
 -1.3244959e-02
  7.5946039e-01
  7.6819271e-02
 -2.0205064e-02
 -7.6071933e-02
  6.3628480e-02
  5.7418946e-02
  8.9757241e-02
  1.0338952e-01
  7.4793361e-03
  5.8930151e-02
  8.5672155e-02
 -7.3986582e-02
 -1.1411852e-01
 -7.7640493e-03
  9.4351858e-02
  9.2407696e-02
  7.5133550e-03
 -2.5049245e-02
 -3.5743449e-02
  1.2896971e-02
 -3.8092911e-02
 -1.9620867e-03
 -1.6779205e-02
 -2.6615700e-01
  8.3218470e-02
 -8.8378675e-02
 -4.2676620e-02
 -1.8813293e-01
 -2.1910697e-01
  3.6226101e-03
 -1.9437985e-01
 -7.1091443e-02
 -9.1688164e-02
 -1.4759396e-01
 -2.5103489e-01
 -7.1115740e-02
  2.2347268e-01
 -2.2367129e-02
 -1.1577809e-01
 -6.3669616e-01
  1.7252143e-02
 -9.7092444e-01
 -4.5210019e-02
  1.0751840e-01
  3.6138631e-02
  8.4626012e-02
  3.4276731e-02
 -6.5705869e-03
  4.2847335e-02
 -2.5935423e-01
  3.5813096e-01
  1.0314622e-01
  1.6742340e-01
  8.8338681e-02
  1.1449549e-01
 -2.6131698e-01
  1.3891277e-01
  1.2190452e-01
  1.5870547e-01
  3.7883192e-01
 -2.2777086e-01
 -2.4964464e-01
  8.2186498e-02
  1.5150985e-01
 -3.8714939e-01
  2.2519322e-01
  3.7575126e-01
 -4.5679465e-02
  9.7537357e-03
 -1.3185231e-01
 -2.0019327e-01
 -3.2992384e-01
  9.0667695e-02
 -9.5175654e-03
 -6.6966027e-01
 -9.4922721e-01
  3.2202862e-02
  8.2480049e-01
 -5.2543420e-02
  2.1528231e-02
 -7.9776324e-02
 -2.1386549e-02
  2.7151439e-01
 -9.0798736e-03
  2.0920392e-02
 -1.4149207e-01
 -3.6613088e-02
  2.8375226e-01
  5.3811394e-02
  6.8366624e-02
  2.7024031e-01
 -2.7835381e-01
  4.0480621e-02
 -1.8059866e-01
 -7.1907297e-02
 -4.5531463e-02
 -7.1159631e-02
 -5.0490256e-02
  1.0784484e-02
  1.9843958e-02
  2.0917198e-02
  2.6807663e-01
 -7.2955780e-02
 -1.2658324e-02
 -1.2423084e-01
 -1.0749216e-01
  5.1004134e-02
 -1.3946407e-01
  2.0719994e-02
 -6.0907457e-02
 -2.6886990e-02
  2.2181468e-04
  5.1493660e-02
  1.9193765e+00
 -3.3312399e-02
  1.0436463e-01
  2.4784657e-01
  1.5573035e-02
 -1.3044344e-01
  7.6907136e-02
  8.9714564e-03
  3.9497286e-02
 -1.6895052e-02
 -6.3356340e-02
  2.1611609e-01
 -5.0998315e-02
 -6.4354725e-02
 -4.8385588e-03
 -3.8594265e-02
 -6.5921391e-03
  1.6942609e-02
  4.7810152e-02
 -7.5121492e-02
 -5.2898079e-02
  4.5807298e-02
  4.6495080e-02
 -2.1486999e-03
  1.3774982e-01
 -2.2611862e-02
  9.5697967e-03
 -7.7964529e-02
  1.6119923e-02
 -2.4898030e-02
 -7.3317498e-02
  1.2809044e-01
  2.5840569e-01
  2.5291517e-02
  6.8307482e-02
  8.1690036e-02
  1.1486804e-01
  3.5532650e-02
  3.5093325e-01
 -1.1904172e+00
  1.7311011e-01
 -3.0689925e-01
  9.9221006e-02
 -5.9459084e-01
  1.1198756e-02
 -1.3450070e-01
 -7.7147305e-02
  1.8610029e-02
 -2.9676637e-01
 -5.0486960e-03
 -9.9008137e-01
 -3.9822105e-01
  6.1530210e-02
  1.2396520e-01
  4.0680133e-02
  1.4860739e-01
 -1.0943627e-01
  6.3936293e-02
 -2.3170983e-02
 -1.1902504e-02
  5.5350207e-02
  2.8825514e-02
 -7.1415991e-02
 -1.5789360e-02
  8.4627092e-02
 -9.4194703e-02
  2.2037733e-02
  7.8629577e-01
 -8.8922411e-02
  1.5543030e-03
  1.4036658e-01
  1.8330794e-02
 -3.1153722e-02
 -4.1174088e-02
  4.6611179e-02
 -1.7624094e-01
 -4.1799881e-02
  4.3807108e-02
  3.4160968e-02
 -3.6455970e-02
 -8.4419781e-01
 -1.3353063e-01
 -1.7353097e-01
  1.3368706e+00
  3.4080610e-02
 -3.4025412e-02
  5.3238437e-02
 -9.1490775e-02
  1.7387538e-01
 -2.8415337e-02
  5.7749640e-02
 -1.6261943e-02
  1.0640849e-01
  4.8025247e-02
  2.1442425e-02
 -1.8745174e-01
 -3.7889678e-02
  1.1452241e-02
 -1.9110265e-03
  4.7442308e-03
 -6.8827637e-02
 -3.8876173e-03
  4.7518630e-02
  3.7792944e-03
 -1.1679973e-01
  6.2774181e-02
 -5.0921157e-02
  2.2619393e-01
 -1.0129951e-02
  2.9269311e-01
 -1.9699603e-02
  1.3234125e-01
 -7.3105996e-03
  1.5273736e-03
  1.9077647e-01
 -9.2572498e-01
 -1.1005639e-01
 -1.2418863e-01
 -3.0864468e-01
  3.4636900e-01
 -2.7193468e-02
 -1.6385244e-02
 -9.4238585e-03
 -1.4714953e-01
 -5.9336372e-02
 -3.7341124e-01
  3.2565132e-02
  6.3354932e-02
  1.8919189e-02
 -8.1512548e-02
 -4.2096112e-02
 -3.6737636e-01
  1.6599134e-02
 -1.4551651e-01
 -3.3166409e-02
 -3.3155164e-01
  9.7876349e-03
  3.4189709e-03
 -4.5394140e-01
  7.3273405e-02
 -1.9893259e-01
  3.0625084e-02
 -1.4609320e-02
 -2.2230739e-02
 -1.9568494e-01
  2.3065079e-02
  2.5431886e-01
 -8.5148335e-02
  3.2607190e-02
 -1.8344363e-02
  7.2303317e-03
 -6.6931196e-02
 -1.5031177e-01
 -1.3622613e-02
 -1.3838702e-02
 -1.3088015e-01
  7.8560067e-03
  3.5830205e-03
  2.3953963e-02
  6.5000415e-02
 -3.5893131e-02
 -8.0463625e-03
  2.3111787e-02
  3.1877581e-02
  3.4493119e-01
  1.2584290e-01
  2.6794136e-02
  5.9019711e-02
  7.3516056e-02
  1.8740969e-02
 -8.4217049e-02
 -3.1826854e-02
  8.1973709e-03
 -1.2651788e-01
  9.7772963e-03
 -1.1407965e-01
 -2.3825992e-02
 -8.1481524e-02
  5.8904592e-02
 -1.8850587e-01
 -4.7482508e-01
  4.0249418e-02
 -2.8655119e-02
 -3.8200527e-01
  4.9686875e-02
  7.4226120e-03
  2.8535298e-01
  8.4080897e-02
 -9.2367373e-02
  3.5453416e-02
  2.3190549e-01
  5.0563267e-03
 -6.5646633e-03
 -1.0559557e-01
  8.4615536e-02
 -7.6378167e-01
 -4.9687192e-02
  9.5312767e-02
 -2.4915239e-01
  2.6189390e-01
 -1.8079711e-01
 -1.4259429e-01
  1.2309378e-01
 -8.3478071e-02
  6.9455363e-02
 -2.9052934e-02
 -2.0711388e-02
  2.3646856e-02
  1.0422903e-01
  4.9458537e-01
  5.5451918e-02
  1.0388152e-01
  2.3487216e-02
 -5.1246393e-03
  8.7052293e-02
  6.7166043e-03
  2.7999518e-02
  6.3769139e-02
 -7.8320399e-02
  1.6142279e-01
 -7.8619249e-02
 -1.5994696e-02
  1.9982152e-01
 -3.3869684e-01
  1.9723366e-03
 -1.9856766e-01
 -5.5669196e-02
  5.4966085e-02
  1.4216834e-01
 -3.4168622e-01
  4.3647913e-03
 -4.4072978e-02
  2.5237855e-01
 -4.3739572e-02
 -1.0310930e-01
 -1.5651748e-02
  1.9466864e-01
  1.0134659e-01
  3.6516275e-02
  3.9363250e-02
 -4.9006179e-02
  1.7123643e-02
  3.6344357e-02
 -4.6924323e-02
 -3.6672898e-02
 -5.3592336e-01
 -2.2678027e-01
 -5.5827666e-02
  2.7289215e-02
 -1.9714487e-01
 -1.3284713e-01
 -3.6260188e-02
  2.3765147e-01
  6.4370978e-01
 -8.2752639e-03
  1.3328998e-01
 -3.2062266e-02
  1.7881274e-01
 -8.7568983e-02
 -9.1678472e-03
  2.7196957e-02
  1.2471204e-01
 -1.7289039e-01
  1.5333878e-01
 -5.8346349e-01
  1.6189119e-02
  1.5530062e-01
 -3.6694906e-03
  1.1723341e-02
  3.1873334e-02
  6.6786282e-02
  1.5544572e-01
 -4.7781907e-02
  1.9175978e-02
  1.8538828e-01
 -8.0168211e-01
  1.9862946e-02
  2.1267295e-02
  2.4005866e-01
  1.0118645e-02
  1.5141621e-02
 -5.3963847e-02
  1.2145932e-02
  2.0535264e-02
  4.7353321e-01
  1.0774059e-01
 -2.3540226e-01
 -1.5573677e-03
 -2.1287735e-01
 -1.0967827e-01
  1.2821496e-02
 -5.0740287e-02
  1.0963122e-02
 -6.0714394e-02
  1.2231214e-01
 -1.1194342e-01
 -4.0201887e-02
 -1.6304524e-01
  1.5774171e-01
  3.0415360e-02
  6.0627736e-02
  3.8531933e-02
  1.1493172e-02
  1.1456622e-01
  5.1396992e-02
 -1.8198835e-02
  1.4334721e-02
  3.7727915e-02
  4.2037822e-02
  1.7027959e-02
  4.0824849e-02
  1.1894309e-01
 -2.9667171e-02
 -8.1511699e-02
  6.3370444e-02
 -1.0320967e-01
 -3.7589264e-01
 -6.5060511e-02
  9.2281640e-02
 -2.7257539e-02
 -4.9783606e-02
 -1.6590816e-01
  9.1793530e-02
 -4.6578250e-03
 -3.0271566e-01
  2.8583589e-01
  6.4807303e-02
  5.2415110e-02
 -6.5479040e-02
  3.2579690e-02
  3.2025062e-02
  9.2608348e-02
 -2.5308166e-02
  1.5828297e-02
 -7.2639212e-02
  2.4039283e-02
  1.6088609e-02
  7.5053297e-02
 -2.8448685e-03
 -9.6289948e-02
 -1.4522454e-02
 -1.6510226e-01
 -3.7138879e-02
  1.4619631e-01
 -2.3315453e-03
 -3.9226346e+00
  5.3085372e-02
  3.3858255e-01
 -1.6165490e-01
  4.8529312e-02
  9.1953051e-01
  5.6428876e-02
  3.5497898e-04
  3.1160634e-02
  1.7425084e+00
 -1.8779520e-02
 -4.1188370e-02
 -2.2280872e-01
 -9.2680588e-02
 -1.4327310e-01
 -1.7974608e-01
 -1.9296142e-01
 -6.4455174e-02
 -4.9754832e-02
 -7.8221157e-02
  2.7747519e-02
  1.2092759e-01
 -4.0879641e-02
 -1.0656701e+00
  5.5079166e-02
  2.0252098e-01
  1.5205547e-02
  2.6427168e-02
  1.8651858e-02
 -2.7719826e-02
  1.6777392e-01
 -2.7747840e-02
  1.9809371e-02
  4.8281034e-03
 -4.6664592e-02
 -1.1091390e-02
  7.8570448e-02
 -3.5968609e-02
 -6.9195911e-02
 -1.5582283e-01
 -4.5246363e-02
 -1.6703264e-01
  3.8855439e-01
  1.1244436e-02
 -1.4508238e+00
  1.1629501e-01
  9.2271455e-03
 -1.4484005e+00
 -3.5408136e-02
  1.2717140e-01
 -7.6189607e-02
  5.2459467e-02
  1.0479051e-01
 -2.4502403e-01
 -3.0492386e-02
  1.2735750e-01
 -9.3017064e-02
  1.7984571e-02
 -1.1171313e-01
  4.2679656e-02
 -1.9652346e-02
  5.4803886e-02
  5.6767024e-02
 -1.4393970e-01
  1.1479529e-02
  8.5327454e-02
 -1.0827845e-01
 -1.6081220e-03
 -1.2164972e-02
 -5.3445157e-02
  8.7198414e-02
  1.1304100e-02
  4.5075804e-02
 -7.0048042e-02
 -1.1434717e-01
 -5.4037228e-02
 -6.2245850e-02
  7.0615351e-02
 -1.2220061e-01
  7.2551943e-02
  6.0424805e-01
  5.1212305e-01
 -5.7784971e-03
  7.3982298e-02
  6.1539073e-02
 -2.2655493e-02
  2.6247399e-02
  2.9459028e-03
  2.1847256e-01
 -5.7403332e-01
 -8.0354917e-01
 -1.3240572e-02
 -5.2488065e-01
  5.1832188e-02
  1.0659945e-03
  2.4383303e-02
  1.8122373e-02
  5.3205904e-02
  2.8117234e-01
  1.3599978e-02
  4.9934413e-02
  7.7138387e-02
  2.8385264e-01
 -3.4306508e-02
 -1.5708759e-01
  1.5873665e-01
  7.5646684e-02
  1.1743493e-01
 -6.1707735e-02
 -8.1172395e-01
 -8.1485651e-02
 -3.8029097e-03
  7.3886961e-01
 -3.2676545e-03
  2.8789634e-02
 -1.0250807e-01
  1.9965935e-02
 -7.1241312e-02
  5.9268767e-01
  5.5914801e-03
  2.5394192e-02
  9.8434478e-02
  3.2827004e-03
  1.1385752e-01
 -1.8601926e-01
 -2.0014793e-02
 -3.7971590e-02
  1.4705887e-01
  1.5129434e-01
  1.0924667e+00
  3.2329515e-01
  1.6512306e-01
  5.0346684e-02
  1.0331349e-01
  8.4656440e-02
  3.9978165e-02
 -4.9298633e-02
  8.7547846e-02
  7.5301938e-02
 -1.9961530e-02
  4.5568906e-02
  7.8632481e-02
  5.0537761e-02
 -7.7534370e-02
  1.6178000e-01
  4.0154293e-02
 -2.3963077e-02
 -1.9831781e-01
 -4.8489157e-02
 -7.3032963e-01
  1.2546183e-01
 -8.5204266e-02
  1.3223085e-01
  5.0164644e-02
  5.7519376e-02
 -1.7292838e-01
  4.3299797e-01
  2.7216520e-02
 -3.3773547e-01
 -7.8175329e-02
  6.0366875e-01
  2.2920714e-01
  4.9925253e-01
  4.5467925e-01
 -3.1406701e-01
  3.1343389e-01
 -5.7593334e-01
  1.2655631e+00
  2.2753361e-01
  1.6769664e-01
  1.1752125e-01
 -9.9873048e-01
  7.1705943e-01
  8.3118994e-03
  2.2408800e-01
  2.1873981e-01
 -3.4117160e+00
 -4.9128047e-01
  1.4228439e-01
  6.1922652e-01
 -2.8612223e-01
  2.1253069e-01
  3.5440388e-01
 -3.5505360e-01
  8.0495787e-01
 -2.3692131e-01
  1.1924471e+00
 -9.8562825e-01
  1.5711440e-02
  9.9722201e-01
  1.5386124e-01
  1.2993839e+00
 -2.0757294e+00
 -3.8662755e-01
  1.3894843e+00
 -7.4752569e-02
  2.2794282e-01
 -1.2146196e+00
 -4.8366636e-02
  8.5972244e-01
 -2.9483059e-01
 -8.2711287e-02
 -1.2086601e+00
  1.2483796e-01
  1.7571129e-01
  3.5880584e-01
  6.1910719e-02
  5.5290538e-01
  3.5691395e-02
  1.5091153e-02
  1.4519888e-01
 -1.1914563e+00
 -4.0856104e-02
 -2.1515429e-01
 -3.8168412e-02
  9.4550870e-02
 -2.1355012e-01
 -5.9600171e-02
  4.3255072e-02
 -4.6346074e-01
  8.5705139e-02
  1.4661554e-01
 -2.3528215e-01
 -1.3227817e-02
 -4.3670449e-02
  3.6299258e-02
 -5.0095476e-02
  2.8022600e-02
  9.0056295e-03
 -3.3944615e-04
  3.0741990e-01
  8.4059305e-02
  9.4123729e-02
 -1.3352625e-01
 -2.9519893e-02
 -9.5718272e-02
 -6.9951409e-01
  1.3989857e-01
 -3.2212842e-01
  2.8493625e-01
 -2.5860295e-01
  3.0817498e-02
 -8.1983544e-02
 -9.0846762e-02
  1.1137391e-02
  6.4202823e-02
  3.7693609e-02
 -7.6143374e-03
 -1.6040681e-01
  1.9534780e-02
 -1.0187753e-01
  3.6849132e-01
 -5.4623103e-03
  5.2768968e-02
 -2.1213366e-02
 -3.9718427e-02
 -3.3546701e-02
  1.5974884e-01
  1.3031377e-02
  7.1920112e-02
  9.6765431e-03
  2.1273496e-02
  4.2975850e-02
  1.1615381e-01
  7.3837660e-02
  8.4347458e-04
  4.6587652e-03
  5.3346694e-02
  5.5617414e-02
  5.7960473e-02
  1.5109145e-02
  1.7753499e-02
  1.3551598e-02
 -9.4852440e-02
 -4.2849220e-02
  8.7859571e-01
 -7.9661682e-02
  5.9232164e-02
  5.3346511e-02
 -3.2225707e-01
 -7.8506276e-02
 -2.0134825e-01
  2.9577706e-02
 -1.6000090e-02
  2.3474434e-01
  6.2508932e-03
 -1.1021381e-01
 -3.1332359e-02
  5.8959196e-03
  7.9344632e-03
  2.8207415e-01
  1.8876643e-01
 -6.6936826e-03
  3.2584488e-02
  1.6167435e-01
 -3.2158419e-02
  1.9628132e-02
 -1.2370637e-01
 -1.9200526e-02
  5.6552865e-02
  3.3940617e-03
  2.5036737e-01
 -7.7146195e-02
  1.5846135e-02
  1.0087810e-02
  1.2138185e-01
 -2.3110044e-01
  1.0188905e-01
  6.1621056e-03
 -5.9454501e-02
  1.3388817e-01
  2.5545679e-02
 -5.8335185e-02
 -2.8007752e-01
 -1.9819875e-01
 -3.0504948e-01
 -1.0997192e-01
  3.8133502e-01
 -2.4787381e-01
  1.1377642e-01
 -1.3627988e-02
 -3.2033209e-02
 -4.7948025e-02
 -7.0306055e-02
 -1.0886590e-01
 -1.2495194e-02
  6.5260552e-02
  5.1024064e-02
 -7.5616583e-02
 -2.0210338e-01
  1.8196569e-01
 -4.2161711e-02
  8.9715898e-02
 -1.0630094e-01
  6.4844370e-02
 -1.0370411e-01
  2.3670120e+00
  1.2274794e-01
 -2.1849751e-01
  5.9489068e-02
  8.9718595e-02
 -2.2518404e-01
 -5.0408530e-01
  2.7727693e-02
 -2.7323049e-01
 -2.1015897e-02
 -8.2416601e-02
  1.4190847e-01
  7.4883001e-03
 -3.0460256e-01
 -9.4154738e-02
  5.4123808e-02
  5.1725376e-03
  6.5068364e-02
  1.1569761e-01
  1.0990769e-01
  5.8061657e-03
  2.2614906e-02
 -2.9868742e-02
 -5.2396902e-03
 -9.9342577e-02
 -3.1299943e-01
  3.3393227e-03
 -5.9017915e-01
  4.8937857e-02
 -3.2153126e-02
 -1.3859557e-01
 -1.2662587e-01
  5.2821871e-02
 -9.7222328e-03
 -1.5442049e-02
 -5.8861993e-02
 -1.0365960e-02
 -2.1503413e-01
 -2.9421106e-01
 -7.3505178e-02
  1.0144014e-02
  8.5376203e-03
  9.8523207e-02
  5.9651071e-03
 -3.4474771e-02
 -1.0363689e-01
  1.3419332e-01
 -1.9960208e-01
  8.8854410e-02
  7.0569694e-02
 -9.8725632e-02
  1.3050084e-02
 -8.7631471e-02
 -6.5680015e-01
 -9.0854454e-01
 -6.6150248e-01
 -2.5396413e-01
 -6.7572153e-01
 -3.8649287e-02
  2.9931992e-01
  1.1660375e-01
  4.0288281e-02
 -1.8004221e-01
  3.0073014e-01
 -2.2375961e-01
 -6.5410680e-01
 -2.5168794e-01
 -1.0879614e-01
 -1.4296918e+00
 -9.9751586e-01
  9.7546436e-02
 -8.6835235e-02
 -1.2169714e+00
  1.4454435e-01
 -3.8843408e-02
  9.8473020e-03
  4.7468342e-02
 -2.6814787e-02
 -1.5354947e+00
  3.6189580e-01
 -4.6962526e-04
 -9.6876666e-02
  3.1995215e-02
  1.1544058e+00
 -9.4542414e-01
 -1.5337014e-01
  3.8572696e-01
 -5.2392304e-02
  3.3636168e-01
 -8.7683517e-01
  4.4812467e-02
 -5.3061854e-02
  8.0432570e-01
 -7.9346788e-01
 -2.2503297e+00
  2.6550177e-02
  1.8467973e-01
 -1.3174962e-01
 -3.5436967e-01
  2.2905791e-02
  5.9237057e-01
 -1.8129596e-02
  1.0585231e-01
 -3.5077331e+00
  1.1452680e-01
  1.1196156e-02
  3.5520575e-03
 -3.1275943e-02
 -3.1078789e-01
 -1.6687497e-01
  3.1390656e-02
  2.1250327e-01
  2.1056435e-01
 -4.2381566e-02
  5.2486051e-02
  2.2013815e-01
 -2.6015777e-02
 -3.7043884e-01
 -1.2323349e-02
  4.5949265e-02
  1.7696160e-01
  2.8723257e-02
 -2.9045905e-03
 -3.0593672e-01
 -1.0837784e-01
 -5.5745375e-01
 -1.8463047e-01
 -5.9943803e-02
 -1.0159641e-01
  3.0228153e-01
 -2.0268995e-02
  2.0108266e-02
 -1.8290535e-01
 -6.1310432e-03
 -1.0323655e-02
 -2.0753807e-01
 -8.5103191e-02
  8.2868218e-02
 -1.2422938e-01
 -9.8333962e-02
 -7.9409644e-02
  6.9876663e-02
  1.6712880e-01
 -1.4430743e-01
 -7.8817949e-02
 -2.2208513e-01
 -5.9165981e-02
  1.6634616e-01
 -1.1934802e-01
 -5.0413340e-01
 -2.7856237e-01
 -1.6728284e-02
  1.5648411e-01
 -3.5862887e-01
 -1.9765185e-01
 -1.9240407e-02
 -1.0997345e-01
  5.0825510e-02
 -7.5382471e-02
 -7.5170800e-02
  1.1305056e-01
  2.5723565e-01
 -2.8236369e-02
 -2.1401781e-01
  3.3996594e-01
 -1.5529233e-02
  7.2214648e-02
 -2.6886301e-02
  2.0766704e-01
 -7.7431999e-02
  3.3645235e-02
  1.2155999e-01
  2.5406945e-01
  6.6655949e-02
  5.1091023e-02
  8.7005027e-02
  2.8468341e-01
  3.9492309e-01
 -4.6737176e-01
  1.2079121e-01
  2.5630756e-03
  3.0668199e-01
 -1.3062601e-02
  6.7802489e-02
 -5.0560195e-02
  1.9861855e-02
 -6.6946678e-02
  3.4060581e-03
 -6.9281265e-02
 -8.5685730e-01
  9.8917264e-01
 -3.1632286e-02
 -1.2692412e-02
  1.5007989e-01
 -5.4295029e-02
  3.3331513e-02
  4.3480039e-02
  9.3048476e-02
  2.9527957e-02
 -4.1419793e-02
 -7.7741735e-02
 -2.3656414e-01
  7.1651444e-02
 -7.4375975e-01
 -4.5932837e-02
 -1.2423337e-01
  1.9142660e-01
  7.8486107e-02
 -2.0133499e-02
  1.5063259e-01
 -1.2151399e-02
  9.4242871e-02
 -3.1927130e-01
 -1.4282976e-01
  8.4987685e-02
  2.8249906e-02
 -1.4421487e-02
 -1.6663530e-01
 -1.4495686e-02
 -7.9822272e-02
  9.2557244e-02
  3.8359076e-02
  1.0298072e-01
 -4.5279421e-02
 -1.8905240e-01
 -1.1785035e-03
 -1.9478294e-01
  8.0452316e-02
 -2.1485622e-01
  1.2189376e-01
 -1.7501788e-02
  9.7801551e-02
 -3.6019076e-02
 -8.9699030e-02
  9.2230111e-02
  4.7015093e-02
  6.2408134e-02
  8.3294317e-02
 -3.9731748e-02
 -1.1029261e-01
  1.3231806e-02
 -3.1476694e-01
  6.6217408e-02
 -3.4190841e-02
 -1.5412065e-01
 -1.5896268e-01
 -2.7352422e-03
  4.8181988e-02
  1.0740709e-02
  3.2136854e-02
  1.0820824e-01
  8.5141450e-02
 -1.4042807e-01
 -8.9382194e-02
  6.0605485e-02
 -2.7092746e-02
 -5.7146448e-01
 -1.6590555e-01
 -3.9583005e-02
  2.6588202e-01
  7.5449131e-02
 -1.6667427e-01
 -4.2260908e-02
  9.5186569e-02
 -1.7165089e-01
  1.4205121e-02
  1.5045565e-02
 -1.3415550e-01
 -3.6382008e-02
 -4.0048890e-02
  4.6724804e-02
 -1.0362291e-01
  1.5445516e-01
 -6.3207984e-02
 -8.8040248e-02
  9.5179617e-02
 -3.7467280e-01
  9.0758771e-02
 -9.5255278e-02
 -2.1724686e-02
 -8.1480972e-02
 -7.5263850e-02
  2.5918347e-01
 -1.4179420e-01
  4.4659439e-02
 -7.1856976e-02
  2.5029477e-02
 -3.9378693e-03
  1.7187482e-01
  9.8998152e-02
  1.0952607e-01
 -4.2891461e-02
 -1.5051061e-02
  1.2144089e-01
  5.5196147e-02
 -1.3624969e-02
  3.4490116e-02
 -2.0904557e-01
 -1.1182438e-01
  1.2709509e-02
  2.0649146e-02
  2.7028240e-02
  1.2919568e-01
 -6.9719821e-02
 -5.5999398e-02
  4.6152387e-02
  2.9676020e-01
 -8.6554624e-02
 -5.8335117e-03
 -8.4429257e-02
 -7.4398428e-01
  5.6902909e-01
  1.4095083e-01
 -1.8843052e-01
 -3.1228901e-03
  3.7630714e-02
 -2.5719497e-01
 -2.1888465e-03
  1.9884696e-03
 -4.6360180e-02
  1.8015362e-02
 -1.5246762e-02
  5.9461653e-02
 -2.4821674e-02
 -1.0254610e-01
 -9.2891760e-02
 -8.0992401e-02
 -1.4904863e-01
  7.0685432e-03
 -4.1985863e-01
 -9.8026380e-02
  1.9261336e-01
 -2.4724537e-01
  1.3453390e-01
 -1.2134951e-02
  1.1364497e-02
  3.5741520e-01
  1.5554893e-01
  8.6003765e-02
 -7.6380923e-02
  1.2032422e-01
  3.2781549e-02
 -8.7845899e-02
 -3.4907468e-02
  2.0196054e-02
 -2.2319621e-01
 -1.0525633e-01
 -3.0616388e-01
 -8.0708459e-02
  4.4100199e-02
 -5.2898727e-02
  8.0054455e-02
  3.4967616e-02
 -8.8279575e-02
  8.7092586e-02
 -2.8825900e-01
 -1.2101326e-02
 -1.5009515e-01
  3.9601259e-02
  3.1131737e-02
  4.1863942e-03
  4.1694067e-02
  2.0952691e-01
  7.2063617e-03
 -5.7703551e-02
  1.5633024e-01
 -4.3916207e-02
  1.5204747e+00
 -1.3269763e-02
  8.5098399e-03
  2.5953487e-02
  1.5239228e-02
  1.8438646e-01
  2.2066280e-01
 -1.6503763e-01
 -3.3119137e-03
  5.2667752e-02
 -2.9512924e-01
 -5.1461313e-02
  2.8932220e-03
  7.3425509e-02
 -1.1417444e-01
 -9.1452205e-01
 -1.7205080e-01
 -8.3972923e-02
  9.4825700e-03
 -7.8675136e-02
 -4.7197737e-02
 -4.6695927e-01
  3.9215967e-02
 -6.0629945e-02
 -4.4320066e-02
 -7.7090152e-02
 -1.2020207e-02
  1.5253653e-01
 -5.7387467e-02
  3.3106077e-02
  3.1185688e-02
  3.0315068e-01
 -5.4373037e-02
 -7.4559888e-03
  4.0281091e-02
  1.1432294e-02
 -1.2773754e-01
  1.7842641e-02
 -2.0022522e-01
  1.3947058e-01
  2.2110403e-02
  1.7779268e-01
 -2.7919995e-02
 -2.8118836e-02
 -2.4462165e-02
  2.9597893e-02
  3.7514675e-01
  3.5866238e-02
 -4.8219800e-02
  5.1743791e-02
  1.3507240e-01
  1.0745779e-01
  3.6048900e-02
  2.3551917e-02
  2.7997220e-01
  1.3324262e-01
  6.0130441e-01
 -2.8499436e+00
 -6.7107022e-02
 -6.8358555e-02
 -6.8720318e-02
  9.1026746e-02
  1.6994524e-01
  4.0680923e-02
 -1.6795616e-01
  8.4160045e-03
 -1.2957440e-01
 -1.8901922e-02
  6.0761189e-03
 -9.5786139e-02
 -3.4334786e-02
  6.9660852e-03
  1.1599927e-01
 -1.0111056e-03
 -5.1524192e-03
  5.2701250e-02
  5.4856792e-02
  6.3084893e-02
  2.9332799e-01
  1.3301224e-01
 -1.4860027e-02
  5.6253977e-02
  6.8741418e-02
  8.5134365e-02
 -9.5797703e-02
 -3.5168257e-01
 -5.0602847e-01
 -1.1449394e-01
 -5.8206636e-02
 -8.3238348e-02
 -8.3842099e-02
  3.9623657e-01
  8.2499152e-01
 -9.1517232e-02
 -5.4412651e-01
  7.6397842e-01
  1.2376547e-01
 -2.8005722e-01
 -1.1258817e-01
  7.2298253e-01
 -2.0864973e+00
  4.7461373e-01
  1.3261983e-01
  9.2632627e-01
 -1.9217373e+00
 -3.8231507e-01
 -2.9826492e-01
 -3.2481211e-01
  1.5090631e+00
  1.0122411e+00
 -2.0325282e-01
 -6.8488187e-01
 -6.2301672e-01
  1.4512582e+00
  2.0976331e+00
 -3.6761478e-01
 -8.4252959e-01
 -1.3107587e-01
  1.4893200e+00
  1.2730218e+00
  6.6890061e-01
 -6.2675774e-01
  1.5364340e-01
  1.5203533e+00
  3.7740293e-01
  3.8328087e-01
  8.6036958e-02
  2.3719858e-01
  7.8152418e-01
 -3.1049699e-02
 -9.0272188e-02
 -1.8035416e-02
  1.0141496e-02
  7.2235666e-02
  2.9349539e-01
 -2.7746732e+00
  4.1140165e-02
  1.7292692e-01
 -4.0065803e-02
  6.2917478e-02
 -2.3529755e-01
  4.6945713e-02
  6.3400842e-02
 -1.2683856e-01
  4.3696422e-02
  6.3619693e-03
  2.1428336e-01
 -1.2013863e-02
  6.8013564e-02
 -5.9419625e-02
 -1.7164877e-02
 -1.3733755e-01
  1.1214644e-01
  5.0126918e-02
  6.0840391e-02
  6.0356618e-03
  4.6851482e-02
 -4.9511805e-02
  6.6630649e-03
 -7.7150062e-02
  1.0161874e-01
 -1.1099347e-01
  4.8953187e-02
 -1.1582972e-02
  3.9545495e-02
  2.6135942e-01
  9.3806617e-02
  2.2463596e-01
 -6.4995266e-02
 -2.3201171e-01
 -1.5582396e-02
  3.9489508e-02
  4.5299064e-02
 -3.8654126e-02
 -1.2800822e-01
 -3.9807774e-02
  5.0272096e-02
  8.8283569e-02
 -4.9929988e-02
 -6.2345430e-02
  7.4897893e-02
  8.2926840e-02
  3.8788121e-02
 -4.7169480e-02
 -9.7468473e-02
  7.9419956e-02
 -6.1890945e-02
 -1.3388054e-01
  1.6682962e-01
  2.1185905e-02
 -2.1287343e-02
 -1.0327778e-02
 -1.0580753e-01
 -5.5807647e-03
 -6.1149299e-01
 -9.0073653e-02
  1.2633929e-01
  8.4137030e-02
 -4.0164597e-02
  2.8325794e-02
 -9.2324488e-02
 -1.2572847e-01
 -5.5752881e-02
  1.1756670e-01
  4.0832948e-02
  1.9309573e-01
  8.7148122e-02
  2.0041209e-01
 -4.1623790e-02
 -1.3448834e-01
  1.3783365e-01
 -4.8383020e-02
 -2.1297634e-01
 -7.0158556e-02
  3.1215838e-01
 -7.3677171e-03
 -1.4565468e-02
 -1.0938416e-01
 -1.0394339e-02
 -9.3355337e-03
  1.9836964e-02
 -1.9888037e-01
 -1.1653642e-02
 -1.5241687e-01
  2.4045255e-02
 -1.2188895e-01
 -2.2640226e-02
 -5.5766914e-02
  7.9224244e-02
  1.3959382e-01
  1.2237538e-01
  1.2851562e-01
 -1.2485252e-01
  9.1011502e-02
  1.7391196e-01
 -7.7264562e-02
  2.1846551e-02
 -1.9994752e-02
  4.1776899e-02
  3.8072247e-02
 -3.6390877e-01
 -7.0094071e-02
  6.4159920e-03
  3.1523779e-02
 -8.4475063e-02
 -8.2253814e-02
 -6.6026524e-02
 -1.3632995e-01
 -2.8290376e-02
 -7.8001298e-02
  5.0023809e-02
 -7.9661208e-01
  1.1852524e-01
  1.8295556e-01
 -4.3782491e-02
 -1.8582042e-01
  1.2638936e+00
  8.4207520e-02
  1.5793385e-01
  3.5483012e-01
 -1.8117654e-01
  1.0419007e-01
  7.7937685e-02
 -1.4070767e-02
 -1.2083293e-01
  6.7129828e-02
  1.6163096e-01
 -3.2553929e-03
 -5.0649252e-02
  4.4314746e-02
  2.9775292e-01
 -2.1491909e-01
 -1.7128449e-02
  1.9718451e-02
 -1.5070588e-02
 -3.0579694e-02
  1.5962867e-01
  2.5629567e-02
 -9.3479730e-02
  1.3973501e-02
  2.9900288e-02
 -6.8041496e-02
  1.9413169e-01
 -3.1274583e-02
  9.2670903e-02
  9.2720300e-02
  1.0456191e-01
  5.6318287e-02
  2.8898764e-02
  1.0738282e-01
 -5.9807181e-02
  7.1320355e-02
  5.4481376e-02
 -1.4037360e-01
 -8.6097032e-02
 -7.4807149e-01
 -8.6423136e-02
 -3.8707048e-02
 -2.4552190e-01
 -2.5288168e-02
 -5.7076048e-02
 -7.8737557e-02
  2.1376787e-01
 -2.2155644e-01
 -1.2423184e-01
  1.9402463e-02
 -1.0530389e-01
  3.8337879e-02
  6.3871392e-03
  4.9311969e-02
  2.1441218e-02
 -1.9252996e-01
 -5.6770224e-02
  3.6490312e-01
  4.3103970e-03
 -1.8495557e-01
  1.3078217e-01
 -7.2501205e-02
 -2.0064618e-02
 -5.1033616e-02
 -5.6627721e-02
  2.3002203e-01
  1.1247318e-03
 -9.1941200e-02
  2.8126158e-02
 -3.7217338e-02
 -2.4199365e-02
  4.8007262e-01
  1.9897453e-01
  8.0419686e-03
  1.0625333e-01
  2.5844909e-02
 -8.0902062e-02
  7.4235909e-02
  5.2730967e-03
  7.6459460e-02
  2.7960036e-03
  1.5239310e-02
  1.0406084e-01
  7.0313984e-03
 -6.9001430e-01
  7.7714138e-02
 -2.8092328e-01
  5.7757184e-02
 -1.2295102e+00
 -7.3926948e-02
 -5.8708686e-02
 -4.9603567e-02
 -6.8861777e-01
  2.3694485e-01
 -1.8652344e-01
  1.7478529e-02
 -1.0120637e-02
  1.9554123e-01
 -5.2610308e-02
  3.8742807e-02
  6.4576738e-02
 -6.5487353e-03
  5.9599844e-03
 -1.5367041e-02
  7.1706235e-01
  4.0146615e-02
  4.6325292e-02
  1.5583512e-01
 -2.8619123e-01
  1.6139006e-02
  3.7479562e-01
  1.2510751e-01
 -2.3836916e-02
 -5.4343186e-02
  4.7454217e-01
  1.1709686e-01
 -2.4664281e-01
  5.4570148e-03
  4.9711376e-01
 -4.3551743e-01
  2.1787563e-02
  6.4886518e-02
  6.8225950e-01
 -1.2328747e-01
 -1.3840683e-01
  2.7229769e-02
  6.5844998e-02
  2.7367013e-02
 -2.5898552e-01
 -2.5002282e-02
  1.7194197e-01
  2.4355729e-03
 -1.6269261e-02
 -1.1798666e-01
  5.6273010e-02
 -4.4116551e-01
 -2.3306498e-02
  7.1862072e-02
  1.1104132e-01
  8.3714928e-03
 -1.7888576e-01
 -4.1624725e-02
 -3.6388200e-02
 -2.9511636e-03
  3.8108863e-02
 -3.1332694e-02
 -4.1257538e-02
 -9.0931192e-02
  6.5394059e-02
 -6.0243773e-01
 -1.4036962e-01
  9.4903400e-03
  1.7060526e-01
 -1.1129215e-01
  1.8993586e-02
  6.1723486e-02
  1.2575121e-01
  1.2209957e-01
  1.2033703e-01
  1.0092832e-01
 -2.6422966e-01
  9.3258619e-02
 -6.8411022e-02
 -1.5028971e-01
 -9.4766192e-02
  1.2310460e-01
  1.2706368e+00
  3.5149824e-02
 -2.5717910e-02
 -1.2335676e-01
 -2.7381787e-03
  2.2537331e-01
  3.0356663e-01
 -1.2173376e+00
 -3.7597013e-01
 -7.4148796e-02
  1.5821537e-01
 -5.6330757e-03
 -4.4025734e-02
  1.4725165e-03
  2.0780602e-01
  7.1053663e-03
  1.2374213e-02
  1.4502025e-01
 -5.8170691e-02
  4.3023683e-02
 -7.0149317e-02
 -1.0341709e-01
 -3.6780508e-03
 -1.1994667e-01
 -8.0083862e-02
  3.6805356e-01
  1.6075237e-01
  4.9049240e-01
  7.6720357e-02
 -1.1030260e-01
 -1.3558440e-01
 -1.3146178e-01
  7.8786276e-02
  9.7326048e-02
 -2.1412238e-02
 -1.0903902e-01
 -1.4351067e-01
 -6.9664836e-02
  1.0075364e-01
 -1.0305882e-01
 -5.3912763e-02
 -1.8961735e-01
 -1.3412464e-02
 -2.6555972e-02
  2.5778033e-02
  4.2005885e-01
 -1.3478008e-02
  6.1550280e-03
  5.5492269e-03
  1.1317523e-02
  4.5596451e-02
 -9.3768038e-02
 -3.7734065e-02
 -4.1364175e-03
 -6.8735582e-01
  1.1506343e-02
 -3.1808436e-02
  7.7905715e-02
 -1.2040970e+00
  4.4244709e-03
 -6.9770463e-02
  1.4957096e-02
 -1.5821132e-01
 -1.5197702e-01
  1.6008656e-02
  3.3246383e-02
 -3.5324946e-02
 -1.2162500e-01
  1.5881941e-02
 -4.2592485e-02
 -7.6216660e-02
 -1.0204002e+00
 -5.8899824e-02
  6.9862239e-02
 -5.1784124e-02
 -1.7601615e-02
 -5.4625127e-02
  5.1217312e-01
  5.1348105e-02
  2.4719769e-03
 -1.7858563e-01
 -5.0614038e-03
  1.9984688e-01
 -2.3028407e-01
  1.8573414e-01
  2.0420565e-01
 -4.4028945e-02
 -1.6232627e-02
 -2.2066663e-01
  1.6778033e-02
  1.0420241e-01
 -2.3963590e-01
  2.4675405e-01
  5.9671067e-02
  8.8141141e-03
  3.5058100e-02
  9.7183876e-02
  2.1384561e-01
  1.5228414e-03
 -9.3752429e-02
 -3.1005137e-02
 -1.1636870e-01
  7.8246959e-02
 -1.2643172e-01
 -1.0297523e-01
 -6.9435835e-02
  1.4029921e-02
  6.7008838e-02
  1.0946932e-01
  4.6929974e-02
 -1.6789399e-02
 -1.8741637e-02
  4.3221697e-01
  4.8238118e-03
 -1.8583287e-02
  1.7447418e-02
  2.7670871e-02
  4.9285796e-01
 -1.0429426e+00
  1.7516828e-01
 -1.3415842e-01
  2.6411098e-01
  1.4078114e-02
  7.9582576e-03
 -6.6622002e-03
  3.2117830e-03
 -1.6652736e-01
  3.8135436e-01
 -5.3229876e-02
  7.1965240e-02
  1.4337666e-01
 -8.6120544e-03
 -1.6762610e-01
 -2.6147626e-02
  1.4474072e-01
 -1.4800959e+00
 -2.4697362e-02
 -3.0242596e-02
 -2.3051767e-01
  3.3477075e-02
  3.5043034e-01
 -1.2297269e-02
  7.0032991e-02
 -8.1564888e-02
  3.1271073e-01
 -1.1202993e-01
  1.5114272e-02
  3.8786940e-02
 -1.2268560e-01
  6.6196956e-02
  1.8802121e-01
  3.9845616e-02
 -1.7633405e-02
 -1.1738535e-01
  3.9801612e-02
 -1.5505387e+00
 -2.8546712e-01
  6.8611026e-01
 -5.4778300e-02
  1.5319328e-01
 -1.9585561e-02
  5.2446187e-02
  1.8372194e-01
  5.1339209e-02
  2.4445863e-01
 -8.1144728e-02
  1.0608200e-01
  1.7992876e-01
  7.6326293e-01
 -4.9667709e-02
 -2.8944713e-01
 -7.7678192e-01
  4.0029045e-02
 -5.7380050e-03
 -2.1592019e-02
 -4.2490188e-02
  1.1978412e-02
 -1.2307066e-01
 -1.0694264e-01
  5.9681372e-03
 -4.5863796e-02
 -8.8578761e-03
  3.0563145e-03
  1.0206424e-01
 -4.3983689e-01
  5.8209915e-02
 -3.9218396e-02
 -4.5988660e-02
 -6.6131914e-01
  9.8746866e-02
 -2.0470120e-01
  1.3958743e-02
 -9.7108126e-02
  6.7383759e-02
 -9.8274071e-03
  2.0685944e-01
  3.1700051e-01
  3.1454928e-02
 -1.0878513e-01
  1.0467256e-01
 -5.1439002e-02
 -5.5505674e-02
  1.4908047e-01
  4.8071956e-03
 -7.8512356e-02
  4.8071365e-03
  1.1649644e-02
  2.1297211e-02
 -4.0599637e-02
 -1.5215482e-02
 -1.0028905e-01
 -5.4453284e-02
  3.5007030e-02
 -1.1566075e-01
  1.0059591e-01
  5.0831741e-01
 -5.7495357e-03
 -1.3709401e-01
  3.2665890e-02
  4.4842888e-02
 -5.3485967e-02
 -4.0153483e-01
  7.4667670e-02
  1.5270034e-02
  1.0407767e-01
 -1.1951812e-02
 -7.1508974e-02
  1.6355459e-03
  5.3203266e-02
  4.3299716e-02
  2.5749659e-02
 -1.3370927e-01
  2.0646913e-01
 -1.0543187e-01
  6.0873711e-01
 -7.0084311e-02
 -1.4891930e-02
 -1.6268404e-01
  4.1693065e-02
  1.9729333e-03
 -8.8449612e-02
  1.3698114e-01
 -2.6510990e-01
  2.2023439e-02
 -1.4317395e-01
 -1.4576635e-01
 -1.7030343e-01
  1.6295221e-01
 -3.7670694e-03
 -1.6568603e-02
 -5.2979237e-01
 -5.1656537e-02
 -5.9348896e-02
  2.6452679e-02
 -2.6653983e-02
  3.7782912e-03
  5.8537934e-02
 -1.7404053e-02
 -3.6808774e-02
 -2.1841463e-04
  2.2305141e-01
 -6.8188898e-02
 -1.7985530e-02
 -6.0078129e-02
 -1.2611394e-01
  9.4991818e-02
 -9.3807064e-02
 -1.3626544e-01
  3.8271505e-02
 -8.0386825e-02
  1.8572301e-02
 -1.5053731e-02
 -3.1512223e-02
 -1.0943902e-01
 -4.7583319e-02
  6.6618815e-02
  1.3764197e-01
 -2.2431109e-02
  1.0917897e-02
 -1.2654269e-01
 -6.5199994e-02
 -3.5935377e-03
 -4.5397958e-01
 -6.9404421e-03
 -3.3731200e-02
  3.6323950e-01
 -1.1241582e-01
 -7.6887578e-01
 -3.9637383e-02
 -4.7955092e-02
 -7.7791676e-02
 -7.0252858e-02
  2.5946361e-01
  7.1788400e-02
 -2.6491590e-02
 -4.4464018e-02
 -5.2619133e-02
  7.8164689e-02
  1.5150321e-01
  8.0003338e-03
 -1.0743559e-01
 -1.4062594e-02
  1.1699773e-01
 -7.4029192e-02
  1.8271916e-01
 -1.2686756e-01
 -2.5479063e-01
  5.5483114e-02
  3.6805317e-02
  1.0365158e-01
  6.3362360e-02
 -5.5034921e-02
 -4.9436200e-01
 -3.9832156e-02
 -5.7731807e-02
  4.3171078e-02
 -1.3404243e-01
  2.0092841e-02
  5.3511459e-02
  2.2387236e-01
 -1.2447001e-01
  1.1771704e-02
 -1.8961179e-01
  1.8520210e-02
 -1.0646605e-01
 -2.5933948e-01
  5.8399398e-02
 -2.0832643e-02
  2.7088223e-02
  8.0576664e-01
  8.6276010e-02
  1.0899668e-01
  2.2060497e-02
  9.9503517e-02
 -1.0050858e-01
  4.8258983e-02
 -6.3917369e-02
 -1.5658865e-02
  1.0193852e-02
  1.2628746e-01
  2.0815339e-02
 -7.1498440e-03
 -7.4027365e-01
  1.2966822e-01
  9.5582761e-02
 -1.0011254e-02
  1.0748677e-02
  4.3284547e-02
 -1.7061250e-02
  7.9627357e-02
  7.9956494e-02
  1.0280666e-03
 -1.0849480e-01
 -3.0624766e-02
 -3.4247103e-04
  7.0657194e-02
 -1.4295841e-02
  5.8124952e-02
  4.2100251e-02
 -1.0140671e-02
  1.5067386e-02
 -6.5798119e-02
  1.4217351e-02
  1.9311932e-01
 -2.0587659e-03
  1.3627097e-01
 -3.9117750e-02
 -2.2790002e-02
  3.4101572e-02
 -5.8022815e-01
 -6.0672399e-02
  2.1058857e-02
 -1.9794626e-02
  5.6876731e-01
  9.4539985e-02
 -3.9698403e-02
  2.7929708e-02
 -2.0143120e-02
 -7.1107425e-02
  2.4422407e-01
 -5.9738990e-02
  1.5513239e-02
 -4.6769947e-02
  6.3437205e-03
 -9.2231389e-03
  5.3506356e-02
 -7.6458216e-01
  5.5729033e-04
 -3.5317057e-01
  3.9855793e-02
  5.2530034e-03
  8.3423650e-04
 -1.1002260e-01
  1.9559568e-02
 -1.3234495e-01
 -2.5400331e-02
 -7.8369305e-02
 -5.3284097e-02
 -1.2373236e-02
 -3.7457548e-02
 -7.4945498e-01
  2.9055040e-02
  7.5618975e-02
 -4.3226805e-02
  1.8217036e-03
 -6.4076364e-02
 -4.3683749e-02
 -1.0841446e-01
 -6.6885555e-01
  1.1496455e-02
 -1.9871783e-02
  7.5641793e-01
  1.0108683e-01
 -1.1556035e-01
  1.6292009e-01
 -4.3614537e-01
 -3.2227036e-02
  3.3997457e-02
  1.2840583e+00
 -3.2101864e-01
  1.5649235e-01
 -2.2398454e-01
  1.3329284e-01
  1.0180385e-01
  7.5004898e-02
  1.5273682e-02
 -5.2784745e-02
 -6.7104511e-03
 -4.4732246e-01
 -1.0070894e+00
 -1.1851126e-01
 -8.2954258e-02
 -2.6740784e-02
 -1.1422923e-02
  1.0349190e-01
 -1.8083151e-01
  2.8665950e+00
  1.5166111e-01
 -3.3202328e-02
  6.9816589e-02
 -1.3207442e-01
  2.0777376e-02
  5.8329243e-02
 -4.6853654e-02
  2.7895530e-03
  2.5220642e-02
  6.3299435e-01
 -1.5507788e-02
 -1.9696737e-02
  1.2544546e-01
  2.4387609e-02
  7.4071355e-02
  4.1258284e-01
  1.8552738e-01
  5.6477252e-02
 -1.1960209e-01
 -5.9029907e-01
 -8.4817056e-03
  4.2440456e-01
  1.3348808e-03
 -3.4477614e-02
  1.0768244e-01
 -2.6483539e-02
  1.7781932e-02
 -2.7630188e-02
 -9.7314715e-03
  1.9248135e-02
  1.4617993e-02
  4.3614257e-02
  1.2068645e-01
 -7.5186640e-02
 -9.3093747e-03
 -6.0647704e-02
  2.7583644e-01
 -9.8057374e-02
  1.7051170e-02
  5.8917981e-02
 -5.0467998e-02
  6.0603585e-02
  1.5294521e-01
  3.9975032e-02
  1.0275820e-02
  1.0818093e-01
  1.1772991e+00
 -1.9989152e-02
 -6.6506289e-02
 -9.3867876e-02
  1.6574261e-01
  2.4789493e-01
 -1.3371915e-01
 -1.2574017e-02
 -1.7295055e-01
 -7.2077692e-02
  2.2813000e-01
 -4.3893027e-01
 -5.4550387e-02
 -1.0845914e-01
 -7.1204215e-02
 -5.2697383e-02
 -1.1051756e-02
  2.7227314e-02
  2.3485403e-01
 -7.6964162e-02
  3.0447352e-03
  3.8270235e-02
 -7.3172681e-02
 -1.2259047e-02
 -3.8141566e-03
  2.3620486e-02
  1.0258934e-01
  1.6577002e-02
 -5.0162930e-02
  8.7478086e-02
 -1.6082339e-01
  3.5365224e-01
 -4.9084980e-02
  7.5956523e-02
  3.8444329e-02
  3.9713764e-01
  2.1449898e-04
  7.7121012e-02
  2.4553858e-02
  1.5700698e-01
  2.1658145e-02
  5.3717501e-02
 -1.1040797e-01
 -4.1116588e-03
  9.8624351e-03
  1.3064381e-01
  2.9476872e-01
  7.1053430e-02
  1.5043342e-01
  2.1314144e-01
 -1.4044449e-01
  1.6367631e-01
 -1.5233828e-01
 -1.4387181e-01
 -1.7099528e-01
  9.7771704e-02
  1.6865659e-01
 -4.5504650e-01
 -2.8977340e-01
 -3.1495789e-01
 -4.4594362e-02
 -4.1530533e-03
 -2.7862500e-02
 -1.2370400e-01
  2.5246495e-02
 -2.4486868e-02
  1.0466678e-01
 -1.9322613e-01
 -1.0619345e-02
 -1.6042481e-01
 -2.0687775e-01
  6.5449238e-02
  7.4078888e-03
 -2.0979378e-01
 -8.1494980e-02
 -2.8246103e-02
 -1.7971276e+00
  2.5115561e-01
 -4.7038391e-01
 -1.6246431e+00
 -4.0731683e-02
  4.3836262e-02
 -9.7236341e-01
  3.7420716e-03
  2.4824499e-01
  1.0405348e-01
  9.4767332e-02
  1.1538316e-01
  5.6925327e-02
  3.7733316e-01
  3.0831479e-02
  1.0359475e-01
 -7.0393406e-02
 -9.2607662e-02
 -1.1048477e-01
 -5.7467765e-01
  7.4253259e-03
  9.2694789e-02
  1.6370536e-01
 -1.3970256e-01
 -1.1111381e-02
 -1.3341276e-02
 -2.2064273e-03
 -1.1573264e-01
 -8.2496114e-02
  1.7600456e-01
  8.0764117e-03
  6.5976068e-02
  9.6129090e-02
 -5.4863680e-02
 -2.0130523e-01
  2.8425941e-02
 -2.8262290e-01
  3.1661910e-01
 -6.4247814e-03
 -1.2709325e-02
  5.9092123e-02
 -1.1365449e-01
 -3.9483923e-02
  4.2509280e-02
 -7.7771080e-01
 -5.6400456e-02
 -1.3035525e-01
  9.5424965e-02
  5.4900557e-02
  3.6916807e-02
 -4.6681825e-02
  1.1159397e-02
 -7.7583711e-05
 -2.7095707e-02
  9.6424952e-02
  1.1709331e-01
  2.9379457e-01
  1.1722152e-02
 -1.1427467e-02
 -2.0926785e-02
 -2.0986414e-02
 -5.8108483e-02
  9.0597801e-02
  3.1146534e-02
 -2.0266813e-01
  7.1090132e-02
  3.5610106e-02
  4.2333585e-01
  2.0231886e-02
 -2.0047367e-02
 -7.3180482e-02
  1.5926443e-02
 -2.3994911e-02
  1.2375685e-02
  8.3473157e-03
 -1.0856973e-01
  3.0264463e-02
 -8.1501596e-02
  3.6945369e-02
  1.0097251e-01
  4.6077117e-02
 -2.7376682e-01
 -3.0866407e-03
 -2.0705994e-02
 -9.6644506e-02
  1.1919288e-01
 -3.8702089e-02
  1.7079413e-01
  1.5383294e-02
  1.1141861e-01
 -1.5408263e-02
  1.0325342e-02
 -6.0429156e-02
  6.4001001e-02
 -6.0610760e-02
 -3.7046544e-02
  1.6193625e-02
  7.2755955e-02
 -6.1158739e-02
 -5.6819517e-02
 -3.4474440e-02
  1.1966877e-01
 -2.9810747e-02
  2.0336498e-02
 -1.0188319e-01
 -1.0237086e+00
  2.5641210e-02
  2.8608752e-02
 -1.4947962e-03
 -5.3043202e-02
 -2.8785259e-01
 -9.0249989e-04
  8.1586726e-03
  1.6636704e-01
  5.3950362e-02
 -1.1874882e-01
  6.4220913e-02
 -1.0025594e-01
  1.0848564e-01
 -2.4041092e-01
  4.5928687e-02
 -1.0205676e-01
  8.9695171e-02
 -1.8207704e-01
 -1.7763084e-02
  3.7626531e-02
  7.2204135e-02
  3.5056351e-03
  2.3872364e-02
  9.6080787e-02
  3.6331871e-01
 -5.2550957e-02
 -2.6240941e-02
 -3.1947516e-02
 -2.3797339e-01
  2.1368648e-01
  2.8845607e-03
 -6.8230880e-03
  2.8156502e-02
  8.9138564e-05
 -2.2924012e-02
 -5.7067603e-02
 -3.7185784e-02
 -5.2787099e-02
 -1.3288514e-02
  2.9757315e-02
 -3.9103385e-02
  5.3493646e-03
  1.2199693e-01
 -2.1661084e-02
 -1.2982747e-01
  5.4415252e-02
  1.4031346e-01
 -1.9953564e-02
 -7.0720978e-02
 -1.0071861e-01
 -3.2170412e-01
 -8.8620909e-02
 -2.1779451e-01
  2.2495329e-01
 -7.4063763e-02
  3.1113179e-02
  1.6950609e-02
 -9.0134557e-04
  1.5178043e-01
 -1.7121781e-01
  7.5039126e-02
  4.5579635e-02
 -1.1628539e-01
 -4.3613590e-02
 -5.3349382e-01
  1.5109324e-01
 -4.7040150e-02
  1.4306642e-02
 -5.7941232e-02
  6.9732063e-02
  2.3025025e-01
  9.5755219e-02
 -3.3522930e-02
 -6.3746400e-02
 -9.7132530e-03
  8.7651187e-01
 -3.8450137e-02
 -7.8585714e-01
 -2.1031449e-02
 -3.0160496e-02
  1.3060923e-01
 -2.0825541e-01
  5.5788334e-02
 -6.4466238e-02
 -1.0731639e-01
 -5.2258866e-03
 -9.6057262e-03
  9.8034404e-02
 -5.8352839e-02
 -1.8151207e-02
 -3.9208945e-02
  5.4713652e-02
 -1.0257917e-01
 -4.8189681e-02
 -8.3888426e-02
  4.3087866e-02
 -1.4497544e+00
  1.8007973e-01
  2.9097553e-02
 -1.1003519e-02
 -1.4417621e-01
 -8.7368660e-02
 -6.0407024e-02
  5.8199137e-02
  1.6650738e-03
 -7.9120614e-02
  3.0067232e-02
  4.3212187e-02
 -3.6772005e-02
  7.6504216e-02
 -6.6276267e-02
  9.0288833e-02
 -4.2319819e-03
 -3.6200665e-02
 -9.8465256e-02
  6.5540159e-03
 -2.6807746e-02
  1.3061020e-01
 -5.9506823e-03
  1.1748188e-01
  8.3816841e-02
 -1.9374926e-02
 -1.7304374e-02
  8.2379840e-02
 -2.6011679e-02
 -1.2799284e-01
  1.6358688e-01
 -1.3629979e-01
  2.9033666e-02
  9.4373845e-02
  3.6669306e-02
 -1.1589539e-02
  5.0483358e-01
  5.2184511e-02
 -5.9457175e-02
 -7.9818122e-02
 -5.8541276e-02
 -2.9116902e-01
  1.4311157e-01
  1.0923167e-01
 -3.8030264e-01
 -3.7142354e-01
  9.9207692e-02
 -8.8037342e-02
 -1.8641412e-01
 -3.8762257e-01
  2.9469728e-01
 -1.4056747e-02
  1.6067877e-02
  6.7791037e-02
  5.1212925e-02
 -1.7206822e-02
 -1.9267884e-01
  1.8033506e-01
  9.0681620e-02
  8.0209486e-02
 -4.7381385e-03
 -1.5522362e-01
  1.3030034e-01
  6.6921199e-03
 -1.1983322e-01
 -2.5899863e-01
 -9.1599457e-02
  9.3351752e-02
 -3.3298290e-01
  1.0485448e-02
  7.6475871e-01
 -2.0195968e-01
 -9.8221727e-02
  6.7978159e-02
  2.5328976e-01
 -7.0903108e-02
 -1.6652027e+00
  6.5167351e-03
  6.0187243e-02
  4.3094954e-01
 -2.7105647e-01
 -3.9920530e-01
 -1.8131513e-02
  1.3819488e-03
  2.5156038e-02
 -1.2685701e-01
  4.1140582e-02
 -6.1689287e-02
  4.0297662e-03
  7.4560926e-03
 -4.0575376e-01
  2.5339756e-02
 -1.0199972e-02
 -2.5103155e-01
  3.0274588e-01
 -3.0453611e-02
  4.1125823e-02
 -7.2448201e-02
 -3.3649743e-02
  8.2005596e-01
  8.8079222e-02
 -1.8331665e-01
 -5.1509954e-02
  7.3170058e-02
  5.3045508e-02
  8.6180978e-02
  1.3718744e-01
 -1.2524593e-01
  7.3237121e-02
  3.1930962e-01
 -5.4736730e-02
  1.5188713e-04
  1.2434202e-01
  4.7120798e-02
 -3.0596012e-02
  1.1169069e-01
  1.1118189e-01
  2.0362316e-03
 -1.0224497e-01
  6.4585492e-02
  1.7798722e-02
  1.0124425e-01
  1.5561347e-01
  9.7090155e-02
  6.5808780e-02
  5.2542403e-02
 -7.8967912e-03
 -3.5482649e-02
 -5.6039173e-02
 -1.3564247e-01
  2.6714709e-01
 -1.1163335e-01
  7.6164979e-01
 -9.7923264e-02
  6.2137961e-02
 -9.1967639e-03
  4.6049939e-03
  7.9597026e-02
  1.1894460e-02
  1.0126460e-02
 -3.7966910e-01
  1.1218115e-01
 -8.2740083e-02
 -7.9749987e-02
  9.3680974e-03
  3.7355084e-02
 -4.5519438e-02
  5.0944909e-03
  2.2877385e-01
 -3.7358351e-02
 -3.8278215e-02
  3.6252368e-02
  3.4479149e-02
 -4.7259429e-03
 -2.7458902e-02
  6.6548757e-02
 -9.7452062e-01
  5.0107050e-01
  2.0010026e-01
  6.6557181e-01
 -5.9748721e-01
  4.9658671e-01
  3.1147178e-02
  1.5392075e-01
  1.7407387e-01
  1.4001739e-02
  8.3585590e-01
 -1.5361848e-01
  1.1373975e-01
  1.2962854e-01
  5.0219636e-02
 -7.8986418e-01
  1.9362356e-01
  1.8759692e-02
  4.2974658e-02
  1.1733330e-03
  3.6639478e-02
  3.2851288e-01
 -2.0837732e-02
  6.6918813e-02
  6.8189122e-02
 -1.0726992e+00
  1.6945750e-02
 -2.5748903e-01
 -8.5420087e-03
 -7.4352719e-02
 -2.2103633e-01
 -6.7756049e-02
 -1.0585471e-01
 -5.2192613e-02
 -1.9266626e-01
 -2.0523161e-01
  4.4060698e-01
 -2.5843307e-03
  7.5817821e-03
  1.9417271e-01
  5.7356107e-01
  1.7719837e-02
 -1.1110658e-01
 -1.1781126e-01
 -5.3326409e-02
  2.9855984e-01
  2.6586335e-02
 -1.3006958e-01
 -8.7106757e-02
 -8.9802079e-02
  1.3031644e+00
  9.0181060e-02
 -1.3139096e-01
  2.1223892e-02
  1.4213329e-02
 -8.2563229e-02
  2.8766943e-03
  4.4366318e-01
 -4.2182478e-01
  2.8647207e-02
 -1.6743898e-01
 -4.6091103e-03
  1.4022066e-01
 -2.8377885e-02
  1.3726171e-02
 -8.1071422e-02
 -1.5413228e-01
  9.0163216e-02
 -1.7945528e-01
 -7.5850412e-02
 -2.0329580e-02
 -8.4006779e-02
 -4.8232373e-02
 -1.2340900e-01
  1.8236199e-02
  3.0383492e-01
 -7.0820719e-02
 -4.2642915e-01
 -1.3511510e-01
  1.6906026e-01
  3.2112819e-01
 -4.1421078e-02
  4.2675614e-01
 -2.9474702e-01
  6.2990926e-02
  2.5245902e-01
  1.9171973e-01
 -6.4420819e-01
  5.6946242e-01
 -6.4872250e-02
  1.8261716e-01
  3.1123908e-02
 -1.3355640e-01
 -1.6306140e-02
 -8.9564562e-02
  1.9747227e-01
  3.3180010e-01
  2.0535368e-01
 -5.6732130e-01
  2.3268449e-01
  2.2711287e-01
  2.9404851e-02
 -1.1561393e-01
  2.9468921e-01
 -9.7761266e-03
 -3.0531842e-01
 -8.9795329e-03
  3.6008295e-01
 -3.2314867e-02
  1.7181173e-02
  2.4636027e-01
  1.9996613e-01
  2.4324279e-02
  6.6451512e-02
 -2.9480556e-01
 -8.5884339e-01
 -6.5015346e-02
  6.3594207e-02
 -1.6344485e-01
  6.1253093e-02
 -8.0321608e-03
 -3.7829634e-03
 -2.9208252e-01
 -6.6836841e-02
 -7.5095963e-01
  1.0067579e-02
 -6.6016980e-02
 -9.2426792e-02
  1.4939982e-01
 -3.8620610e-02
  2.6841551e-01
 -5.6898016e-02
 -2.6655218e-02
 -3.2584824e-02
  9.8923676e-02
 -2.3751706e-02
  1.9060446e-02
 -2.0465505e-01
 -2.3789678e-02
  3.3689938e-02
 -6.7610286e-02
  2.3461606e-02
  1.5011297e-01
  1.3749917e-01
  1.2056041e-01
  5.4716587e-01
  7.4046463e-02
 -1.5339967e-02
  4.9003519e-02
 -3.9694037e-02
 -1.1975251e-02
 -1.7324679e-02
  5.4102559e-02
  3.5805311e-02
 -1.4242383e-02
 -1.0512381e-01
  7.5674802e-02
 -7.6564409e-02
 -1.4830161e-02
 -5.5389106e-01
  2.1944562e-02
 -3.0819731e-02
 -1.7830057e-02
 -7.4181832e-02
  2.3019870e-01
 -6.0721695e-01
 -1.0807543e+00
  7.9309709e-02
 -2.5547963e-02
 -1.4241880e-01
  1.0841151e-01
 -1.1729176e+00
 -2.0966971e+00
  2.2491539e-02
  1.5852240e-01
  4.3198588e-01
  5.4743171e-01
 -4.8127834e-02
  3.4119599e-02
 -1.4776148e-01
 -1.1620684e-01
  1.7842582e-01
 -1.8190525e-02
  7.5816631e-02
  7.5666986e-02
 -4.3677848e-02
  2.5046176e-01
  2.9003161e-01
  1.0123502e-01
  1.7652178e-02
  3.0867675e-02
  3.6427990e-02
 -2.9545890e-02
  1.6073311e-02
  5.0937869e-02
 -7.1880971e-03
 -1.0175434e-01
  8.1973553e-01
  4.8166476e-02
 -2.0010779e-02
  4.5099881e-02
  1.0422564e-01
  4.5094615e-01
  2.8513189e-02
 -1.0918198e-01
 -5.5368084e-02
  4.7932182e-02
  8.8514857e-02
  6.7393206e-02
 -4.1222889e-03
  1.1662734e-01
  8.3302312e-02
 -1.3150210e-02
 -1.5600254e-01
 -8.0790706e-02
  7.0969090e-02
  1.1417245e-01
  7.3287234e-02
  1.8014978e-01
 -1.8542141e-01
 -1.2178539e-01
  2.6360434e-01
 -6.4905077e-02
 -5.8288062e-01
  1.4875917e-02
  2.6639692e-02
  3.5073139e-02
 -3.2093167e-01
 -1.1350869e-02
  1.0406339e-01
 -1.1652908e-01
  5.4960854e-02
 -1.9071672e-02
 -1.2496781e-01
  3.4526374e-02
 -1.0241444e-01
 -2.5062854e-04
  4.1925151e-02
  3.8951658e-02
 -5.4252874e-02
  2.9434362e-01
 -1.2768556e+00
 -9.0911128e-02
 -1.4015225e-01
 -4.0066466e-01
  1.6029291e-01
 -1.7972877e-02
 -4.0836185e-02
  7.0092417e-02
 -1.7617080e-02
 -5.9784926e-03
 -1.1766057e-01
  4.9870151e-01
  5.6845177e-02
 -7.6418124e-02
 -1.2058635e-01
 -2.6334863e-02
  1.3021927e-01
  2.6185840e-01
 -1.0301154e-02
  1.5182544e-01
  4.8823211e-01
 -1.9362356e-01
 -1.7978816e-01
  1.6267006e-01
  3.6470518e-01
 -3.0743828e-02
 -7.3432326e-02
  5.8439355e-03
  3.4496054e-01
  9.9874824e-02
 -8.3876717e-01
 -9.7750545e-02
 -1.7576434e-01
 -1.1324392e-01
  1.2335368e-01
  7.4721865e-02
  5.9876662e-02
  1.7655306e-01
  3.3782504e-02
 -1.0816116e+00
  3.6128040e-02
 -4.2061196e-03
 -1.6973812e-02
 -2.0745538e-01
  5.9755482e-02
 -5.4510385e-01
  8.3143957e-02
 -2.0476548e-01
 -4.5769826e-01
 -2.0730881e-01
  9.5496796e-02
 -3.5784159e-02
  1.5578504e-01
 -1.7412772e-02
 -4.2480383e-02
 -6.7063612e-01
 -1.0916351e-01
  3.1757992e-02
  4.5143951e-02
 -1.0157129e+00
  2.1232421e-02
 -3.1375203e-01
 -8.6241506e-02
 -9.6611977e-03
  8.1037041e-03
  4.1300468e-02
 -3.4598655e-01
  9.3511514e-02
 -2.4758268e-02
  4.9549386e-02
  1.2454797e-02
  4.7315728e-02
  9.1642690e-01
 -6.0098544e-02
  2.8344442e-03
 -2.8850806e-01
 -2.1404315e-02
 -2.1312711e-01
  2.7836224e-02
 -3.9612338e-02
 -1.5376701e-02
  3.0775735e-02
  1.1914735e-01
  7.0654082e-01
  2.8505626e-01
 -4.4967505e-01
  4.8407586e-04
 -6.8309230e-01
 -5.9170321e-02
 -4.8681062e-01
  3.1921528e-02
 -1.5653656e-01
  4.7585007e-02
 -4.2374909e-02
  6.6599473e-02
  4.9131051e-01
  2.3890150e-01
 -1.0174061e-01
 -3.9023367e-01
  2.3547263e-01
 -3.4129754e-02
 -4.5761794e-02
 -1.3204868e-01
 -2.8847039e-01
 -2.1536659e-01
  1.2553924e+00
 -4.5632731e-02
 -7.4601036e-01
 -1.2999243e-01
  1.0050219e+00
 -6.7923355e-01
 -9.7278133e-02
 -3.8387366e-02
  3.0501610e-01
 -8.1213877e-02
  4.1751426e-02
  2.2340558e+00
  3.0190876e-01
 -2.3673770e-01
  2.0651903e-02
  1.1203012e-02
 -3.3797078e-02
  3.1807235e-01
  2.5705969e-01
  2.0451076e-01
  1.3124973e-01
 -2.5829358e-02
  2.4297458e-01
 -7.3204050e-03
 -8.6039463e-03
 -1.5702333e-01
 -3.5608885e-01
  1.4904507e-03
  1.7313109e-01
 -2.0128433e-01
  1.1667404e-01
 -5.5373275e-01
  2.2576313e-02
  3.1778234e-01
  6.6702759e-01
 -2.0245001e-01
 -2.5632408e-01
 -6.2782809e-02
  1.2645876e-01
  5.9381348e-01
  8.0408984e-01
 -8.5929826e-02
  3.0191344e-01
  8.3103776e-02
 -3.2692067e-02
 -4.3918592e-01
 -2.8164750e-01
 -7.9289205e-02
  3.8021481e-01
  6.6978559e-02
 -2.9783381e-02
  1.0690547e-01
 -5.2213234e-01
 -2.2072090e-01
 -5.9682958e-02
  1.8500885e-01
  8.7541193e-02
 -8.2851952e-01
 -1.6872057e-01
  3.1619336e-02
 -1.6551708e-01
 -4.7572847e-02
 -7.1108960e-02
 -5.7422620e-01
 -3.0988686e-02
  4.7417726e-02
  2.7221136e-02
 -2.5815311e-01
 -3.0528975e-01
 -2.3614284e-01
 -6.4997025e-02
  4.3689422e-02
  9.1216480e-03
 -4.8917919e-02
 -4.2005945e-02
 -1.0702113e-01
 -2.5091136e-01
  2.4489943e-02
 -1.8906567e-02
  5.1700007e-02
  1.9532500e-02
  4.8075467e-02
  7.1647288e-03
 -1.2404640e-01
  2.0552263e-02
 -3.3547580e-02
 -5.1819038e-04
  1.6575605e-02
 -1.8597776e-01
  9.1161644e-03
  1.0041333e-01
  8.9717992e-02
  1.8935795e-01
  1.5582914e-02
  1.6056893e-02
  1.0664541e-01
  6.2985456e-01
  3.1625518e-01
 -2.8498025e-04
 -6.6728145e-02
 -1.0210375e-01
  1.2961376e-01
 -2.5919342e-01
 -3.2684016e-01
  3.0992847e-02
 -2.2472760e-01
 -1.5337288e-01
  1.0959025e-01
  2.2951795e-01
  5.0575999e-03
 -6.7010313e-02
 -4.2064175e-02
 -1.5588833e-01
 -1.5442841e-01
  2.7694538e-02
  1.1878074e-01
 -1.5623434e-02
 -7.8330226e-02
  8.7184288e-02
  1.1661954e-02
 -3.6209214e-01
  1.3749984e-01
 -2.2479210e-02
  2.0798603e-02
 -3.8868483e-02
  4.2551272e-02
 -3.8689252e-02
  2.6684559e-03
 -3.6903407e-02
  7.6321132e-02
 -6.0301799e-01
 -4.5216255e-02
 -2.2961415e-01
 -9.5306516e-02
  1.5908673e-02
  2.3977773e-02
 -8.0948853e-01
 -8.3159544e-02
 -1.7053017e-02
 -6.1067440e-02
 -1.0282222e-01
 -2.4334975e-01
 -6.6966653e-02
 -2.7619276e-02
 -1.2556332e-02
 -1.1084732e-01
  3.1497511e-01
  1.2391036e-01
 -3.5016716e-01
 -9.8653443e-02
  1.5286095e-02
  5.5990890e-02
  1.3378219e-02
 -8.6085296e-01
  4.7046371e-02
 -9.3137845e-02
  1.4780525e+00
 -4.4213846e-01
 -5.9249324e-01
 -1.6723889e-01
  7.5186044e-02
  2.4509710e-01
 -4.6820357e-01
  3.4029239e-01
  4.4396870e-02
 -1.0370596e-01
  1.6397287e-01
  1.1550881e+00
  3.6411455e-01
  1.0459170e-01
  3.1463434e-03
  1.1701176e-01
 -7.4337743e-02
  1.9800593e-01
  5.5324513e-02
  1.7342979e-01
 -2.8996943e-02
  3.9099488e-01
  1.1465845e-01
 -7.2684282e-01
 -1.2835342e-01
  2.2671324e-01
  6.0618174e-01
 -7.6913163e-02
  3.6152516e-02
 -1.1630288e-01
 -1.7966473e-02
  2.0357704e-01
  2.3693111e-02
  9.7619087e-02
  7.8463964e-02
  1.7160228e+00
 -1.8079013e-01
  2.2685772e-01
 -2.6010029e-02
 -1.1292078e-02
 -4.7692728e-01
  7.7322060e-01
  7.6932870e-02
 -5.6483828e-02
  1.0357967e-01
  7.0802170e-01
  5.4134980e-02
 -1.4586017e-01
  2.8608358e-01
 -4.2806420e-02
 -7.3116761e-01
 -7.5372815e-02
 -1.7982571e-01
 -4.1188973e-01
  1.7150665e-03
  1.2912530e-01
  1.7579879e-01
 -1.1684568e+00
 -8.4609663e-01
 -3.2948393e-01
 -3.7135154e-01
  2.6486674e-01
 -6.2691472e-03
  1.9231367e-01
 -1.5067996e+00
  1.1512287e+00
 -2.5624293e-01
  5.8511421e-03
  2.7476576e-01
 -3.1772086e-01
  9.7220683e-01
 -3.8927549e-01
  1.4346297e-02
  6.5296900e-01
 -3.5552442e-02
  9.0889233e-01
 -2.4452906e-02
 -5.5210859e-01
  6.0249722e-01
  5.7411665e-01
  5.8843464e-01
  1.0536560e+00
  5.2604008e-01
 -1.2213291e+00
  7.6937333e-02
  8.7339133e-01
 -3.0049533e-01
 -6.1309937e-02
 -8.1154197e-01
  9.7418175e-04
  6.7395216e-01
 -1.8273046e-02
  2.3230362e-01
 -1.0130609e+00
 -9.9678892e-01
  2.7447787e-01
  4.7515491e-01
  2.6777118e-01
 -9.6986592e-01
 -1.5088819e+00
  8.8575631e-02
  1.4589287e-01
 -1.9738108e-02
  3.5677534e-01
 -6.7834705e-02
  3.5387662e-01
  1.4309113e-01
 -8.7133996e-02
 -4.2495038e-02
  8.1555247e-02
 -2.0584312e-01
 -6.9335663e-01
 -6.2077951e-01
  4.9361879e-01
 -4.5228323e-01
 -2.9079545e-01
  1.7066773e+00
  2.7494732e-02
  3.6934474e-01
 -1.8985407e-01
  3.0705856e-02
  1.7367706e-01
  1.4232016e-01
 -7.6247767e-02
  1.4787433e+00
 -1.9342504e-01
  7.4356300e-01
 -3.1422157e-02
 -1.1904694e-02
  5.2439023e-02
  2.5858195e-02
 -4.5998830e-02
 -1.2393560e-01
 -3.0637443e-01
 -7.4341878e-02
 -8.3093357e-01
  8.2292072e-02
 -1.2034894e-01
  1.0610747e-01
  1.6308640e-01
 -5.3826272e-01
 -5.6244444e-02
 -8.2711875e-02
 -5.9889741e-02
 -9.2337668e-02
  1.0388534e-02
  2.7142432e-01
  4.3528848e-03
  1.6521394e-01
 -1.8225750e-02
  9.7620271e-02
  2.9868785e-02
  8.3099857e-02
  1.0356902e-02
  1.0816131e-01
  1.6450293e-01
 -6.0724057e-02
  1.3517115e-01
 -1.8687129e-01
  8.4002817e-04
  1.2414568e-01
 -2.3858688e+00
 -1.4848834e-01
 -3.4775734e-01
  6.0664892e-01
 -5.3722996e-02
 -1.8730295e-01
  8.7692714e-01
 -6.1734449e-02
 -7.9360485e-02
  2.5362155e-01
 -4.5146328e-01
  1.6569656e-01
 -2.5903327e-02
 -1.5599111e+00
 -2.7562839e-03
  3.8188662e-02
  1.1153114e+00
  2.4344474e-02
 -1.3293953e-01
  1.8134397e-02
 -6.8637133e-02
 -1.7281139e-01
  7.6099628e-01
 -6.5359473e-02
  1.2766620e-02
 -3.2463741e-01
 -6.0278639e-02
  9.7205263e-01
  1.7457273e-02
 -7.8691937e-02
 -1.9886127e-01
 -4.2845573e-02
  2.6391637e-02
  2.7299918e-02
 -8.7808818e-02
 -8.5270345e-01
  3.1413433e-01
  9.3884164e-01
 -5.6000662e-01
  4.5179058e-02
 -4.9994332e-01
  7.1319807e-01
  6.2257107e-02
  1.8372101e-01
  9.4202701e-03
  6.1480528e-01
  1.9556131e+00
 -2.1619499e+00
 -1.7480193e+00
  6.6625573e-02
 -2.0223387e-01
  1.7308649e+00
 -3.0520204e-01
 -4.3992534e-01
 -1.0860170e-01
  8.9646764e-02
 -6.6028334e-02
  1.6809277e-01
 -5.6096271e-02
 -3.5155613e-02
  1.1928503e-01
 -1.5994571e-01
 -1.0956512e-01
  1.6091490e-01
  4.5731444e-02
  2.8943858e-01
  1.4083927e-02
 -9.8914579e-02
  5.2608367e-02
  1.3940166e-01
  3.5002153e-02
  5.9148449e-02
 -3.7127946e-02
 -2.1947473e-01
  5.2875394e-01
  5.8620358e-01
 -1.7937882e-01
  1.2339679e-02
 -7.0745915e-02
 -4.3595884e-02
  2.8342817e-02
  2.9927921e-02
 -2.1506558e-01
  2.2940282e-02
 -1.0416211e-01
  1.0450768e-01
  4.8230313e-02
  8.1074961e-02
 -1.0149051e-01
  4.1019329e-01
 -2.6089031e-01
 -1.3156761e-01
 -9.7760931e-02
 -7.8924604e-02
 -1.9338644e-01
 -4.5019530e-02
  2.4864186e-01
  9.1978520e-02
 -5.3415585e-02
 -2.0871599e-01
 -1.9428629e-02
 -2.6661362e-02
 -1.1212728e-01
 -5.8015320e-02
  4.1159186e-01
 -2.1318747e-01
  1.4239126e-02
  7.4360177e-02
  9.6468208e-04
 -4.3370694e-01
  5.4528996e-02
 -9.8629529e-03
  2.6609240e-02
 -1.0681321e-01
 -8.8357970e-02
  2.4563289e-01
  8.8280573e-02
  7.9994649e-03
 -7.1736015e-02
  1.3838254e-01
  1.2126607e-01
  1.1337449e-01
  2.4137361e-02
 -1.0177495e+00
 -1.7327985e-02
 -1.1275288e-01
 -1.7505415e-01
  5.6464996e-02
  8.4151430e-03
  4.1592326e-02
  1.0527893e-01
 -8.7376155e-02
 -6.4270860e-01
  1.4289983e-01
 -9.3678899e-02
 -3.0934816e-02
  2.0265383e-01
 -9.8817460e-03
 -3.8591966e-02
  1.3478889e-02
 -1.9628988e-01
  9.6695544e-03
 -6.1541557e-02
  3.1523217e-02
 -2.3819810e-01
  2.4266639e-01
  7.0783799e-03
 -6.4996444e-02
 -5.6158558e-02
  3.2196015e-02
  1.1753800e-02
 -8.9943290e-02
 -1.2551332e-01
  1.9258561e-02
 -1.6440846e-02
 -2.7182025e-01
 -3.8138684e-02
  5.6135070e-02
  8.0322169e-02
 -1.6247801e-01
 -4.3306760e-03
 -6.6916849e-03
  4.4771053e-02
  6.3089222e-02
  1.9582747e-02
  1.1303790e-02
  9.1511086e-03
 -2.9692288e-02
 -3.0600207e-03
 -3.3679456e-02
 -9.5111569e-03
  9.6244179e-02
 -6.2404704e-01
 -8.5900031e-02
  3.9066914e-01
  1.5718250e-01
  4.5650464e-02
 -6.2410754e-01
 -5.7792008e-01
 -3.1664935e-01
 -6.7897242e-01
  2.3289440e+00
  5.8426595e-01
 -4.4205552e-01
  3.4546595e-02
 -3.6803371e-01
 -1.5566225e-01
 -1.0016606e-01
  3.9734456e-01
 -9.4823413e-02
  5.7709277e-01
  8.7644272e-02
 -1.6231160e-01
 -8.0910578e-02
 -7.3018265e-01
 -2.7147037e-01
 -2.4093771e-02
  1.0401100e+00
 -1.2090262e+00
  1.3486762e-01
  8.3087647e-01
 -1.1063034e-01
 -3.9073098e-01
  6.0009730e-01
  6.5277532e-02
 -1.6374622e-01
 -3.8258504e-02
 -3.2194339e-02
  1.1218067e-01
 -8.7587992e-03
 -2.0016634e-01
 -2.4012856e-01
  1.1846457e-01
 -5.5753672e-01
 -2.8753418e-01
 -3.7454653e-01
 -1.0560914e-02
 -2.1485390e-01
 -1.1031768e+00
  5.2459341e-02
 -7.8111386e-01
  7.1142432e-03
 -2.3847888e-01
  5.5745929e-02
 -4.8501827e-02
  1.3965751e-01
  1.4533304e-02
  7.2645508e-03
  1.0661197e-01
  4.4604301e-02
 -8.1660289e-01
 -1.9229716e-02
  3.8181311e-01
  1.1066923e-01
 -9.7348921e-02
 -3.7501387e-02
  2.0313166e-01
 -9.0018556e-02
 -1.5640762e-02
 -1.7487261e-01
 -1.7576347e-01
 -6.9854915e-02
 -1.7607905e-02
 -1.6356358e-01
  1.9906147e+00
  3.8448315e-02
 -1.5756024e-01
 -7.0510283e-02
  1.3012475e-02
 -1.1965686e-01
 -5.9888694e-02
  1.9980575e-01
 -2.6636843e-02
 -2.6561985e-02
 -3.6675730e-01
 -2.7600598e-01
 -6.7527652e-02
  7.0225663e-02
 -1.1683650e+00
  1.9756472e-01
  1.3838590e-02
  1.8239692e-01
 -1.1822044e-01
 -4.5820521e-03
 -3.6986917e-02
  9.9366322e-02
 -1.2902257e-01
  1.0581171e-02
 -1.9580196e-01
 -8.1549072e-01
 -2.1835480e-02
 -1.4853233e-02
 -8.0873027e-02
 -7.0259333e-02
 -2.4804415e-02
 -5.2980177e-02
 -5.7988357e-02
 -8.9142229e-03
 -2.6674634e-01
 -9.1658346e-02
  9.2254080e-02
  9.5988112e-03
  1.6754584e-02
 -2.9804572e-02
 -3.0415889e-02
  7.6890704e-03
 -4.6692006e-02
  4.6951920e-02
 -3.6212780e-02
  3.4631185e-02
  8.7772369e-02
  7.6173151e-01
  2.4633279e-01
  8.4716164e-02
  9.5230706e-02
 -4.2456988e-01
 -1.2827070e-02
 -1.0923796e-01
 -1.4084251e-01
 -3.1957987e-01
  7.4858658e-02
  4.3443877e-02
 -1.9255018e-01
 -1.3855562e-01
  3.6713615e-02
 -8.7078728e-02
  1.8984102e-02
  2.8398868e-01
 -9.5508300e-02
 -1.2483360e-01
 -1.0510334e-01
  6.0368471e-02
 -2.7315309e-02
 -1.7121102e-01
 -1.6903738e-02
 -9.2741442e-01
  4.1592491e-01
  5.6721199e-02
 -1.0965365e-01
  8.1787467e-02
  9.6601974e-03
  6.1780691e-02
  6.3824750e-02
 -2.8523255e-02
 -6.3303322e-02
 -1.1673524e-02
  3.4817398e-01
  9.9015705e-02
  3.9843451e-03
  1.3769394e-01
 -8.1575781e-02
  3.6033522e-02
  2.3697463e-01
 -8.9258561e-03
  1.3248946e-01
  4.2693163e-03
 -3.1241659e-02
 -5.1944576e-02
 -3.9792043e-01
  8.8954635e-02
 -9.0996185e-03
 -1.6740435e-01
  1.5848465e-02
  1.2963666e-02
  5.4294616e-02
 -3.9855419e-03
 -1.3485704e-01
 -1.2230622e-01
 -3.7267901e-02
  6.0791355e-02
 -1.2198747e-01
 -3.7846457e-02
 -1.5197478e-01
 -3.2283711e-01
  2.9120186e-01
  3.6530638e-01
  5.6315601e-02
 -7.6767434e-03
  3.2321900e-02
  4.0083844e-02
  3.6855519e-01
  4.1402336e-02
 -1.3671404e-01
  4.2610404e-01
 -5.0240614e-02
  2.2136596e-01
  6.6464025e-01
 -6.9086000e-02
  2.9427292e-02
  1.9713062e-01
  1.2754706e-01
 -1.4422117e-01
  7.3458023e-02
  2.5345305e-01
  3.2326978e-01
 -3.1347889e-01
 -1.4568014e-01
  4.6282303e-01
  1.5975384e-01
  5.8398284e-03
 -1.7291541e-01
 -1.6989468e-01
 -8.1549259e-03
  4.4951847e-01
  4.7048822e-02
  1.0873514e-01
  4.3121383e-01
  5.5286843e-01
 -3.5048997e-01
 -2.2113039e-01
 -5.3769097e-02
 -3.6554918e-02
  2.5818083e-01
  1.0693799e-01
  1.3805886e-01
  3.1157702e-01
  4.7147427e-02
  4.7783912e-03
  2.7179188e-01
 -8.0374077e-02
  1.1478876e-01
  5.3560022e-02
 -1.3672221e-02
  1.8377776e-01
 -1.4817333e-02
  3.3138865e-01
  2.2880717e-03
  3.9290017e-01
  4.1383046e-01
 -2.7291805e-02
 -2.9777888e-02
 -8.8198803e-02
 -6.0744464e-02
 -5.0274599e-02
  7.3659825e-03
 -3.8172048e-02
 -9.8191686e-02
 -9.3026683e-02
  3.7435730e-04
 -1.7019828e-01
  3.2761413e-01
  7.6936442e-01
  7.3055690e-03
  6.5131523e-02
 -2.6267838e-02
 -1.8206429e-02
 -6.6681430e-02
 -6.7164324e-02
 -1.3119665e-01
 -4.0001132e-02
  1.5034351e-02
 -1.1975232e+00
  2.4137678e-02
 -1.7731701e-01
  1.8653050e-01
 -1.6874467e-01
  8.8908011e-03
  4.7555998e-01
 -1.2773219e-01
 -1.6193928e-01
 -5.1997542e-02
 -2.2740521e-02
  2.6424628e-02
  2.7314840e-02
 -1.3653211e-01
 -9.4726831e-03
 -1.5514888e-02
  5.2645072e-02
 -1.3591887e-01
  8.5058615e-02
  5.4764621e-02
 -7.7114399e-03
  3.3125398e-01
  4.2302776e-02
  1.3915902e-02
  1.2426986e-01
  7.5673886e-02
  2.6778117e-01
 -3.7571207e-02
  2.0642003e-02
  7.8066431e-02
 -5.2060355e-02
  9.0486139e-02
  5.6368375e-01
  9.1270888e-03
  4.5955095e-02
 -2.0013258e-02
 -4.2313769e-02
 -3.1367421e-02
 -4.9484584e-02
 -1.9511396e-01
  2.3494756e-01
  3.6662154e-02
 -3.2068621e-02
 -1.3301480e-02
  8.1863962e-02
  4.1440185e-03
  1.8793486e-01
  2.1404381e-01
 -8.4332436e-02
 -4.2773265e-02
 -1.8032225e-02
 -1.9442158e-02
  1.1878647e-02
 -4.7765891e-03
 -4.6088122e-02
 -1.7995077e-01
  3.4694444e-02
 -2.3001272e-02
 -7.4885421e-02
  5.8049817e-02
 -2.9394200e-02
  1.7547549e-01
  4.5124453e-01
 -1.8390469e-01
 -6.4905314e-03
 -2.5182258e-02
 -2.1450846e-01
 -1.4821920e-01
  4.2344816e-03
 -6.2061872e-02
  1.8695611e-01
 -6.5420032e-02
 -2.0917358e-01
  8.9360088e-02
 -1.0284144e-01
  6.9061689e-02
 -3.5330076e-02
 -9.8834887e-02
 -2.5277533e-02
 -3.5432756e-02
  1.8983169e-01
  3.1759304e-01
  5.1958025e-02
 -3.0338266e-01
  4.0864732e-02
 -3.4048919e-02
 -3.4107525e-02
  2.6814030e-02
  9.8625347e-02
  8.3418161e-01
 -9.5238596e-02
  2.1993341e-01
 -8.2304877e-01
  3.9145857e-01
  6.1111754e-01
 -1.5814656e-02
 -3.8782680e-01
  3.1942107e-02
 -5.8460093e-01
  9.5905773e-02
 -1.4911117e-01
  3.9433295e-01
  1.4385490e-01
 -5.4492231e-02
 -7.4521103e-03
 -2.6785944e-02
  7.5077554e-03
 -1.1407720e-01
 -6.9421306e-02
  7.1001403e-02
  1.0216209e-01
  4.3259412e-02
 -1.2079726e-01
 -2.3283139e-01
  3.1898905e-02
 -7.3627844e-02
  6.0203664e-02
 -2.5925073e-01
  4.2753473e-01
 -5.7783678e-02
 -9.4785891e-02
  6.9531523e-02
  9.7572617e-03
  2.5741190e-01
  3.0389536e-04
  1.1907143e-01
  1.6969291e-02
 -9.3743438e-03
 -4.4620654e-01
 -2.4041349e-01
  1.0687120e-01
  4.6550223e-01
 -4.8925575e-02
  5.4840910e-01
 -5.1838685e-02
 -1.2007819e-01
 -2.9339720e-03
  4.1277952e-02
 -7.2288889e-01
  4.0145096e-01
 -3.6447808e-02
 -2.9607248e-02
 -1.2141963e-02
 -2.4827208e-01
  9.4646275e-02
  5.4779708e-01
  1.5203153e+00
  4.8278332e-01
  2.5765502e-01
  6.5636814e-01
  1.3816812e+00
  9.0921998e-01
 -3.2871503e-01
 -4.6126732e-01
  6.0416721e-02
  2.1267526e+00
  5.6081498e-01
 -1.0887691e+00
  9.7311622e-01
  2.5425488e-01
  1.2789048e+00
 -1.3614559e-01
  4.9422786e-02
 -1.4852077e-01
  4.2915739e-02
  6.2207872e-01
  6.2101442e-02
 -2.2456639e-01
 -3.2049581e-01
  1.1233528e-02
  1.7834924e+00
  1.5102123e-01
  1.5509202e-01
 -1.2593627e-01
 -1.0084976e-01
  3.7036467e-01
 -6.7823648e-01
  3.9244678e-02
  5.3643727e-01
  1.2649879e-01
  2.9665843e-01
 -7.0124161e-01
  1.4161052e-01
  3.3844182e-01
 -9.0166771e-01
 -1.0116500e+00
  1.2202108e-01
  7.8585632e-02
 -2.9256985e-01
 -1.1234403e-01
 -2.0033139e-01
 -5.5243927e-01
  5.7848707e-02
 -1.1431509e-01
 -3.0952256e-02
  7.5520343e-01
 -2.7960885e-01
  1.0481143e-01
 -5.9826011e-03
  2.2588886e-02
  1.3482204e-01
  2.3004290e-02
 -1.5747471e-02
 -2.9351902e-01
 -5.2781940e-01
  1.9369546e-02
 -2.4257174e-01
  6.2241606e-02
 -5.8639236e-02
  1.6664341e-01
  7.9652794e-02
 -1.4099096e-01
 -6.9971316e-02
  8.9242816e-02
  6.5534428e-02
  1.7161231e-02
  1.0540951e-01
 -2.4549890e-02
  1.0887562e-01
  2.7285999e-02
  1.0950129e-01
 -1.3900667e-02
 -1.2298424e-01
 -1.4080537e-02
  1.9454516e-02
  1.0075851e-01
  2.9641190e-01
 -9.9559668e-03
 -2.8619364e-01
 -4.8928723e-02
  5.5812579e-03
 -8.5858919e-02
  4.4283815e-02
 -2.2542363e-01
 -1.1912625e-01
 -6.7260839e-02
  2.0697379e-02
  2.8225081e-02
 -1.2038630e-02
  1.5759477e-01
  9.0532504e-02
 -1.0580463e-01
 -5.0893568e-02
 -5.9089083e-02
 -2.6552601e-02
  6.2202862e-03
 -8.3755356e-01
  1.1004017e-01
  6.5873116e-03
  1.1875559e-01
  2.9248521e-01
  1.3695709e-01
  7.7436514e-02
 -6.6496581e-02
  3.5741262e-02
 -1.6737061e-02
 -1.5653643e-01
  5.5874676e-02
 -2.9925335e-02
 -3.0724015e-02
 -1.4499509e-01
 -1.4143232e-01
 -3.3266724e-03
 -2.4141166e-01
 -7.2020546e-02
  6.3819245e-02
  3.8848776e-02
 -5.5217922e-01
 -2.4056606e-02
 -1.5303792e+00
 -1.0204569e-01
  4.9522884e-02
 -1.4882727e-01
  3.8043160e-02
  1.0766359e-01
 -1.5744610e-01
 -1.3633166e-02
  1.1411425e-01
 -1.0236502e-01
  1.0797804e-01
  5.5080554e-03
  3.9272353e-02
 -2.3386568e-01
  5.6489948e-02
  1.0814685e-01
 -1.6043907e-02
 -1.4946093e-01
 -4.1115182e-03
  7.9939857e-02
 -3.7442347e-01
  9.3564866e-03
  3.5757849e-01
 -7.7847725e-01
 -1.0234997e-01
  5.2502498e-02
 -1.3746670e-01
  1.4146392e-01
  7.3983078e-04
 -2.1635303e-03
  9.3612894e-03
 -3.3573959e-02
 -1.8931045e-01
 -3.0220323e-03
 -3.1732079e-02
 -1.2635589e-02
 -4.6802327e-02
  7.3075622e-02
  2.6187709e-02
 -1.3289057e-01
 -2.7475378e-01
 -6.2954150e-02
  1.1667958e-01
 -2.4104618e-02
 -1.5156429e-01
 -1.9406156e-01
 -5.8046746e-01
 -2.9016169e-02
  9.6039422e-02
  1.1925957e-01
 -6.7017898e-02
 -2.2946268e-03
  4.1867025e-02
  1.2530927e-01
 -9.3151800e-02
 -3.6945596e-01
 -2.3061138e-02
 -2.6727253e-01
 -7.6675087e-02
 -3.4105834e-01
 -5.5188827e-02
 -3.4326430e-02
 -2.7605729e-02
  1.1180947e-02
  3.2938398e-02
  5.3521272e-02
  1.2766187e-02
 -8.0883808e-02
  9.8544113e-02
  3.3124287e-02
 -6.9486916e-02
  1.6239485e-01
  1.3713893e-02
 -1.5435703e-01
  1.6211893e-02
 -3.6955520e-03
 -5.3759008e-03
 -1.5483524e-02
  1.2181930e-02
  4.5371854e-01
 -5.0985117e-02
  3.1740907e-01
 -2.8912520e-02
 -5.6136554e-01
 -1.2568496e-03
 -4.0660713e-02
  5.0693665e-02
 -2.2984143e-01
 -1.2018033e-02
  4.1615929e-02
  4.1587267e-02
 -2.5741233e-02
 -2.1896306e-01
 -1.2454259e-01
 -5.5717196e-02
  9.6099965e-02
 -3.7096508e-02
  1.8778639e-01
 -1.3627188e-01
  4.7771633e-02
  7.9204030e-02
  3.6175285e-02
  8.6639047e-02
  4.6333942e-01
  1.3136771e-01
  2.3289645e-01
 -4.9102698e-02
 -1.4669080e-03
  2.5245610e-01
  4.9575061e-02
 -8.4588520e-02
 -1.5559168e-02
 -3.4317948e-02
 -1.7189180e-02
  2.5900244e-03
 -4.8184101e-02
  4.8805650e-02
 -4.1078186e-01
 -2.5651766e-02
 -5.5031241e-03
  2.0533005e-02
 -4.1439787e-01
  1.8391179e-01
 -2.3804720e-01
 -1.8693134e-02
 -1.0413007e-02
 -1.1972961e-01
 -5.9245758e-02
 -1.7368939e-02
 -5.9665442e-02
 -5.0865930e-02
 -1.6813900e-01
  1.0898133e-01
 -9.1349520e-02
  8.2723111e-02
  1.5905698e-01
  2.8264837e-02
  1.9457133e-02
 -7.6235458e-02
 -6.3236572e-02
 -1.5406336e-02
  6.1831463e-02
 -3.4554072e-02
  6.2833793e-02
 -4.3632500e-03
  1.9549264e-02
 -5.1976480e-02
  1.1437711e+00
  1.5023414e-02
  3.5074454e-02
  1.4449670e-03
  1.4450391e-02
 -6.8861298e-02
 -1.7459512e-02
  2.3710134e-02
  2.2987733e-02
  3.7753571e-02
 -8.7430328e-03
 -1.1525100e-01
  3.9549326e-03
  5.0487224e-02
 -2.0187865e-03
 -6.8556326e-03
 -2.7918732e-02
 -8.3319545e-02
 -3.4462061e-02
 -1.4128527e-01
 -1.2825343e-02
 -7.6442569e-02
  1.3409786e-01
 -1.0613625e-01
  2.0215340e-01
 -2.3771165e-02
  1.6430278e-01
 -2.3178303e-01
 -6.5321080e-02
  7.6443397e-02
  1.5252213e-02
  1.0626855e-01
  2.2239413e-02
 -1.9329887e-02
 -2.2889352e-01
  3.3892080e-01
  1.0713302e-01
  2.3228569e-01
  8.5928284e-02
  7.5827107e-02
  5.3008519e-02
 -1.7685843e-01
  5.5979753e-01
  4.8636999e-02
  6.3893594e-02
 -4.8717137e-02
 -9.4657503e-02
  7.3080815e-02
  1.4436466e-01
 -6.2095094e-03
  1.7934930e+00
  2.3269568e-02
  2.7259590e-02
  1.4023077e-01
  1.0951764e-01
 -5.8939956e-02
  2.0186197e-02
  1.4944111e-01
 -3.8919714e-01
 -3.0834978e-02
  1.1337229e-01
 -6.0788270e-02
 -7.1380593e-02
  2.2864631e-01
  4.5667183e-02
 -1.0659713e-01
  9.6613460e-04
  1.2075110e-01
  1.9403931e-01
 -2.2126496e-02
  4.5591399e-02
  2.8458975e-02
  1.4792494e-01
 -7.7604160e-02
 -5.4356629e-01
 -2.3496838e-02
 -7.4457169e-01
  4.7581311e-02
 -3.5991512e-02
 -3.2961732e-01
 -1.2751516e-02
 -1.3468492e-01
  5.5159517e-02
 -1.8231404e-01
 -4.3707777e-02
  5.2614778e-02
  1.8953364e-01
  1.9818807e+00
  1.2259125e-02
  1.0325732e-01
  1.5278327e-01
  8.5526090e-03
 -6.3941203e-02
  1.3945915e-01
  2.4358132e-01
 -1.7765887e-02
  1.3036190e+00
  2.4444522e-01
 -4.7914848e-02
 -4.0178947e-02
  2.4836697e-03
 -5.4091185e-01
  2.6001956e-03
  2.1462332e-01
  8.9637458e-02
  1.3119137e-01
 -2.7189398e-02
 -1.1710430e-02
  2.0929772e-01
 -6.0500763e-02
 -5.1925305e-02
  5.7125300e-02
 -6.5458514e-02
  2.3562808e-02
  6.2863901e-02
  5.0795961e-02
 -1.0342174e-01
  7.7414110e-02
 -8.6171508e-01
 -1.0816907e-02
 -2.9659852e-02
 -3.7848920e-02
  7.0081353e-03
  1.7791262e-01
  3.7448388e-01
 -6.5089166e-02
 -4.1439557e-03
 -9.0919256e-02
 -1.0459408e-01
 -3.8485430e-02
 -6.3479424e-02
  6.4474630e-01
  1.2613001e-02
 -2.6586799e-02
  1.6982423e-01
 -4.8564887e-03
 -5.6856617e-02
  6.7483670e-01
 -1.5600939e-02
 -8.8023514e-02
 -9.8453321e-02
  4.5648586e-02
  5.3659871e-02
 -1.9277759e-02
 -1.0918134e-01
  1.0047647e-01
  4.5672856e-02
  7.5617418e-02
  5.1536269e-02
 -7.3863126e-02
  9.0172491e-04
 -1.1117213e-01
  1.3613409e-01
 -4.3995719e-02
  8.3989743e-03
 -6.4917189e-01
  6.6502512e-02
 -1.3223183e-01
  2.7235013e-01
  1.5576611e-01
  1.3960709e-01
  2.1009271e-01
 -6.7367062e-02
 -2.5968380e-02
  3.1290506e-03
 -1.4279660e+00
 -7.3840819e-02
  4.5362059e-03
 -8.6681880e-02
  6.2563956e-02
 -9.2639104e-03
 -2.0625089e-01
  3.1144463e-03
 -7.5623333e-02
 -1.6018663e-01
 -1.8329388e-02
  5.3504158e-02
  6.3175641e-02
  4.2996608e-02
  1.5009074e-02
 -1.1471529e-01
  9.9627804e-03
 -5.5617388e-02
 -2.0734341e-01
 -6.5896824e-02
  1.4314979e-01
 -8.8777980e-03
  9.8913722e-02
 -8.1713744e-02
 -1.5539174e-01
 -3.7686539e-01
 -3.5968907e-02
  1.6944213e-01
  6.5331137e-01
 -2.1477950e-01
 -1.1952845e-01
  3.5188865e-02
  5.1358640e-01
 -2.3095405e-01
  4.1038193e-02
  2.2108370e-01
 -5.5641297e-02
  1.6407784e-02
  8.5298665e-02
 -3.4769226e-02
 -1.1348750e-02
  1.0843979e-01
  7.7243894e-02
 -4.3201908e-02
  8.8780560e-02
  3.5509247e-01
 -7.7637382e-02
 -2.0549286e-03
  1.2811299e-02
  1.9168083e-01
  7.3754109e-02
  3.1551129e-01
 -3.8939871e-02
 -1.7822558e-01
  9.3322843e-02
  4.7095892e-01
 -2.4205489e-02
  1.1674616e-01
 -5.5618258e-03
 -1.4756735e-01
 -7.9607052e-01
 -1.5857615e-02
 -8.7330714e-02
 -1.0213925e-01
  6.0938772e-02
 -1.1514602e-02
  2.7246324e-02
 -2.8416520e-04
 -9.6950442e-02
  3.0236108e-02
  3.1515774e-01
  5.3961359e-02
 -1.1943304e-01
  6.4130105e-02
 -4.5187911e-03
  3.7819251e-01
 -5.6327939e-02
  3.5324156e-02
 -7.1268952e-01
  3.0507080e-02
 -1.0240207e-02
 -2.4611939e-02
 -2.9513997e-01
  1.1828601e-01
 -9.3911864e-02
 -1.0980486e+00
  2.2034204e-02
 -1.0491120e-01
 -1.6451862e-02
  9.3127057e-02
 -2.3985723e-01
  6.3271755e-01
 -2.3439649e-01
 -1.3202599e-01
  8.3856732e-02
 -2.8681448e-02
 -1.8853404e-01
  6.4441897e-02
 -2.1835673e-01
 -1.2645589e-01
 -1.1665041e-01
 -1.7534414e-01
  2.0682584e-01
 -1.9418298e-01
 -3.5651268e-03
 -1.5682068e+00
  7.6338395e-02
 -2.1371113e-02
 -1.5344813e-01
 -5.2293397e-02
 -3.0922166e-01
 -2.7981373e-02
  5.9133041e-01
 -1.2164324e-01
  1.9736459e-02
  2.3555638e-01
 -8.8491207e-03
 -2.9137416e-02
  2.4255434e-01
 -2.0495215e-02
 -7.8439368e-03
  1.0831457e-01
  8.1333863e-03
 -4.2281574e-01
 -2.6910581e-02
  2.5325170e-02
 -8.1073254e-02
  6.7947619e-03
 -8.9417033e-02
 -5.5457160e-02
 -4.3565997e-01
 -2.0989311e-01
  9.5042393e-02
  5.2279111e-02
 -1.3745677e-01
  1.3335991e-01
  2.1411850e-01
 -2.5042585e-01
 -2.1648158e-01
  2.4732639e-01
 -2.4619991e-01
 -2.2907659e-02
  2.4678756e-02
  4.3359380e-02
 -5.9954152e-02
 -9.0077920e-03
 -1.0038863e-01
 -3.3637289e-02
 -2.1404210e-02
  5.3415233e-01
  1.4248820e-01
  9.9434005e-03
  4.0714353e-02
  2.4079147e-03
  1.5375534e-01
 -6.5229610e-02
  1.3100227e-02
  3.4710668e-02
 -3.3148393e-01
  2.1365844e-02
 -9.0743028e-02
  3.6297321e-02
 -2.4688041e-02
  2.3636505e-02
  7.8961092e-01
 -6.7458957e-02
 -5.7126973e-03
 -8.6379334e-02
  9.7315148e-02
  1.8884702e-01
 -6.3145965e-02
  1.2546255e-01
  1.5701653e-02
 -1.5348205e-01
 -1.4558727e-01
 -7.3996216e-02
  1.0041666e-01
 -9.4675317e-02
 -3.2246181e-01
 -4.5639899e-02
 -9.2654727e-02
  1.2870072e-01
 -5.9327116e-04
 -5.1668640e-03
  6.3231438e-02
 -1.0340974e+00
  2.5868982e-02
 -2.0180209e-02
  4.3418117e-02
  3.1651750e-02
 -3.0052677e-02
  1.7246814e-01
  1.4930676e-01
 -5.4386605e-02
 -4.1132316e-02
  7.9694487e-02
  2.4858359e-01
  2.0220405e-01
 -3.8303427e-02
  1.5894910e+00
 -1.8871549e-01
  1.2672104e-01
  1.3028691e-04
 -4.1127104e-01
 -2.0419690e-01
  2.3678234e-02
  2.0456769e-01
 -2.7408013e-02
  4.9943373e-02
  2.2603551e-02
  2.4411606e-02
  2.7460450e-01
 -2.4494160e-02
  3.4352541e-02
 -5.6221630e-02
 -6.2731737e-01
 -1.7595898e-01
  1.1389861e-01
  1.7720221e-01
  2.5866853e-02
 -1.1320480e-01
  3.3989063e-01
 -8.4177218e-02
 -1.5029556e-01
  1.1048914e-01
 -2.3009114e-01
 -5.8587600e-02
  6.9133991e-01
 -1.9036636e-02
 -2.1399808e-01
 -6.9834918e-02
 -1.3927588e-01
  5.7856709e-01
 -2.3524028e-01
  4.4772980e-01
 -2.5389317e-02
 -1.3083453e-01
 -1.1287642e-01
  7.6817639e-02
 -2.6640072e-02
  7.8068748e-03
  3.8995547e-03
 -1.3094261e-02
 -6.8368956e-02
  2.0381493e-02
  1.1944512e+00
  1.0672607e-02
  6.8556823e-02
  4.8471215e-01
 -9.9898651e-02
  4.4990227e-02
 -1.5575363e-01
  2.2947302e-02
  5.1348645e-02
  6.1531597e-01
  9.1677852e-02
 -3.6091357e-02
 -2.4156004e-02
 -1.6985711e-02
  1.8405256e-01
 -2.2955302e-02
  1.4320662e-02
  1.6345395e-01
  3.0954325e-01
  1.9274247e-01
  1.4657804e-01
 -1.6225490e-01
 -1.3523519e-01
 -2.3112880e-01
 -6.4452820e-02
 -1.5961994e-01
  1.7605536e-01
  2.1397415e-01
  4.0327770e-01
 -2.0316971e-02
 -8.2742479e-03
  5.3416099e-03
  2.3534348e-02
  1.2549724e-02
  2.3213004e-01
  2.7813539e-02
 -1.9976662e-01
  8.5958615e-02
 -3.7553359e-02
 -2.0627682e-01
  1.0881301e-01
  5.7623986e-02
  1.0248965e-01
  1.6822985e-01
 -5.3948104e-02
 -2.8473434e-01
 -3.0699852e-01
 -2.8387746e-02
 -2.8845221e-01
 -3.1258768e-01
  8.5102089e-02
 -1.0278431e+00
  1.2014446e-02
  2.3169260e-01
  6.1061841e-02
 -7.5287702e-03
 -3.4001604e-02
 -1.5700622e-01
 -6.1392260e-01
 -3.9084996e-03
  1.7760407e-02
 -3.6903698e-02
 -2.3458956e-01
 -1.9577000e-01
  2.2300607e-02
 -4.6573907e-01
 -5.1730223e-02
  1.0555817e-01
 -6.8622947e-02
 -1.1906803e-02
  1.4545067e-02
 -1.3528290e-02
  2.3456943e-01
 -4.7640711e-01
 -5.5454168e-02
  1.2418460e-02
 -8.3462037e-02
 -1.3988894e-01
 -2.9119200e-01
  1.0269344e-01
 -1.6444002e-01
  1.6876186e-01
 -1.2587884e-01
 -1.6849038e-01
 -1.6743442e-02
  5.5373251e-03
  8.3158329e-02
 -1.2804915e-02
  5.6644663e-02
  4.3789384e-01
 -3.2596323e-03
  8.9651115e-02
 -5.2860850e-01
  7.0967816e-02
 -6.7515776e-02
  2.6855988e-02
 -2.6314955e-02
 -1.6920629e-04
  2.0911163e-01
 -9.8789722e-02
  1.9517038e-03
 -7.7771157e-04
  7.3061278e-03
  1.2346920e-01
 -2.4357352e-02
  9.6920922e-02
  1.9936118e-01
 -1.9001350e-01
  5.3125758e-02
  7.6153107e-02
  5.6573350e-02
  1.4776051e-01
 -5.0467927e-02
  1.3702369e-01
 -6.5737799e-02
 -3.5383258e-02
  3.5072591e-02
 -2.8782872e-02
  2.6034828e-02
 -3.4924626e-01
 -7.8080297e-02
 -7.8598216e-02
  8.4104300e-01
 -4.6131718e-01
 -1.1957572e-01
  1.6219327e-01
  4.1521132e-02
  7.6068789e-02
 -4.2031473e-03
  1.3973409e-02
 -2.2896700e-01
 -2.1277132e-02
  1.5156312e-01
 -6.0435310e-02
  8.9235425e-01
  3.1489056e-02
  6.9099225e-02
 -6.7784488e-02
  7.0441631e-03
  2.3781428e-02
  2.8819000e-02
  3.2036297e-02
  3.7876263e-01
  4.7885127e-02
 -2.5320226e-01
 -3.9175469e-01
  6.5841354e-02
 -8.1397820e-01
 -4.3010694e-01
  4.8764092e-01
 -3.6957696e-01
 -7.8233428e-02
 -6.4983970e-01
  4.9714446e-02
  1.5839963e-01
 -3.6952898e-02
  1.1160417e-02
 -5.2359676e-01
  7.3857665e-02
  4.1926838e-02
 -3.0152598e-01
  1.6722878e-02
 -3.1132357e-02
  1.1393999e-01
  3.8362410e-02
 -1.1355961e-02
 -1.0835025e-01
 -6.6248484e-02
 -8.0155969e-02
 -1.6827729e-01
 -9.9925743e-03
 -4.0168405e-02
  6.3649803e-02
 -1.1709693e-01
  8.4833115e-02
 -8.2041383e-02
  2.5343135e-02
 -1.9204724e-01
 -4.7692839e-02
 -2.1343802e-01
  1.2658527e-01
 -5.3043389e-01
  1.1415903e-01
  1.1857067e-01
  1.2407257e-01
  2.3844223e-02
 -1.9833449e-02
 -1.5011589e-01
  4.9192950e-02
  1.1852496e-01
 -8.6491808e-02
  6.7199063e-01
  5.2948165e-01
 -2.5875235e-02
 -1.8163644e-02
 -1.0116398e-03
  1.4713784e-01
  4.4658110e-02
 -8.7642729e-02
  3.0114470e-02
 -7.0436068e-02
 -9.0025052e-02
 -9.7990350e-04
 -4.4603432e-03
 -9.5529065e-02
 -2.6452830e-01
  2.0098029e-01
  1.4657010e-01
  1.5260959e-01
 -2.4682228e-01
  3.2534026e-02
 -5.0218917e-02
  4.5493484e-02
  1.7235591e-01
 -5.2824783e-01
  9.5695436e-02
  3.2848656e-01
 -2.6230542e-02
  8.9135915e-02
  5.2793380e-02
  1.3497761e-01
 -2.0399742e-01
  2.1376861e-03
 -2.0731527e-01
  1.2344018e-01
 -1.1690419e-01
  7.1681418e-02
 -2.0583785e-01
  8.1667759e-02
  1.7198354e-01
 -1.4024839e-01
  9.5208511e-02
  6.9805376e-02
 -5.1128287e-02
  6.6101784e-01
  1.1356742e-02
  3.1013712e-02
  6.8153268e-01
  1.1401191e-01
 -1.3707511e-01
 -5.2891260e-01
  2.3914540e-01
 -2.8879464e-02
  6.1546419e-02
  5.2184872e-02
 -9.2791393e-02
  6.4421587e-02
 -4.3720394e-02
  6.3184020e-03
  2.2341134e-01
 -8.8206604e-03
 -5.5018097e-01
  1.1654901e-01
 -3.6277246e-02
 -4.9952647e-01
 -5.2835278e-02
  1.3886438e-02
  1.0614774e-01
 -3.2904617e-02
 -3.2563772e-02
  2.6758736e-02
 -3.9115992e-01
  2.4193431e-01
 -1.8663698e-01
  1.6122101e-01
 -4.5255226e-01
  1.3662818e-01
 -7.9144940e-02
 -2.1086703e-01
 -1.4208808e-02
  8.6561151e-02
  3.7850758e-01
  4.1661959e-02
 -5.3387843e-02
 -2.6794861e-03
  5.9593499e-01
  4.2254594e-01
  5.4532714e-02
 -8.8436238e-02
 -3.1401653e+00
  1.5754740e-01
 -4.4118159e-02
  5.6503257e-03
  2.9868325e-02
  2.3131458e-01
 -3.0912939e-02
 -2.0283245e-01
 -6.4236671e-02
  8.0429323e-02
  2.0724925e-01
 -4.4652458e-02
  4.6386203e-01
 -3.2069690e-03
 -6.4151984e-01
 -1.2092131e-01
 -5.7526104e-02
  1.3366776e-03
 -1.1142069e-02
  5.6676489e-01
  2.3382530e-02
  3.4800153e-02
 -2.2353946e-01
 -1.2028569e-01
  1.4326342e-02
 -1.2092885e-01
  1.2011754e-01
 -7.1460076e-02
 -5.5338945e-02
  1.7221620e-02
  2.3034990e-02
 -1.4590208e-01
  1.2265588e+00
 -5.2957762e-02
  2.9927652e-02
  7.6832950e-02
  1.6776508e-01
 -2.4900636e-01
  8.3970226e-02
 -1.0033900e+00
  3.1054910e-02
 -4.2183483e-01
 -8.6558446e-02
  4.2437695e-02
 -4.3769848e-01
 -1.1500414e-01
  1.1543803e-02
 -8.2841441e-02
  1.3876170e-01
  1.0468952e-01
  3.0920330e-01
  1.0510299e-02
 -2.4978662e-01
 -3.7834469e-02
 -1.3704470e-01
  4.7052562e-02
 -8.0756056e-01
  1.0382956e-01
  3.8708460e-01
 -1.7014284e-02
 -9.4808526e-02
  2.2740854e-01
 -7.5767592e-02
  4.8353490e-03
 -1.4707810e-02
 -1.9602057e-01
 -4.3226944e-04
  1.2189827e+00
  1.9493304e-01
  6.6267049e-01
  6.8964869e-01
  5.5127758e-01
  4.1800803e-01
 -4.4605833e-02
 -1.1782753e+00
 -7.7087384e-01
  2.1581602e+00
  1.1189060e+00
  6.5862614e-01
  7.5016022e-01
 -4.7985710e-02
  1.7860425e+00
  1.3439606e-01
 -3.2206190e-01
 -1.4393203e-01
 -4.0320382e-02
  5.2866960e-01
 -3.1466788e-01
 -4.5962262e-01
  6.4497992e-02
  3.0842407e-02
  7.2457862e-01
 -1.7431140e-02
 -1.4125050e+00
  6.4191335e-01
 -2.0020125e-02
 -1.0959994e+00
 -1.4177433e+00
  7.2729558e-02
 -7.0178919e-02
 -1.9916344e+00
 -6.8389136e-01
 -7.5782609e-01
  2.1546461e-01
  6.7533031e-02
 -3.5291088e-01
 -1.9678119e+00
 -2.9218882e-02
  4.9516788e-01
 -1.9450732e-01
  8.4605470e-02
 -9.0373653e-01
 -4.4985414e-01
 -6.6313457e-01
 -2.3701094e-01
 -1.4117119e-01
 -1.8035930e+00
  1.3447759e+00
  2.2897888e-02
 -1.8397202e-01
 -2.8951399e-02
 -3.7624994e-01
  2.7729961e-01
  1.3840698e-01
 -6.1612880e-01
 -2.5955329e-02
  2.2079612e-01
 -5.4597504e-02
 -5.3290224e-01
  3.5697532e-01
  1.1447778e-01
  1.4906991e-01
  4.7240559e-02
  4.9827495e-01
 -8.4922932e-02
  2.8472587e-03
  3.4899226e-01
 -1.1504599e+00
 -5.8865833e-01
 -2.5740191e-01
 -1.5847896e-01
  1.7477399e-01
 -2.7771465e-02
 -1.0369373e-02
  4.2796883e-01
  6.5866792e-01
 -1.8107902e-02
 -1.8205866e-01
 -4.7679198e-01
 -5.6593616e-02
 -5.4815514e-03
  2.1125416e-01
 -6.0446039e-02
 -4.1592741e-01
 -4.0896583e-02
  1.0419887e-01
  2.8773460e-01
  4.1258104e-02
  7.8835779e-01
  3.5148090e-01
  8.7238863e-02
 -1.0675173e-01
  1.7464077e-01
  2.1798700e-01
 -3.5225368e-01
  7.3689923e-02
  2.1538015e-02
 -8.3997719e-02
  9.2134111e-02
 -1.1557424e-02
 -9.4544008e-02
  7.5231887e-02
  6.1742786e-02
 -1.5411051e-01
  1.9030567e-01
  1.7030078e-01
  4.8939437e-02
 -6.1189156e-02
  6.2169325e-01
 -6.3493842e-01
  1.4168428e-02
  7.9446435e-01
  3.6515325e-01
 -4.7064012e-01
  7.2926563e-01
  1.3861841e-01
  1.2364425e-01
  1.0011332e-01
  1.9123148e-02
 -8.8132545e-02
  1.7562748e+00
 -7.5720906e-01
  1.9143365e-01
  8.0061841e-01
  4.8952818e-02
  4.8861861e-01
 -4.3267375e-01
  4.6804321e-01
 -2.3555826e-01
 -1.1050870e-01
  6.6408592e-01
  2.4660568e-01
 -4.0658811e-01
 -1.5248044e-02
  4.9002850e-01
  1.7751645e-01
 -5.8805078e-01
  1.7814566e-01
  3.1082720e-01
 -1.8956016e-01
 -2.8306423e-03
 -5.3070748e-01
  2.4183471e-02
 -2.5386909e-01
 -2.9400691e-01
  4.8662356e-01
 -3.4460738e-02
  8.6293489e-02
  1.8309657e-01
  1.0327382e-01
  6.1316240e-01
 -4.8193693e-01
  1.4280617e-01
  3.6720070e-01
  3.9500561e-02
  2.0331217e-01
 -1.6235162e-01
 -1.3923593e-02
  9.4803578e-01
 -3.8726177e-02
  8.7457776e-01
 -1.2688237e+00
 -1.3574177e-01
  3.5662051e-02
  1.6630985e-02
 -2.4293774e-01
  9.4397152e-03
  1.1782812e+00
 -2.0256160e-02
  1.8938288e-02
  2.8854081e-01
  3.1860802e-02
  2.3408715e-02
  9.6180961e-02
 -7.2951582e-03
 -8.6647741e-02
 -3.7527025e-02
  3.4097469e-01
  9.2107318e-03
  1.8567197e-01
  3.7052187e-01
 -1.0243215e-02
  8.2346573e-02
 -3.5134357e-01
 -1.1346547e-01
  1.5998181e-02
 -1.3326137e-02
 -3.0730968e-02
 -4.4523694e-02
  1.1540493e-01
  3.0475045e-02
 -9.0160996e-02
 -1.7539309e-01
  5.8647739e-03
  6.5484352e-02
 -1.8006023e-02
  1.7443761e-02
 -4.2033639e-02
  1.2832013e-01
 -3.4051445e-01
  1.6882506e-01
  6.4655326e-02
  2.2946222e-02
 -6.2758878e-02
  1.0486484e-01
 -2.3539720e-02
  1.6184247e-01
  2.8907120e-01
  7.7425786e-03
 -6.1826999e-03
  1.6510716e-02
 -1.1326133e-01
 -1.7375167e-02
 -2.3409180e-02
 -3.1597979e-02
  3.1669438e-02
  5.4632384e-02
 -1.5310208e-01
 -2.2384029e-02
 -8.2809590e-02
 -3.7265606e-02
  7.9388171e-02
  8.2412343e-03
 -2.5145972e-02
  1.2903336e-01
  8.4452167e-02
 -3.5909459e-01
  5.2956837e-01
 -7.9796016e-02
 -1.5542392e-01
 -1.9369364e-01
 -3.0209731e-02
  1.5814748e-01
  5.9834745e-02
 -3.4012545e-02
  3.2619726e-02
 -7.1545497e-02
 -3.9703868e-02
  4.9302443e-03
  2.0122533e-01
  4.8265349e-02
  5.0901496e-03
  8.0059674e-03
 -1.4026611e-01
 -6.0443964e-02
 -1.1043759e-02
  2.8328786e-02
  2.6161240e-02
  1.0382838e-02
 -4.3639805e-02
  6.9851903e-03
 -5.2140508e-02
 -9.3842052e-02
 -1.0096057e-01
  5.1758599e-01
  7.3684738e-03
 -1.6000800e-01
 -3.1553864e-02
 -1.5150045e-01
 -3.6769354e-01
  1.5698053e-02
  7.4526437e-02
 -2.3171179e-02
 -1.0651708e-02
 -2.9570475e-02
  1.0633608e-02
 -2.4417207e-02
 -1.7775599e-03
  1.1334021e-01
 -8.3317809e-02
 -5.4367920e-03
  9.7172946e-02
 -1.2737128e-01
 -2.7683759e-01
 -1.1545117e-01
  1.7854484e-02
 -1.0010592e-01
  1.5676595e-01
  2.2274053e-02
  6.5307222e-02
  4.5991968e-02
  3.3181589e-02
 -8.2114148e-01
  9.9183685e-01
  1.2733930e+00
 -9.1031653e-01
 -4.9106008e-01
 -7.2232407e-01
 -2.6867142e-02
 -1.4300723e-02
 -6.7597491e-01
  1.2539018e+00
  2.0968908e-01
 -2.9413709e-01
  8.3735406e-01
 -6.4656824e-02
  1.6498699e+00
 -7.9743171e-01
 -4.1453615e-01
 -8.5313819e-02
 -2.1845189e-01
 -1.2125691e-02
 -2.1498961e+00
  6.0613400e-01
 -2.2917101e-02
 -1.9530591e-01
  6.5435779e-01
  1.5016176e-01
  3.4108605e-02
  4.7001328e-02
 -1.1573516e-01
  4.3802679e-01
 -8.6095101e-01
 -7.3768042e-02
 -2.8808832e-01
 -1.0177695e-01
 -3.8147166e-01
  1.6123049e-01
  1.7222336e-01
 -5.7154024e-01
 -6.0683828e-02
 -4.1029376e-01
  7.0283341e-01
 -4.0056728e-02
  1.2926607e-01
  4.0962133e-01
 -5.2795821e-01
  1.9906300e-01
 -1.1730914e-01
  8.3421648e-02
  5.9353858e-02
 -8.5912310e-03
 -6.2951811e-02
  1.2553960e-01
 -1.5889613e-01
 -1.0337373e-03
 -3.9960764e-02
  1.2752658e-01
  2.2179474e-01
  3.6536220e-02
 -7.0798807e-02
  5.1372307e-03
  1.6552529e-01
  2.7289820e-01
 -9.8865340e-03
 -9.7272191e-03
 -4.2677920e-02
 -7.4852563e-02
  2.4331251e-02
  1.2401700e-01
 -2.9432241e-02
 -5.8645073e-02
 -1.2360238e-01
  2.9466403e-01
 -2.6614815e-01
 -1.8254913e-01
  1.3469150e-02
  5.6525666e-02
 -8.7754235e-02
 -2.5828348e-02
 -2.5336355e-02
 -7.7982202e-02
  1.0899010e-01
 -9.7784385e-02
  2.8952545e-02
  9.3039311e-02
 -1.3173842e-01
  3.7515347e-04
  6.0835533e-02
  5.3074777e-02
 -8.8729911e-02
  1.8715808e-02
  4.4661522e-02
 -1.5498599e-01
  5.1004123e-02
  6.8414442e-02
  3.6561340e-02
 -9.4622783e-02
 -1.9671361e-01
  3.3956550e-02
 -4.0460706e-02
 -4.3135890e-01
 -8.1099592e-02
  4.9883071e-02
  7.9591967e-02
  2.4082214e-01
 -1.8962638e-01
  4.2792454e-02
 -7.3738962e-02
 -6.8012083e-01
 -7.2174114e-03
 -5.5828857e-01
 -5.3268354e-02
 -2.0765723e-01
 -1.0427834e-01
  3.9441758e-01
 -4.5528862e-01
 -8.4680215e-02
  1.1852448e+00
 -4.9641374e-01
  2.5938380e-01
 -1.1302830e-01
  3.0415964e-01
 -2.2717176e-01
 -4.2799409e-02
  1.1863032e-01
 -1.8997280e-01
  1.6931953e-01
 -4.2911065e-01
  1.3183096e-01
 -3.0174240e-01
  5.2907612e-02
  6.6922650e-02
 -6.6703446e-02
 -4.4241894e-02
  1.6218072e-02
  7.4251038e-01
  1.2471730e-01
  1.8495668e-01
  1.8005067e-01
  5.1149249e-01
 -1.4092943e-01
  7.8088611e-02
  2.6075929e-01
  8.2459003e-02
 -3.7086666e-02
 -2.1724591e+00
  4.3554947e-01
 -8.3352096e-02
 -6.5281434e-04
  3.7022159e-01
  5.2737299e-02
  5.3137624e-01
  3.3081201e-01
  1.4028865e-01
 -2.9283857e-02
  1.6051230e-01
  1.1619087e-01
  6.4833753e-02
 -5.5385906e-02
  4.1675389e-02
  3.5296357e-01
  1.4197758e-02
 -1.4370419e+00
  1.5158067e-02
 -5.6730647e-02
  2.0018332e-01
  9.4418637e-02
 -7.3499516e-02
 -4.5475859e-02
  8.9045092e-02
  2.3145974e-02
 -3.3058882e-02
 -3.1406420e-01
  7.7100746e-02
 -7.8942338e-03
 -6.1306320e-03
 -5.6973860e-02
  4.4375837e-01
  2.9789316e-03
  6.2415946e-02
 -1.4135532e-02
 -1.9615030e-02
 -3.1795472e-01
  1.1908463e-01
 -5.8313513e-01
  8.4436692e-02
 -3.4266889e-01
 -1.6438100e-01
  4.8535831e-02
 -1.6926776e-01
 -4.1542067e-03
  5.5065471e-01
  9.1525316e-02
  1.2470488e-01
  1.8704465e-02
  1.1772938e-01
  4.0827446e-02
 -2.5292493e-03
 -1.4385262e-01
 -9.3087047e-02
  1.7551538e-01
  7.2874114e-02
  7.2615504e-02
 -2.7198197e-02
  9.9643655e-02
 -6.8859458e-02
 -1.9930258e-01
  1.3151598e-02
  1.5447517e-01
  5.0979819e-02
 -1.7568098e-01
 -5.4984444e-01
  2.2803096e-01
 -7.4446678e-02
  1.9729787e-02
 -4.8290767e-02
  2.0352730e-03
  8.4284782e-02
  1.2027806e-02
 -1.9360459e-01
 -1.5410975e-02
 -6.5843468e-03
 -1.4413564e-01
  7.8213476e-02
 -3.2665208e-02
 -1.4873463e-01
  1.4292525e-01
  6.5326363e-02
  4.7584612e-02
  1.3987684e-02
 -2.7640296e-02
  4.4976942e-02
 -7.6042754e-03
  1.4973973e-01
  9.0628058e-02
  1.2722780e-01
  1.1777116e-02
 -8.9753166e-02
 -4.9041685e-02
  6.7277849e-02
 -1.1141810e-01
 -2.9355941e-02
 -2.2534455e-01
 -5.7227798e-02
 -1.3973368e-02
 -8.4103231e-04
  1.1602257e-01
 -1.7251952e-02
 -8.3482340e-02
  1.1605395e-01
 -1.5084052e-01
  1.4353859e-01
 -2.8840342e-01
  1.3501166e-01
 -1.4650039e-01
 -3.0795071e-01
 -1.5922645e-01
  1.8933532e-01
 -1.5452790e-01
 -7.6478608e-02
  7.3471203e-02
  2.1113274e-01
 -5.9977975e-02
 -6.1771080e-02
 -9.1982998e-02
 -2.6470724e-02
 -8.1004933e-02
 -1.2701371e-01
 -1.3359074e-01
  2.8055301e-04
 -1.6467625e-01
  1.0610972e-01
 -4.9460087e-02
 -1.6799583e-01
  8.2062716e-03
  6.2108945e-02
  3.8655538e-02
 -5.2431129e-02
 -9.0708472e-03
  2.9054049e-01
 -2.4719603e-01
 -4.2327002e-02
  1.0355417e-01
 -5.5804741e-02
  6.7205229e-03
  5.4299921e-01
  1.6866592e-01
  8.9801997e-01
  5.9512728e-01
  2.0035388e-01
 -1.1305068e-01
 -4.3783274e-02
 -6.1220028e-02
  5.2885365e-01
 -6.4644597e-02
  3.2689732e-01
  1.1560151e-02
  4.8004374e-02
  4.4521239e-02
 -1.0016226e-01
  8.1720716e-01
 -7.1488947e-01
  6.5322798e-01
  6.5971547e-01
 -6.2783379e-03
  1.6727552e-01
  2.0607696e-01
  3.5378423e-01
  3.8601682e-03
  8.3053268e-02
  7.1447223e-01
  1.1798727e-01
  1.0479681e+00
 -1.1092986e+00
  2.2357976e-02
  2.1833819e-01
  1.2465820e-02
  5.1849651e-01
 -4.5780081e-01
 -2.9837219e-02
 -1.3351297e-01
 -4.0948354e-02
  7.5333285e-01
 -4.2947655e+00
 -8.8776857e-01
 -1.6110638e-02
  3.4982130e-01
 -3.3896452e-01
  3.0080888e-02
 -1.8370426e-01
 -6.1241573e-01
  2.9975447e-01
  1.5165424e-01
  3.2197350e-01
 -4.7889558e-04
  1.6999310e+00
 -5.6529009e-01
  5.4450613e-02
 -8.4908739e-02
  3.3474960e-03
  1.2619746e-01
  1.7888958e-02
  2.7262680e-03
  6.8397927e-01
  5.4644424e-02
  1.4172754e-01
  1.9236909e-01
  3.2028398e-01
  1.6531646e+00
 -8.5419381e-01
  6.8724573e-01
 -9.1988698e-02
  7.8889847e-02
  1.4791836e-01
 -6.8117343e-02
  1.3811743e-01
  6.5875083e-02
  7.1859770e-03
 -1.1348701e-02
  3.3721007e-02
  3.6193349e-03
 -6.2421244e-03
  3.1927221e-02
 -2.7475175e-02
  9.3110502e-03
  6.5372931e-03
 -2.3920174e-01
  5.8432210e-02
 -2.1976108e-02
  3.6816105e-02
 -8.1678443e-02
 -1.5332943e-01
 -3.3452742e-02
  1.9183332e-01
 -1.8470168e-01
 -7.6672211e-02
 -6.4672162e-03
  7.3409803e-02
  4.4397801e-01
 -1.0671187e-02
 -1.3774528e-01
  3.3672391e-03
  2.6302508e-01
 -7.4990466e-02
 -1.0456889e-02
  1.7930420e-02
 -4.8625433e-01
 -2.0741677e-01
 -4.3058116e-02
 -8.5268028e-02
  4.3208264e-02
 -1.1064071e-01
 -3.9016113e-01
 -4.8662521e-02
  2.5931558e-01
  1.4022912e-01
  8.8150270e-02
  1.6875988e-02
  8.5313618e-02
 -1.0044399e+00
 -7.6213360e-02
  1.4699718e-01
 -3.7689406e-01
  5.4164660e-01
 -2.9546368e-01
 -1.2703866e-01
 -3.8392998e-02
 -4.5316331e-02
  1.5320269e-02
  1.3391168e-01
  1.5652481e-01
 -1.0986760e-01
  8.0196913e-03
  2.1313640e-01
  1.0323147e-01
  5.3488329e-02
 -9.3967706e-02
 -6.1382669e-01
 -3.0642712e-02
  2.4950868e-02
 -6.0507540e-02
 -1.8874717e-01
 -3.1350031e-02
 -9.0157576e-02
  3.0628417e-03
  4.7016558e-01
 -4.6561155e-01
  6.0855765e-02
 -2.7421786e-02
 -8.6180046e-03
 -3.9516788e-02
  2.7255412e-02
 -5.4260515e-02
  2.6743421e-02
 -2.6625356e-01
 -5.8158305e-02
  1.0846100e-01
 -4.9610567e-01
  7.4774420e-01
 -4.1270623e-01
  2.7436340e-01
 -3.5961200e-02
 -6.4437620e-02
 -2.5365472e-02
  1.0960978e-01
  3.3583280e-02
  1.1911504e-02
 -2.0999396e-01
  3.4823634e-02
  1.8264238e-02
 -6.4412844e-03
 -1.0015625e-02
  1.2519637e-01
  1.0891033e-01
  7.8278050e-02
  5.5419070e-01
 -1.2683414e-02
 -3.6195239e-01
 -9.4904944e-02
  9.8185027e-01
 -1.7377409e-01
 -1.0827469e-02
 -4.3734264e-01
 -9.6740529e-02
 -3.5035465e-02
  8.3104596e-02
 -3.2005168e-02
  2.0813280e-01
 -7.6795579e-03
 -2.6497391e-01
 -5.7528447e-02
  2.4695577e-02
  8.6615374e-03
  6.5860257e-02
  4.2851484e-01
  3.4836255e-02
 -2.6977733e-01
  8.0042429e-02
  7.3714709e-01
  9.9384136e-02
 -4.2513835e-01
 -1.5067195e+00
 -4.1592795e-01
 -2.5112569e-01
 -9.0056330e-02
 -2.0325349e-01
 -1.9083655e+00
 -4.9816763e-01
 -1.1313117e-01
 -2.1746336e-01
 -2.5949171e-01
 -5.2024615e-01
 -1.8231134e-03
  1.6172583e-01
  1.0598892e-01
 -2.1464860e-02
 -1.1173109e+00
  4.7708696e-01
 -3.1633293e-03
 -1.4027392e-02
  4.7575194e-02
 -3.5839573e-01
 -1.8803225e-01
 -9.5037194e-03
  9.4902655e-03
 -2.9744308e-02
  2.4982204e-01
 -2.7006775e-02
 -1.1683374e-01
  1.0267026e-01
 -1.5808915e-01
  2.3546472e-01
  2.5082994e-02
 -4.4244170e-02
 -1.0842564e-01
 -2.7444012e-02
  1.9875139e-03
  3.3970033e-03
  6.5900378e-02
 -1.7989671e-02
  1.4221998e-01
  3.2785159e-02
  4.5694422e-02
  8.8634714e-02
  8.5066892e-02
 -5.7389189e-02
 -1.1509628e-01
  1.1104989e-02
 -4.2114541e-01
  9.1809765e-02
  3.6872182e-02
  1.7449180e-02
  4.8490208e-02
  7.8726374e-04
 -2.3245873e-02
  2.7166545e-01
 -7.8756723e-04
  2.6945259e-02
 -2.4313916e-02
 -1.0860869e-01
 -2.4249691e-03
 -2.9520171e-02
  3.9202887e-01
  1.7884068e-02
 -1.5854377e-01
 -4.8546564e-02
  9.5149204e-02
 -4.5675818e-02
  1.9428888e-01
 -3.5645302e-02
  1.3507234e-01
 -3.0435199e-02
 -4.4961032e-02
 -1.0331960e-01
 -7.7435732e-01
  5.5420220e-01
  2.5020890e-02
  7.0074879e-02
  6.0317926e-02
  4.5655433e-02
  9.7455665e-02
 -1.8878499e-01
 -3.0819753e-01
 -5.7348050e-03
 -7.5933427e-02
  1.3755472e-01
  6.3347062e-03
 -4.1165772e-01
  7.4363828e-02
  1.9380134e-02
  4.5430708e-01
 -2.8462809e-02
 -7.1378805e-02
  3.9815020e-02
  6.6556253e-02
 -6.4077298e-03
  1.6165452e-02
  2.1378271e-02
 -2.6246426e-01
 -8.0573581e-02
 -3.4350392e-01
  5.5383623e-02
 -2.4082933e-01
  1.7821456e-01
  6.2134210e-02
 -1.5011802e-03
  7.7797544e-01
  3.0844893e-02
 -6.9870842e-01
 -5.4580677e-02
 -1.0709895e-01
 -1.1222607e-02
 -1.1183653e+00
 -5.5241276e-02
  4.7420111e-02
  9.8358065e-01
 -3.9977652e-01
 -4.9441632e-02
 -1.1144251e-01
 -7.6781422e-02
 -4.3418783e-01
  4.2811971e-02
  1.9966926e-02
  4.1107178e-02
  5.3054929e-01
  1.0784930e-03
  8.8557847e-02
 -9.4383374e-02
  1.0680195e-01
  1.2971032e-01
 -1.1667560e-01
 -4.7973418e-03
 -1.6264059e-01
 -3.8366985e-02
  2.8803987e-02
 -1.2883359e-01
 -2.5696462e-01
 -1.0404528e-01
  3.1077629e-02
  5.6404588e-05
  4.2438157e-02
  7.5845703e-02
 -8.8285886e-02
 -3.2068961e-03
 -4.9883258e-02
 -5.4048890e-01
  1.2318651e-02
  5.4728549e-02
 -5.6478269e-03
  1.9938676e-02
  1.5975954e-02
  1.0257050e-01
 -2.6814196e-01
 -1.7536121e-03
 -7.4404471e-02
  4.6789404e-02
 -2.4693027e-01
  1.2149395e-01
 -1.1457124e-01
 -1.5120725e-02
  6.6073291e-02
  3.8992222e-02
  8.0826087e-03
 -7.3616572e-02
  3.9844457e-02
 -2.0709108e-03
 -6.4887255e-02
 -2.0775636e-01
 -2.1012951e-02
 -1.2574223e-01
 -5.1544849e-02
  1.6020122e-01
 -5.3155565e-01
 -1.7692734e-02
 -7.9475492e-02
  2.8280759e-01
  5.1859174e-02
 -3.6104344e-02
  7.5937338e-02
  3.7196942e-02
  2.5750193e-01
 -1.0667437e-01
  1.1008898e-03
  9.2473447e-02
 -1.3827148e-01
  2.5040623e-02
 -2.1080320e-01
  2.0319085e-01
 -4.3736052e-02
 -1.1843400e-01
 -7.1400128e-02
 -2.7613467e-01
  1.4617820e-01
 -1.6583304e-01
 -6.6626139e-02
  7.2190553e-02
 -9.9726267e-02
 -5.8380924e-03
 -6.8946160e-02
  4.1055597e-02
 -1.9561154e-01
 -3.8099125e-02
 -3.5053615e-02
  2.6253012e-03
  2.8563046e-01
  1.7886961e-01
  3.7477117e-02
  2.6752505e-01
 -1.0362661e+00
  1.2359031e+00
  5.8138162e-02
 -4.4845391e-02
 -1.2802912e-01
 -3.3348402e-01
 -2.8976268e-01
  8.7334234e-01
 -2.2196144e-02
  2.8999281e-01
  7.4307337e-02
  3.3929667e-01
  1.3082182e-02
 -1.2594864e-01
  1.1197230e-01
  3.0120688e-02
  2.8754480e-02
  1.5353786e-03
 -1.0395461e-01
  5.4674797e-02
 -3.4408286e-01
 -2.2902292e-01
  6.5173768e-02
  5.0559137e-02
 -3.4907348e-02
  9.5614046e-01
 -2.2635528e-01
 -1.9152513e-01
  4.7168216e-01
  1.5101496e+00
  4.7394660e-01
  6.9282725e-02
  1.0148322e-01
  6.7098446e-02
 -9.0065990e-03
 -3.0641812e-01
 -4.8559830e-01
 -4.2378008e-01
  3.2992008e-01
  1.3909222e+00
  6.9064379e-02
  5.2617848e-01
  5.0020891e-01
  2.4921706e-01
  1.0494778e-01
  3.6911905e-02
 -4.3632126e-01
 -2.0614818e-01
  1.5115006e-01
  6.8170482e-01
  3.2602531e-01
 -3.2995427e-01
 -1.8726030e-01
 -4.9786430e-02
 -1.3055818e+00
  3.5997633e-02
 -2.0579077e-01
  1.1851958e+00
  9.2998207e-02
 -1.8342552e-01
 -4.0303481e-01
 -1.2769536e+00
  1.0899934e-01
  1.5808944e-01
 -1.2427280e-01
 -1.5493536e-01
  1.1936639e-01
  1.5764086e-01
  4.5546271e-02
  2.6103970e-01
  3.8555351e-01
  9.5908731e-02
 -9.2539161e-02
 -1.9939992e-01
 -8.9919660e-03
  1.5556040e+00
  1.7065814e-01
 -2.1437424e-01
 -2.4250728e-01
 -1.0622913e+00
 -6.6494906e-01
 -1.7292575e+00
 -1.3028832e-01
 -1.8096846e-01
 -6.2154496e-01
 -7.5085834e-02
  6.2151992e-01
  6.2185757e-02
 -2.0139817e-02
  7.1152276e-01
 -3.9883015e-01
 -2.3863158e-01
  4.6877825e-01
  3.5302080e-02
 -1.5219487e-01
 -5.2681491e-02
 -3.3554275e-02
  9.1994286e-02
 -1.4786013e-02
 -5.6456637e-02
 -6.2371280e-02
  7.5727716e-02
  3.2134097e-02
 -2.9921517e-01
  1.1576939e-01
 -1.0606488e-02
  1.4214818e-01
  4.7909647e-02
  3.3410303e-03
  1.4986496e-01
 -1.8655880e-01
 -2.3503363e-02
  6.5648248e-03
  1.4163919e-02
  4.4780213e-02
 -1.4376874e-02
 -6.9478229e-02
 -3.7116926e-02
  1.3613637e-04
  4.9053848e-02
 -6.9382568e-03
 -1.4192251e-02
  1.6930373e-02
  3.5351135e-02
  9.4598599e-02
  1.4384599e-01
 -3.0401310e-01
 -1.7147411e-02
  2.7302871e-02
  1.0059465e-03
  8.5349247e-02
  9.0345778e-02
  8.4120724e-03
  3.3844104e-01
  5.5147558e-02
 -4.5289937e-02
 -9.4064334e-03
  5.3596739e-02
 -9.7766802e-02
 -5.4717481e-02
  1.0626183e-01
  1.1934051e-02
  2.7316025e-01
 -5.5572260e-03
  5.0653727e-03
 -1.1257582e-02
  7.2287209e-02
 -2.3093033e-01
 -6.4162321e-02
 -7.7047750e-02
  5.5555826e-01
 -3.5328101e-02
  1.2510026e-01
  3.8289237e-01
  2.4489096e-01
  1.0625669e+00
 -1.2380616e-01
 -7.0718303e-02
  2.0322567e-01
 -8.1127798e-03
 -2.2919571e-02
  2.3530491e-01
 -9.5138907e-02
 -6.1307563e-03
  1.2007881e-02
  1.8692190e-02
  1.7665225e-01
  2.5891308e-02
  5.5360757e-02
 -1.5839709e-01
 -8.4860250e-03
 -3.8572092e-02
 -5.7388194e-02
  1.5324596e-01
  9.6534602e-02
 -8.7045603e-02
 -2.4465260e-01
 -1.8632622e-01
 -1.2771747e-01
  5.5459034e-02
  7.7847965e-02
  2.7937122e-02
 -9.5992230e-02
  1.4429477e-01
  7.5897411e-02
 -1.2900075e-01
 -4.1858265e-03
 -7.0068454e-03
  2.7183506e-01
  7.3300586e-03
 -1.0308568e-01
  9.9691570e-02
 -3.1226411e-02
  9.3561918e-01
 -1.4520322e-01
 -1.7504320e-02
 -1.1133507e-01
 -1.8362553e-01
  6.8865979e-01
 -2.5701445e-02
 -5.1095091e-02
  6.1234180e-04
  6.8249237e-03
  4.7069760e-03
  2.8335664e-01
  2.0601714e-01
  9.2921276e-03
 -2.1193229e-01
 -2.1173185e-01
  2.0173365e-02
 -1.7327486e-02
 -6.0266946e-02
 -1.5134612e+00
  2.8407001e-01
  3.7711531e-02
 -3.8382900e-01
  7.7840108e-01
  2.1239324e-01
  1.7861478e-01
  3.0568114e-01
 -1.0314483e-01
  7.0280448e-02
 -4.3600690e-01
 -2.7481018e-02
 -7.1840458e-02
  1.4381254e-01
  1.2765056e-03
  6.3033134e-02
 -1.8458301e-01
  1.8144083e-01
 -3.3984788e-02
  1.8147594e-01
  1.7109737e-01
  1.4102499e-02
 -1.1011711e+00
  4.5893688e-02
 -3.1237057e-01
  3.1814106e-02
  2.8141661e-02
 -5.6545708e-02
  7.0428222e-02
  6.6281214e-02
 -7.3140040e-02
 -2.3898339e-01
  8.5713314e-03
  3.6871370e-03
 -4.8980024e-02
  9.0215459e-02
 -2.4724147e-01
  6.0464542e-02
 -3.6768511e-02
 -8.0091923e-02
  8.1682451e-02
 -1.8620320e-02
 -5.0240379e-02
 -2.5623712e-01
 -3.5734871e-01
 -3.9107967e-02
 -1.0641845e-01
 -1.7166557e-02
 -1.2121139e-01
  1.4027277e-03
  2.9076122e-02
 -7.6602814e-03
 -2.4366993e-02
 -5.8516264e-02
  1.6167766e-01
  1.2637514e-01
 -4.8708044e-02
 -6.2885724e-02
  7.8206621e-02
 -1.5890000e-02
  1.3970149e-02
  8.1334896e-02
 -7.0283189e-02
 -6.3776314e-01
  2.2523846e-01
  4.5249150e-03
  1.1573415e-01
 -2.2366428e-01
  2.2947727e-01
 -9.7672775e-02
  3.1706649e-01
 -3.3621367e-02
 -2.1154203e-02
  5.8487408e-02
 -3.1925008e-02
  8.2720809e-02
 -1.4739952e-03
 -3.4249268e-02
  1.3422945e-01
  4.2190021e-01
 -1.8978250e+00
 -1.1657818e-01
  5.5244658e-02
 -1.2071168e-02
  9.5006004e-02
 -7.1238853e-02
 -1.2026820e-01
  1.6146083e-01
  4.4115703e-03
  9.4129369e-02
 -1.7817190e-02
  8.8752089e-03
  1.5631215e-01
 -2.5788802e-01
 -3.4682022e-03
  2.3926710e-01
 -5.5613066e-03
 -6.3406795e-02
  8.8560420e-01
 -2.5143277e-02
  8.5756592e-02
  1.2195194e-01
  4.9923449e-03
  3.5938535e-02
 -1.1115334e-02
  4.7979699e-03
  3.1205602e-02
  1.0832540e-01
 -6.4682871e-02
  3.8558517e-02
 -9.7597472e-02
  2.3904464e-01
  3.6821987e-02
  2.1010748e-01
 -7.7189714e-01
  4.4679841e-01
 -3.7590531e-01
 -2.3500592e-02
  1.4629014e-01
  2.3702957e-01
 -1.5513071e-01
 -1.8588808e-01
  3.7326854e-01
 -1.6382451e-01
 -1.6045383e-01
 -2.3779798e-02
  7.0173723e-01
 -2.3727543e-03
  7.0906550e-02
  1.0946134e-01
 -1.7478982e-01
  1.2645262e-01
  1.9818868e-01
  2.7887646e-02
 -8.7929122e-02
  1.1054296e-01
 -1.4882810e-01
  4.9685740e-01
  6.3534997e-02
 -1.3183074e-01
 -3.7490163e-02
 -4.9316470e-02
  3.4894398e-01
  5.9897393e-01
  9.0746492e-02
  2.8360166e-02
 -1.6014594e-01
 -5.3735569e-02
  6.3185513e-02
  1.2458855e-02
  8.7478869e-02
  4.0749786e-03
 -2.7574213e-02
  9.5183358e-02
  2.0793173e-01
 -3.1930810e-01
 -9.8011106e-02
 -4.4814166e-02
 -9.4703190e-02
  3.6441699e-01
  4.5365453e-02
 -8.2311803e-01
  8.9350134e-02
  2.6914817e-01
  1.2664598e-01
  7.0236787e-02
  1.8841064e-01
 -1.6694802e-01
  5.6924153e-02
  3.6589694e-01
  5.1745821e-02
 -2.8772858e-01
  1.9070378e-01
 -4.4903476e-02
  2.6326776e-02
  1.8900478e-01
  5.5830270e-02
  2.3240171e-01
 -1.2034574e+00
 -9.3430169e-03
 -1.2356332e-01
  7.4570842e-02
  4.8429839e-02
 -1.5255995e-02
 -2.2408977e+00
  1.1373840e-01
  4.0476065e-02
 -1.1537062e-02
 -2.0170392e-02
 -1.6378991e-01
  8.3247595e-02
 -4.5838892e-02
  6.2453698e-02
  1.3915074e-01
  1.2169593e-01
  2.2846572e-02
 -6.8810171e-01
  3.7078589e-02
 -3.8813032e-02
 -7.7299267e-02
 -8.7803021e-02
  2.1408027e-02
 -2.4711842e-02
 -2.1870057e-01
  1.3183689e-02
 -2.0127992e-01
 -6.0594868e-02
  4.2283233e-02
  1.9104905e-02
  1.1664573e-01
 -4.4121038e-02
 -3.6380481e-02
  6.2749974e-02
  4.8624168e-04
 -1.3913915e-01
  1.0405866e-01
 -2.9383224e-02
 -4.3472972e-02
 -2.6342604e-02
 -1.1790784e-01
 -2.0776890e-01
  3.4338903e-02
  2.0191595e-02
  2.8001254e-02
 -1.3083079e-02
 -4.3841291e-02
 -9.8137654e-02
 -2.7062920e-01
